719 100
影响 0.097232305 -0.01314168 0.13673837 -0.17079525 0.081086516 0.19159481 -0.048990469 0.033151347 -0.11015283 0.17134541 -0.0044801882 0.0207192 -0.33159956 0.12256135 0.15168539 -0.18601729 0.077374704 -0.20858607 -0.079507492 0.10482166 -0.022104884 0.12021827 -0.015015685 0.10237826 -0.34852862 0.1045291 0.055089861 0.13843238 -0.12024676 0.1577284 0.16035965 -0.13182874 0.017007397 0.14582184 0.058621705 -0.11611113 0.19167779 0.031591147 0.045781553 0.039773133 -0.1399945 0.17861885 0.030637911 0.06085901 -0.10482833 -0.15112327 -0.13099508 -0.088136993 -0.044481624 -0.053060371 -0.087124631 0.21281362 0.074714266 0.16513036 0.086474255 0.038000949 0.051618449 0.2598955 0.1790016 0.22743046 -0.13635822 0.1335143 -0.1572789 0.26689777 -0.12878804 -0.016318358 0.023107208 0.022776544 -0.1342961 -0.049008161 0.033808049 0.069326267 0.080946036 0.19761984 0.12064425 -0.0078745903 -0.12479918 -0.13789438 0.10292269 0.19087717 -0.16544904 0.010629548 0.078981437 -0.038195599 -0.12755366 0.16365054 0.065593742 -0.024524299 -0.03245322 0.29286614 -0.11031054 -0.082698345 0.14692682 -0.015121124 -0.064053908 -0.015164184 -0.11598083 -0.036288094 -0.10697883 0.058453206
天然气 0.096206993 -0.011930291 0.14137714 -0.16409977 0.082664587 0.19498646 -0.049990039 0.030398237 -0.10879429 0.17877606 -0.0072403881 0.022519348 -0.33253661 0.11800034 0.15162955 -0.17207097 0.078520454 -0.21443269 -0.080921322 0.095318593 -0.032209709 0.12063608 -0.015586418 0.11089624 -0.34911606 0.096628703 0.063737303 0.13848716 -0.13145944 0.15108809 0.14516424 -0.14382124 0.014013056 0.1521972 0.069348261 -0.11976434 0.18542284 0.031662118 0.041013431 0.029364301 -0.13872488 0.18046306 0.03079797 0.053832248 -0.095563926 -0.1470076 -0.11870096 -0.08607237 -0.034757577 -0.057321731 -0.074120983 0.2089904 0.071684413 0.15660931 0.085520536 0.033500127 0.050037235 0.25624484 0.18467973 0.22156997 -0.13443476 0.13459831 -0.17557868 0.2624698 -0.13494945 -0.013913025 0.012742284 0.011571394 -0.12858029 -0.043183569 0.039971855 0.072007455 0.074311294 0.1989134 0.12697856 -0.012896793 -0.12809348 -0.13542834 0.10047887 0.18429114 -0.17523688 0.010855563 0.077369921 -0.046754688 -0.12763686 0.17024955 0.064659245 -0.034997467 -0.033981916 0.28609002 -0.10611464 -0.084428906 0.15247087 -0.0018105172 -0.070522159 -0.0060391645 -0.11305732 -0.030086132 -0.10332134 0.071237877
PVA 0.094061427 -0.017873427 0.14387 -0.16204941 0.08467932 0.19235273 -0.043284822 0.037382696 -0.10176565 0.16936861 -0.013383676 0.031670835 -0.32082477 0.11951332 0.1613256 -0.18314832 0.066063352 -0.19975488 -0.09402363 0.096514441 -0.020941749 0.13144666 -0.022786789 0.10181637 -0.34150586 0.094352297 0.064586647 0.13279577 -0.12052121 0.15893874 0.14858261 -0.14141859 0.017322671 0.14999115 0.05755432 -0.11412334 0.18941188 0.0355381 0.045810707 0.038973492 -0.12780176 0.17959318 0.026602987 0.049326956 -0.10602299 -0.14208181 -0.11855856 -0.094956018 -0.039192885 -0.051987614 -0.093220904 0.21314453 0.079456598 0.16005464 0.093745239 0.028433768 0.054381125 0.26392508 0.18720463 0.22519147 -0.13306813 0.13349071 -0.1729413 0.26418808 -0.12918554 -0.019940658 0.0085631507 0.023148214 -0.13178328 -0.049882099 0.041980527 0.067214139 0.069729857 0.19266623 0.11467139 -0.0047104335 -0.11824032 -0.12960045 0.11628579 0.19142468 -0.16468115 0.010005333 0.074879281 -0.034602314 -0.12705198 0.1739312 0.057912271 -0.030832266 -0.034185227 0.28960484 -0.11243911 -0.078304507 0.14500497 0.0012424756 -0.067647427 -0.009742341 -0.12118224 -0.034051858 -0.099212103 0.060693588
终端 0.095012814 -0.020628391 0.14091937 -0.16108465 0.091655836 0.20230247 -0.034762628 0.030380836 -0.10627741 0.17179552 -0.017082581 0.033740819 -0.32235092 0.11690011 0.15611911 -0.18598995 0.075760238 -0.19914722 -0.083704099 0.092040874 -0.020755742 0.12677109 -0.021675892 0.10931318 -0.35449237 0.099291988 0.068485394 0.12451186 -0.1232254 0.1550772 0.14800674 -0.1420317 0.0045703785 0.14773101 0.072141141 -0.11690254 0.19150336 0.033182718 0.039817542 0.033709303 -0.14666556 0.17536235 0.018593639 0.054197121 -0.10798647 -0.14346623 -0.12579343 -0.085390382 -0.040517811 -0.049149677 -0.078109637 0.21406205 0.071048036 0.1710234 0.087582469 0.038001046 0.047041569 0.25778183 0.18327086 0.22179107 -0.14097381 0.13041088 -0.17452915 0.26967329 -0.13629229 -0.023252282 0.023457762 0.025700158 -0.13619398 -0.048099238 0.045900591 0.07203874 0.0723399 0.19571032 0.12302236 -0.0061801495 -0.13653141 -0.13534576 0.11076844 0.19495383 -0.17340137 0.01565144 0.078253657 -0.041189421 -0.1377674 0.17207561 0.061713003 -0.030929485 -0.018481528 0.28667054 -0.11668263 -0.08547575 0.14225273 -0.013644731 -0.062169399 -0.0070957984 -0.1178047 -0.028432118 -0.1057488 0.061791416
化工 0.087390684 -0.0033404292 0.14027756 -0.15382092 0.0921515 0.19875973 -0.048864774 0.036763117 -0.11762109 0.18193828 -0.010594606 0.034767121 -0.32552272 0.12871048 0.17566547 -0.17680317 0.061865401 -0.20531456 -0.10307239 0.090073891 -0.020367526 0.13200183 -0.017313609 0.096535638 -0.35037631 0.10463846 0.072675042 0.13165522 -0.12523966 0.16080086 0.14853688 -0.14112478 0.01561467 0.14896637 0.063432634 -0.10245235 0.17805676 0.03479315 0.054012284 0.038931325 -0.13497655 0.16689746 0.016600473 0.055118699 -0.1013487 -0.14415184 -0.1305474 -0.092566922 -0.043519106 -0.05978794 -0.1092804 0.21377772 0.081425838 0.15300192 0.09814512 0.024201283 0.041659206 0.25287873 0.18345721 0.22279795 -0.14105113 0.13916136 -0.16440797 0.27531257 -0.12748902 -0.015374068 0.0054840818 0.030111803 -0.14761129 -0.047756679 0.027305301 0.080707446 0.064834543 0.1972544 0.11646992 -0.0069514425 -0.13580243 -0.10814972 0.11906002 0.19588809 -0.16594368 0.0016304662 0.069223821 -0.044642292 -0.14165333 0.1685055 0.048666943 -0.017554721 -0.049535509 0.28592533 -0.09522903 -0.068841286 0.13963397 0.00078073062 -0.061047204 -0.020433914 -0.12733045 -0.0205018 -0.09868788 0.065132163
厂商 0.099486731 -0.025593238 0.13595851 -0.16424216 0.08493863 0.193066 -0.041382264 0.036648072 -0.10169175 0.17278624 -0.014426821 0.024635974 -0.3302629 0.11694652 0.14321153 -0.17201437 0.082445636 -0.20356494 -0.082032561 0.099141806 -0.020128513 0.12294535 -0.023755873 0.10490468 -0.36093855 0.098028623 0.064311482 0.12387043 -0.12694567 0.1497353 0.14894819 -0.13642915 0.020329038 0.1594483 0.064399891 -0.11361083 0.2008754 0.028061535 0.041306403 0.041061413 -0.14827056 0.16994901 0.017858485 0.05778512 -0.10035457 -0.15472163 -0.12373849 -0.089990571 -0.031962927 -0.057652023 -0.090630613 0.21477824 0.081313416 0.16317071 0.088351347 0.040551387 0.047228459 0.26323327 0.18744537 0.22868238 -0.14031544 0.14241622 -0.17241606 0.27020901 -0.13041614 -0.012481355 0.017466096 0.015976612 -0.14188552 -0.051203016 0.045361232 0.075114802 0.079867765 0.19951782 0.12870316 -0.00503904 -0.13535918 -0.13299966 0.10922198 0.19167292 -0.17650867 0.011307531 0.076647878 -0.044414692 -0.13291785 0.17129977 0.070134237 -0.034041043 -0.029612426 0.2988449 -0.11480063 -0.087840736 0.1408011 -0.013596017 -0.065557525 -0.010765901 -0.11296837 -0.040661577 -0.1025059 0.065143906
下游 0.10171506 -0.018482408 0.14654587 -0.15772511 0.083312772 0.20333824 -0.04783411 0.041968662 -0.11202196 0.17332436 -0.0065849032 0.030886959 -0.32959512 0.11987104 0.16172555 -0.17391968 0.064355277 -0.20201474 -0.091317974 0.090746954 -0.02111049 0.1313132 -0.017585438 0.10643601 -0.34993836 0.088771373 0.060473416 0.13238686 -0.1320205 0.14804089 0.14138024 -0.13544187 0.020573931 0.14753132 0.069425978 -0.11479846 0.18952365 0.035933152 0.043714438 0.043558259 -0.14285766 0.16968258 0.015732298 0.059025068 -0.105332 -0.14388677 -0.11930146 -0.090236396 -0.037416182 -0.04833407 -0.088889584 0.20880874 0.066921346 0.16259874 0.085575819 0.025266133 0.042086165 0.26035804 0.17931995 0.21760683 -0.13957207 0.1336879 -0.17134707 0.26931709 -0.12400514 -0.013775012 0.020706313 0.025346769 -0.13975753 -0.052361812 0.035453934 0.073454775 0.069913343 0.19161069 0.1262466 -0.011564774 -0.1348089 -0.12481622 0.10702275 0.19658004 -0.16912687 0.0067786151 0.079577029 -0.042880088 -0.13987064 0.17037787 0.063173734 -0.030469324 -0.029632121 0.28882164 -0.11053547 -0.084499344 0.14212352 -0.0093659032 -0.069361016 -0.016477356 -0.11774457 -0.028273249 -0.099647015 0.064412773
磷 0.099564046 -0.0089864368 0.15135388 -0.1587175 0.087768458 0.20162669 -0.045211803 0.043201696 -0.11821132 0.18168496 -0.012598214 0.03761844 -0.32879737 0.12760863 0.17919205 -0.18370387 0.06851247 -0.20418161 -0.10132478 0.1025541 -0.022461312 0.12803103 -0.024036817 0.10337708 -0.36115903 0.10759529 0.069357395 0.1290562 -0.1212557 0.15115389 0.14826034 -0.14520808 0.020804288 0.14554492 0.059674073 -0.11322078 0.18532158 0.033723742 0.043876488 0.035940751 -0.1392874 0.16834678 0.02277144 0.0607071 -0.10644567 -0.13829249 -0.13366286 -0.09294112 -0.038289372 -0.051566411 -0.10936718 0.22135682 0.073661074 0.16521099 0.10254063 0.025918784 0.053102013 0.26158878 0.18584706 0.21682347 -0.14121826 0.14636186 -0.16486728 0.27528426 -0.13462903 -0.011053463 0.0073240809 0.026039286 -0.14882885 -0.047712147 0.034445047 0.075358719 0.065863289 0.2047835 0.13113192 -0.0098397145 -0.13632186 -0.11021908 0.10842057 0.19973202 -0.17731129 0.0093528964 0.07313595 -0.042708687 -0.13332444 0.17460218 0.049063485 -0.022283873 -0.040476941 0.28582224 -0.09505254 -0.08343149 0.1455856 6.8453897e-05 -0.060329556 -0.021953912 -0.12007192 -0.019264787 -0.10523944 0.070965417
提升 0.097301997 -0.023578372 0.14620456 -0.16471407 0.079359412 0.20560899 -0.041451689 0.043069165 -0.11338804 0.17760183 -0.0095156673 0.018777493 -0.33638775 0.11839325 0.15872374 -0.18683219 0.074482091 -0.21124141 -0.081964917 0.10150366 -0.026873415 0.12046106 -0.020724403 0.10800771 -0.36119482 0.09544906 0.06630978 0.12474318 -0.1288722 0.15409163 0.13975917 -0.13928519 0.014544171 0.14834358 0.069963954 -0.124316 0.19333071 0.027357582 0.041051053 0.030637113 -0.14727323 0.18295054 0.026269028 0.049182627 -0.097807452 -0.14498155 -0.11592436 -0.078895435 -0.044559371 -0.048682582 -0.076241784 0.21920317 0.067539647 0.16477434 0.086448014 0.034308709 0.045540549 0.25486904 0.1925142 0.22626387 -0.14246707 0.13013099 -0.17082895 0.27087027 -0.12923452 -0.023206891 0.020889435 0.020866994 -0.13985564 -0.047674909 0.039844349 0.071516037 0.079335533 0.20188479 0.12919059 -0.012959152 -0.14257944 -0.1400187 0.097299784 0.19695531 -0.18521476 0.017787414 0.077999011 -0.041801717 -0.14315565 0.16953893 0.062798128 -0.038801413 -0.02588745 0.28962335 -0.11273233 -0.08847031 0.15593135 -0.01092707 -0.06899073 0.0010236773 -0.11415417 -0.035150804 -0.1002182 0.060157996
采购 0.093607135 -0.015347434 0.13733488 -0.15902525 0.087176204 0.20303655 -0.048775531 0.041799434 -0.10870093 0.17731419 -0.01499668 0.024314608 -0.33099115 0.11778472 0.15544619 -0.17999345 0.078908376 -0.21358818 -0.085178554 0.099298373 -0.017996259 0.12151554 -0.015930239 0.10795932 -0.36064032 0.10181674 0.064576589 0.13168602 -0.12053929 0.15302289 0.14917728 -0.14827992 0.015383269 0.15438436 0.058870893 -0.11476647 0.19639334 0.030179908 0.037613191 0.039628994 -0.14017379 0.17498545 0.027684499 0.05769686 -0.10450401 -0.14949916 -0.11915059 -0.088910669 -0.039920975 -0.060374487 -0.090243809 0.21655376 0.076319911 0.15648453 0.095893793 0.034101073 0.054216553 0.26388997 0.18562168 0.2296467 -0.13902873 0.13318741 -0.16723786 0.26803121 -0.12341139 -0.012075816 0.010858619 0.016052563 -0.13502321 -0.052655198 0.038967606 0.066355847 0.078719735 0.19685616 0.120805 -0.014033385 -0.13057262 -0.13236172 0.10766301 0.18504752 -0.17602226 0.012219531 0.077407718 -0.047804296 -0.13145907 0.1657387 0.054277316 -0.028257104 -0.038487684 0.29521435 -0.11279445 -0.086845636 0.14999193 -0.014146857 -0.066682376 -0.0032840471 -0.11769643 -0.027555486 -0.1094475 0.068195656
药品 0.090310611 -0.0084365243 0.14912623 -0.16709898 0.081056595 0.20802467 -0.057633456 0.026556056 -0.10546877 0.16705471 -0.0056349291 0.024115406 -0.3269591 0.10842817 0.15103297 -0.1676717 0.073866636 -0.20860344 -0.081467167 0.085749462 -0.028357036 0.11419618 -0.0043670912 0.10015328 -0.34619129 0.093593292 0.074142218 0.13647416 -0.13677788 0.15123993 0.16399372 -0.13557234 0.01924235 0.14603181 0.071180314 -0.11592915 0.18504065 0.03709456 0.055056736 0.030159021 -0.14319225 0.17487633 0.032309279 0.048890445 -0.091024101 -0.14090548 -0.11450674 -0.099097103 -0.049953669 -0.053282503 -0.084862888 0.20936884 0.083006024 0.15970385 0.088612422 0.033841547 0.056700863 0.25852329 0.18714632 0.22399035 -0.14868359 0.14207745 -0.16673811 0.2685256 -0.11703202 -0.017295226 0.014321147 0.010667744 -0.14843106 -0.049560614 0.037282608 0.070945553 0.072424024 0.2003838 0.10943057 -0.0035747921 -0.12283359 -0.14610501 0.10335357 0.18792216 -0.1552541 0.017294092 0.081695326 -0.042740569 -0.12814394 0.16164877 0.053223021 -0.045047265 -0.016278652 0.29944062 -0.10071029 -0.079431444 0.15808117 -0.0074915919 -0.058987249 -0.00018219399 -0.11460937 -0.02578707 -0.11398301 0.057344712
延伸 0.092308305 -0.019064022 0.14361461 -0.15839328 0.08705239 0.18900107 -0.034882363 0.043451406 -0.10339009 0.16941102 -0.010161365 0.030420339 -0.3229174 0.12220422 0.15675895 -0.18105772 0.077785805 -0.20791636 -0.087637395 0.096888617 -0.021654831 0.12693813 -0.015681637 0.107406 -0.34889728 0.099036068 0.069269821 0.12832764 -0.12121356 0.14950296 0.14658439 -0.1421338 0.0077678049 0.15484792 0.067093916 -0.1157828 0.18676911 0.037993696 0.048908837 0.033815123 -0.14420123 0.17455012 0.018530525 0.05035482 -0.10609832 -0.14941946 -0.12343001 -0.07774511 -0.039989773 -0.050188672 -0.079040006 0.21695891 0.074673951 0.15797786 0.092984892 0.02825214 0.047617167 0.25237098 0.19374409 0.21455348 -0.14350383 0.14192051 -0.17148727 0.26736379 -0.12705663 -0.020398377 0.02246861 0.028180841 -0.14104685 -0.049596421 0.039374985 0.068603672 0.071258664 0.2017968 0.12095051 -0.014981063 -0.1303587 -0.13086154 0.1082688 0.184763 -0.17423783 0.012307453 0.0819811 -0.046587192 -0.13329501 0.16835418 0.060590561 -0.040904835 -0.024502371 0.29163635 -0.10239645 -0.089744292 0.14924233 -0.014049144 -0.070468403 -0.012629558 -0.1142 -0.031617865 -0.10155281 0.065562762
控制 0.08981283 -0.010598279 0.14759468 -0.16414732 0.091359735 0.20763531 -0.030221241 0.032415651 -0.10862545 0.17904738 -0.0086321132 0.027836891 -0.33024368 0.12306567 0.1510074 -0.18101053 0.08847563 -0.20002346 -0.076869458 0.090366952 -0.026079293 0.12514146 -0.020707874 0.11366691 -0.35926136 0.095484376 0.064153843 0.12817219 -0.12669045 0.14552951 0.14798106 -0.143914 0.02042052 0.14367887 0.068060093 -0.10642853 0.20241444 0.041738432 0.034713045 0.033291422 -0.13976452 0.16588046 0.022588287 0.048541311 -0.10966232 -0.14285523 -0.11999634 -0.087458163 -0.040887963 -0.050812807 -0.083382942 0.21390052 0.062739253 0.1563298 0.084221825 0.038521335 0.041512396 0.25944728 0.18410699 0.22246455 -0.14200328 0.13479549 -0.17530373 0.26536357 -0.12660743 -0.01382439 0.028320692 0.021049481 -0.1398959 -0.04606669 0.047518346 0.075077094 0.070377551 0.19501327 0.13097154 -0.0042558182 -0.13898221 -0.13879289 0.10349906 0.19924174 -0.18129331 0.0081908172 0.072885826 -0.053401791 -0.12876548 0.16419888 0.066361815 -0.030345483 -0.025586868 0.29680461 -0.10982355 -0.085030228 0.15248321 -0.010918328 -0.074111901 -0.014395759 -0.1112598 -0.028978674 -0.092716426 0.06258186
生猪 0.075605869 -0.034133367 0.1276409 -0.17055389 0.08640942 0.18229689 -0.016103517 0.025548542 -0.11621638 0.17467287 -0.028920654 -0.0027043719 -0.32903334 0.13098788 0.13452145 -0.19069697 0.10213427 -0.20215431 -0.065810144 0.085959271 -0.039603714 0.10113833 -0.032657593 0.13468783 -0.36694416 0.076321207 0.078364208 0.12161896 -0.12750669 0.14770129 0.12236568 -0.13904218 0.010275964 0.15085742 0.086781494 -0.13258776 0.20738113 0.017262967 0.014922062 0.030277327 -0.15969826 0.1633497 0.017816396 0.055599246 -0.11163254 -0.15085389 -0.1076401 -0.07483346 -0.040673181 -0.055099715 -0.056105994 0.20311306 0.042654015 0.1510852 0.070738956 0.024264747 0.024918731 0.24706131 0.17498428 0.22880882 -0.12070331 0.12340908 -0.18798193 0.24205002 -0.13126747 -0.035097647 0.050484583 0.013029529 -0.13533531 -0.051817421 0.04619712 0.07401213 0.08576829 0.20911215 0.12884744 -0.017658921 -0.16206522 -0.11645477 0.079291031 0.21314678 -0.18984953 0.024107989 0.061589193 -0.046696141 -0.13831268 0.16485332 0.078530781 -0.050032403 -0.0018313786 0.29635173 -0.11661107 -0.099726796 0.14574862 -0.023877982 -0.068014793 0.01036205 -0.10912965 -0.020022172 -0.089989945 0.07612405
水泥 0.097190723 -0.0096415905 0.13378137 -0.16078205 0.078579709 0.19807708 -0.039527282 0.039208081 -0.10830588 0.17580763 -0.006730285 0.024657682 -0.32215795 0.11518611 0.15837076 -0.17328636 0.074162222 -0.19341263 -0.091147013 0.091443211 -0.029353771 0.1250481 -0.017032323 0.098844036 -0.34941706 0.10333417 0.066693455 0.12546362 -0.12356521 0.15167101 0.15493755 -0.13650954 0.0079603326 0.14618966 0.073394358 -0.11060879 0.18155833 0.035446078 0.043638825 0.042622875 -0.13960792 0.16890791 0.027627699 0.058593296 -0.10753829 -0.14330015 -0.11735767 -0.087995909 -0.035997041 -0.052198935 -0.090817459 0.2099064 0.073626161 0.15889037 0.082445122 0.023380494 0.03953281 0.25024995 0.18777411 0.22077978 -0.13395505 0.14526697 -0.1634035 0.27073169 -0.1238955 -0.016862767 0.025743201 0.020900356 -0.13465367 -0.047960695 0.03585 0.077483311 0.070233621 0.20139524 0.12610774 -0.015807405 -0.12975863 -0.13397087 0.10659314 0.19070217 -0.17416789 0.0039265091 0.071965605 -0.041432746 -0.12568125 0.16299653 0.063267551 -0.029097859 -0.023116492 0.28537714 -0.10939115 -0.084509127 0.14385904 -0.009633773 -0.0666278 -0.01554601 -0.11575752 -0.028660066 -0.094905242 0.061007209
养殖 0.073596597 -0.03200623 0.12770821 -0.16084851 0.094043314 0.19061659 -0.016715627 0.023409523 -0.12400766 0.18237963 -0.021278506 -0.0027248648 -0.32186449 0.13076276 0.1256821 -0.19044878 0.10538185 -0.21001126 -0.070936091 0.084780015 -0.037485879 0.10541277 -0.032655977 0.14278175 -0.3712731 0.079490855 0.085216291 0.12613748 -0.12154511 0.15244156 0.11858374 -0.1393093 0.0039722812 0.15100695 0.084781982 -0.13234456 0.20756623 0.024183324 0.013389452 0.041257739 -0.16112164 0.15618984 0.028912861 0.049218565 -0.11855704 -0.14423913 -0.11397516 -0.071817294 -0.050792109 -0.06350188 -0.053037703 0.21017218 0.046143103 0.16029625 0.075892001 0.024555305 0.017975869 0.24113792 0.16907892 0.21996741 -0.13522725 0.12514044 -0.18043399 0.25086159 -0.12693635 -0.03449497 0.056848746 0.020544702 -0.13222544 -0.05211867 0.049970515 0.066569589 0.077896491 0.21157369 0.13797505 -0.015296177 -0.16219725 -0.11381114 0.090191491 0.20907071 -0.19958012 0.018925663 0.060621656 -0.054570731 -0.13369891 0.16631788 0.065599874 -0.052877922 -0.0052296394 0.28573599 -0.11755922 -0.10310649 0.1545565 -0.029611042 -0.069895715 0.0027461327 -0.10687182 -0.034050379 -0.098475926 0.062742546
需求 0.096588708 -0.022562627 0.14554676 -0.16067243 0.07864558 0.20550498 -0.051042713 0.039473336 -0.10463698 0.17920704 -0.01032606 0.019091783 -0.33160472 0.11839747 0.15417519 -0.18029916 0.07473626 -0.21018247 -0.087178014 0.086342223 -0.028101437 0.12914605 -0.020530548 0.10515786 -0.35284415 0.091868848 0.065410532 0.13047771 -0.12628147 0.15709545 0.14708658 -0.14250097 0.01294198 0.15498021 0.064117692 -0.12002071 0.19184989 0.028537847 0.042365734 0.040100858 -0.14661892 0.17360137 0.026822712 0.058312297 -0.099301331 -0.14063248 -0.12589136 -0.08258909 -0.037669107 -0.052700974 -0.088428169 0.21953334 0.074087821 0.1626008 0.093525231 0.032910667 0.044597276 0.25747004 0.18239629 0.22055058 -0.14409465 0.13737984 -0.16179094 0.27408296 -0.13336502 -0.010554676 0.011847744 0.02333135 -0.13109949 -0.04694327 0.041325267 0.078307845 0.074630268 0.20425676 0.1230389 -0.015262297 -0.12705961 -0.12960686 0.10121512 0.18285221 -0.17781875 0.010178362 0.076073676 -0.043797553 -0.12845354 0.162848 0.066214077 -0.038866915 -0.033026006 0.29680753 -0.10398925 -0.078377552 0.15009762 -0.0048601194 -0.063599207 -0.0062693032 -0.1138959 -0.033471368 -0.10635456 0.068476506
医药 0.08741688 -0.019807346 0.15175474 -0.1586124 0.081159115 0.21005453 -0.046431921 0.025097122 -0.1067244 0.174254 -0.0019808684 0.027516725 -0.33311638 0.10902246 0.14854372 -0.17992279 0.078789286 -0.21067405 -0.076467209 0.090166211 -0.028916465 0.11960991 -0.01497962 0.10116027 -0.35157415 0.10249297 0.06670171 0.14095245 -0.12747493 0.14927746 0.15508375 -0.1389066 0.01333843 0.14436302 0.064609222 -0.12031477 0.19312985 0.041890882 0.047583323 0.038616806 -0.1458625 0.17957841 0.035050545 0.046670184 -0.084710442 -0.14980271 -0.12148603 -0.088113844 -0.037052244 -0.055348173 -0.078663282 0.20503765 0.068895854 0.16128673 0.094928682 0.032333396 0.052057885 0.25931257 0.17914768 0.21850288 -0.14716753 0.14242606 -0.17752305 0.26039231 -0.12658049 -0.014030268 0.022741655 0.018289613 -0.14095384 -0.061606087 0.04224645 0.06589146 0.073485404 0.1946348 0.11365473 -0.0045304638 -0.11870155 -0.14128408 0.098482437 0.18097208 -0.16656828 0.0041156644 0.071860887 -0.047638662 -0.13138628 0.17720146 0.056885116 -0.045832582 -0.016749363 0.29337397 -0.1095976 -0.083435826 0.16385972 -0.0051461533 -0.069465384 -0.0099081574 -0.11702782 -0.03911731 -0.10496774 0.060402054
能源 0.10299229 -0.0021726454 0.14044479 -0.16893598 0.089123562 0.20656545 -0.040027767 0.038531557 -0.10048091 0.1685077 -0.0094120121 0.033644572 -0.33297491 0.11032654 0.15453896 -0.17876075 0.06416937 -0.19846046 -0.093623549 0.099788152 -0.023067303 0.11711352 -0.016767487 0.10446593 -0.35842127 0.10146531 0.066659585 0.13065585 -0.1280853 0.14352281 0.15381017 -0.14058651 0.0071280496 0.14214446 0.06588725 -0.11797062 0.19012156 0.033174027 0.045515001 0.032946054 -0.14936788 0.17529123 0.020466875 0.055495996 -0.11426816 -0.15259483 -0.12679759 -0.090774246 -0.04591221 -0.055216823 -0.09603294 0.20783074 0.061584689 0.1607818 0.090987511 0.034898922 0.031669222 0.24738766 0.19014974 0.21462251 -0.13837928 0.14258955 -0.16266371 0.27031338 -0.11952353 -0.015986972 0.035590943 0.02790514 -0.14239027 -0.053273905 0.024898443 0.07585825 0.066523023 0.20667174 0.12999874 -0.017778579 -0.12988314 -0.13348573 0.10406642 0.18662919 -0.16808233 -0.0033650601 0.080209829 -0.042238995 -0.13277532 0.170371 0.066245034 -0.032763578 -0.037124682 0.29552653 -0.10494281 -0.093462601 0.14242415 -0.018333713 -0.074232183 -0.0074856784 -0.11155998 -0.03540086 -0.089817151 0.06786111
分销 0.085969076 -0.026169691 0.14252031 -0.17352897 0.081152581 0.19756612 -0.033249851 0.026300382 -0.12278227 0.1817838 -0.026577048 0.0035626823 -0.32865587 0.12891379 0.13810079 -0.18964826 0.09565679 -0.22184832 -0.069929488 0.09554299 -0.031137401 0.11644775 -0.02413775 0.13283263 -0.37213913 0.079213105 0.068752438 0.13822754 -0.12909012 0.15384752 0.12865406 -0.14495255 0.019594917 0.15236852 0.080092438 -0.12092636 0.19853026 0.034199554 0.023790799 0.039403118 -0.16163854 0.16837853 0.025688332 0.050524887 -0.10833874 -0.15404274 -0.11720514 -0.084601022 -0.040024884 -0.058599658 -0.07440263 0.21644768 0.057198506 0.16012447 0.080574937 0.029762432 0.032414522 0.24975638 0.1802725 0.22407395 -0.13182481 0.13420016 -0.18452102 0.2520209 -0.13207406 -0.022246799 0.040468838 0.012489312 -0.13998497 -0.052241057 0.041353762 0.066340148 0.072366431 0.20877309 0.12697817 -0.018003628 -0.15461515 -0.12752542 0.082490839 0.20690016 -0.18947831 0.017313024 0.065094106 -0.050006721 -0.13643911 0.16883717 0.070457011 -0.041896559 -0.011385131 0.30005583 -0.11309602 -0.099062696 0.15906401 -0.017579598 -0.064693049 0.007637321 -0.12186383 -0.023377342 -0.097590245 0.076005958
上游 0.099744037 -0.013373628 0.13233933 -0.1689259 0.077294402 0.20203578 -0.041154262 0.03663544 -0.1055546 0.17107347 -0.0073865158 0.024416536 -0.3325215 0.1117726 0.15324272 -0.18069793 0.077308021 -0.20666735 -0.087144062 0.1015109 -0.019601008 0.12077416 -0.0060234512 0.10757117 -0.35400549 0.090623058 0.070558228 0.12997898 -0.12540355 0.15604787 0.15690349 -0.13434248 0.017151415 0.1456265 0.063933909 -0.1225827 0.18503487 0.038063977 0.050900038 0.043489508 -0.14489177 0.17825824 0.021320838 0.061829738 -0.10979587 -0.14203776 -0.12547277 -0.094653554 -0.044931013 -0.056781426 -0.091244221 0.20559694 0.077345617 0.15669174 0.097382836 0.032694098 0.045352139 0.25709412 0.1895647 0.22302939 -0.14595693 0.14847717 -0.174739 0.2698819 -0.12315813 -0.013138417 0.02911187 0.015688183 -0.13446151 -0.053197637 0.034275949 0.071017586 0.071168058 0.20507447 0.13321824 -0.013901474 -0.12455603 -0.13864644 0.10158744 0.19952202 -0.16382207 0.0089694513 0.078965463 -0.033569261 -0.13649569 0.17749347 0.059040967 -0.029176954 -0.037673142 0.2894001 -0.11111018 -0.092694722 0.14367113 -0.0090759136 -0.060779221 -0.0023390099 -0.11179629 -0.028284421 -0.10377568 0.061126355
关系 0.099605776 -0.0083155623 0.13701227 -0.1635143 0.080827273 0.20353384 -0.040456254 0.042948429 -0.099262759 0.16708927 -0.004905384 0.029482998 -0.32672301 0.11931875 0.15208127 -0.18090442 0.079517536 -0.2001754 -0.089195043 0.10006881 -0.024237055 0.11560886 -0.0099057686 0.096474089 -0.35361177 0.097862802 0.058272019 0.12441603 -0.1329093 0.14849171 0.15708101 -0.14379309 0.010940384 0.14309426 0.070201725 -0.11352991 0.18174766 0.035344604 0.040131569 0.038828686 -0.1425561 0.17552257 0.024045408 0.04971341 -0.10909248 -0.1458714 -0.11700601 -0.084229097 -0.040296342 -0.055853438 -0.090020612 0.21030693 0.066835456 0.15328442 0.096571371 0.030669212 0.044586774 0.25960314 0.1802434 0.22018443 -0.13339148 0.14023989 -0.16902401 0.2738899 -0.12575144 -0.01549957 0.019869767 0.015423152 -0.13616678 -0.052409895 0.031400036 0.068457931 0.070281692 0.19290324 0.11704881 -0.012281981 -0.12958023 -0.12516154 0.11358476 0.18608148 -0.1595913 0.013166547 0.077357113 -0.035415035 -0.12904906 0.17567351 0.062086206 -0.025427883 -0.032768138 0.29537344 -0.11521573 -0.077997595 0.13946833 -0.015362358 -0.06271483 -0.01033299 -0.11200479 -0.035415467 -0.10265129 0.068820074
医疗 0.094577357 -0.018387811 0.14577481 -0.16437556 0.080659688 0.20645326 -0.054384559 0.023798795 -0.11072568 0.16335289 0.0054507018 0.027875958 -0.33957586 0.11066557 0.15203686 -0.17334658 0.071301401 -0.20849396 -0.089641571 0.088998482 -0.017104901 0.11192819 -0.005462185 0.10032599 -0.35267732 0.089047298 0.070026547 0.14128357 -0.13326889 0.15702078 0.15536545 -0.14421371 0.015481563 0.1539586 0.077515505 -0.12424655 0.17532094 0.03401624 0.052194308 0.036326431 -0.14586265 0.16987287 0.035211269 0.04209001 -0.08586856 -0.13615967 -0.11521291 -0.090760514 -0.047537148 -0.057864223 -0.086134613 0.20985211 0.082957387 0.15408039 0.094064765 0.031661574 0.053691939 0.27280107 0.18716003 0.21995613 -0.16004045 0.13519949 -0.17768937 0.26613614 -0.12189529 -0.0032302216 0.01892787 0.017230226 -0.13450463 -0.055898108 0.038875349 0.073940076 0.069967166 0.2005821 0.11607249 0.0017625402 -0.11748027 -0.15463212 0.10659515 0.17649999 -0.15658699 0.007435597 0.077070363 -0.038878132 -0.13334864 0.17860161 0.054166045 -0.04511809 -0.0072876052 0.30577114 -0.10007898 -0.071995601 0.17151433 -0.0062897387 -0.059659626 -0.0068128961 -0.11643188 -0.035410069 -0.10274956 0.060200267
厂家 0.10673251 -0.017306983 0.14649478 -0.16886266 0.077119827 0.19462563 -0.047297377 0.033477336 -0.11108693 0.18102399 -0.0073906644 0.027675284 -0.33702999 0.11663949 0.15979469 -0.17934492 0.06730736 -0.21088254 -0.091677092 0.093587019 -0.026921893 0.12233704 -0.022859195 0.11185274 -0.35785183 0.10204745 0.069659762 0.13187082 -0.13574736 0.15052669 0.16083425 -0.1407523 0.018145388 0.1575734 0.071170136 -0.11597236 0.18528278 0.03093205 0.044933844 0.04683087 -0.13961762 0.17304972 0.030504281 0.059366625 -0.10277206 -0.14708854 -0.11928087 -0.082379833 -0.034617361 -0.051532976 -0.090884045 0.21327183 0.071803831 0.16570844 0.094590768 0.039598979 0.042184524 0.26150036 0.1849806 0.22321498 -0.13496323 0.14454025 -0.16372651 0.27499932 -0.12779121 -0.014567607 0.010428324 0.020465946 -0.13606146 -0.050690897 0.040122535 0.082074977 0.078334197 0.19345106 0.12739804 -0.013428221 -0.13027152 -0.14456877 0.11338802 0.19509681 -0.17584445 0.010607069 0.0824899 -0.038374156 -0.12881868 0.18073592 0.061122119 -0.034736134 -0.02588336 0.29524076 -0.11250985 -0.090542659 0.1508161 -0.003234043 -0.063616753 -0.0059374659 -0.11635271 -0.035178754 -0.1074551 0.065759838
数据 0.089174375 -0.0089471759 0.13602854 -0.17024936 0.08315105 0.20275985 -0.055112451 0.029628724 -0.1029559 0.16835658 -0.014130164 0.02894341 -0.32887286 0.12292031 0.1526922 -0.17990109 0.077504814 -0.19787882 -0.085923925 0.092854142 -0.029092874 0.12150373 -0.0038241572 0.10891111 -0.34815422 0.097844578 0.07233984 0.13654408 -0.12131476 0.16069113 0.1551666 -0.14513417 0.01672576 0.1498386 0.06450177 -0.10907167 0.18609022 0.028527563 0.050399605 0.035857845 -0.14129891 0.16217999 0.023350809 0.044248004 -0.10136556 -0.14310083 -0.1198568 -0.094683953 -0.049928151 -0.050143398 -0.086325616 0.19968666 0.087031029 0.16455162 0.083344519 0.034176804 0.044796463 0.26220593 0.1764053 0.22844353 -0.15004544 0.13614659 -0.17021525 0.26398465 -0.12228166 -0.015700042 0.020239802 0.017667554 -0.14654878 -0.048247315 0.040995464 0.083004005 0.065542296 0.20279543 0.11609056 -0.007421392 -0.13761732 -0.13158123 0.10319593 0.19464324 -0.16198678 0.015406637 0.071738683 -0.04566294 -0.13342264 0.17702796 0.05461511 -0.031346429 -0.028185157 0.29896349 -0.10391739 -0.076880939 0.13848262 -0.0082824631 -0.052796289 -0.0040719979 -0.11508787 -0.037300102 -0.10450026 0.068926319
电力 0.089821182 -0.0033111433 0.14110376 -0.15772179 0.073624097 0.1971609 -0.046524256 0.039686263 -0.11196695 0.1783873 -0.0058542937 0.028742155 -0.32814446 0.12070414 0.15654884 -0.16807988 0.076193601 -0.19402452 -0.085526004 0.093988791 -0.016574834 0.12698232 -0.011931014 0.10592556 -0.35156164 0.10062993 0.071587287 0.12911092 -0.11942205 0.14960444 0.15263534 -0.13388187 0.011282017 0.14820592 0.067929775 -0.10591037 0.18987207 0.027234886 0.046082821 0.04014162 -0.14411037 0.17485102 0.02493692 0.059919219 -0.095971532 -0.13859716 -0.12889051 -0.081685156 -0.036150206 -0.054111678 -0.093063675 0.21148272 0.066234604 0.16450559 0.093151957 0.025729153 0.041210182 0.2540344 0.17600513 0.21337277 -0.1330421 0.1344717 -0.16778651 0.26375726 -0.12759218 -0.010191651 0.025635151 0.021138586 -0.13499615 -0.044513527 0.032455925 0.078030638 0.075906754 0.19701236 0.12910353 -0.01420931 -0.12878336 -0.12747583 0.10644463 0.18828477 -0.16848713 0.0070653055 0.077223331 -0.035397522 -0.13106816 0.1650556 0.058653753 -0.033439986 -0.027943879 0.28618056 -0.10821778 -0.086994998 0.13813642 -0.011630199 -0.065635726 -0.0083330302 -0.11633217 -0.033680759 -0.098991789 0.060347922
肉制品 0.080251642 -0.024872785 0.13157421 -0.16356441 0.086004034 0.18650293 -0.017456535 0.02676098 -0.12208348 0.1772882 -0.032859903 0.0019240982 -0.32633027 0.12298457 0.13470463 -0.17469829 0.096275426 -0.20917185 -0.067125373 0.085919566 -0.039279386 0.10648195 -0.024565665 0.13304842 -0.36320207 0.083275318 0.080217667 0.12394334 -0.11727035 0.14431658 0.11986008 -0.13727966 0.013396411 0.13986294 0.074565262 -0.12550113 0.19940051 0.023427514 0.015452591 0.03732688 -0.16016978 0.15683235 0.025890172 0.055567309 -0.1177789 -0.15246829 -0.11219033 -0.073748618 -0.039446089 -0.060892962 -0.054303091 0.20444317 0.041697092 0.14841497 0.082128063 0.026906993 0.019482234 0.23767073 0.16169253 0.22246782 -0.13208066 0.12140861 -0.18196701 0.23583061 -0.12659065 -0.028628161 0.054887716 0.016680537 -0.1354042 -0.049718171 0.0495435 0.073722556 0.081524655 0.20505737 0.13201128 -0.019490341 -0.15557183 -0.11204652 0.083250284 0.20843227 -0.18861336 0.019930078 0.055556811 -0.050403792 -0.13339831 0.16026358 0.06816645 -0.050082039 -0.0028985001 0.27941597 -0.11625959 -0.095199116 0.14514469 -0.023353083 -0.070881397 0.0053127822 -0.11361548 -0.021476861 -0.099362701 0.061989978
钢铁 0.097951092 -0.0066205282 0.13264276 -0.16571599 0.083690651 0.20078377 -0.042919829 0.037337437 -0.097404048 0.17014098 -0.015007818 0.030399336 -0.32903129 0.11163726 0.15106529 -0.17431045 0.067435272 -0.20223366 -0.083882622 0.096099287 -0.025386797 0.12012998 -0.014610183 0.11245216 -0.34167233 0.085886903 0.056007616 0.12683992 -0.12587351 0.15112351 0.15533394 -0.1300398 0.017146401 0.14520551 0.066094577 -0.11751075 0.19194521 0.034376662 0.038874801 0.031625427 -0.15073201 0.17150036 0.025746061 0.062527634 -0.11104213 -0.14083782 -0.11828034 -0.088621683 -0.044186972 -0.053014919 -0.08830975 0.2072738 0.067925774 0.15883823 0.09532965 0.026832988 0.038919754 0.2539115 0.18437432 0.21239315 -0.13985862 0.14182934 -0.15888058 0.25987697 -0.12705165 -0.020390604 0.028723555 0.025172478 -0.13752602 -0.042738203 0.034974653 0.078421146 0.065019399 0.20537634 0.12094457 -0.014521474 -0.122394 -0.12590706 0.10473786 0.19079256 -0.17298533 0.00720726 0.077510647 -0.041333564 -0.13673763 0.1651918 0.069478676 -0.041806921 -0.029244227 0.2937718 -0.10063613 -0.092460871 0.14039113 -0.013788358 -0.072850615 -0.0065165483 -0.10891354 -0.032623015 -0.087423034 0.059184484
行业 0.090610482 -0.0062441914 0.12977408 -0.16630276 0.084377326 0.20457943 -0.045945838 0.039807629 -0.10206556 0.16904682 -0.0052641849 0.025688108 -0.32762983 0.12137925 0.15586162 -0.16817597 0.067801952 -0.19716159 -0.084909856 0.090175375 -0.020739205 0.11952604 -0.011458673 0.098465912 -0.34803087 0.10455553 0.064633437 0.12566458 -0.12192351 0.14981657 0.15783064 -0.1385109 0.0046229535 0.13577949 0.055318564 -0.10588526 0.17689042 0.033914793 0.051058941 0.043376431 -0.1444726 0.16231436 0.023257433 0.055237439 -0.097042039 -0.14245328 -0.13143194 -0.09419471 -0.04654222 -0.052255999 -0.094147794 0.20540561 0.075115234 0.15777071 0.080187514 0.022269404 0.03364889 0.24677497 0.18247522 0.21546771 -0.14193967 0.13787644 -0.15669002 0.25885016 -0.11692227 -0.019664049 0.01732173 0.019717036 -0.14764388 -0.0512673 0.033221822 0.074750863 0.067821652 0.20190096 0.11934516 -0.003983316 -0.13029888 -0.12587793 0.10241319 0.1821904 -0.16773033 0.0028445427 0.074987389 -0.040473245 -0.13192944 0.16483039 0.049415588 -0.021703651 -0.030957237 0.28734615 -0.10223294 -0.082576439 0.14099486 -0.0086438255 -0.062482603 -0.0073059737 -0.11044555 -0.037965093 -0.10752721 0.062567897
PVB 0.10094443 -0.012248946 0.14017758 -0.15144616 0.097760029 0.20151027 -0.031072345 0.031444509 -0.10725679 0.17921793 -0.01253061 0.034224749 -0.32662404 0.11852138 0.14544527 -0.17490979 0.079167128 -0.19947565 -0.093377933 0.098474011 -0.032914244 0.13489537 -0.026056536 0.11134391 -0.36214265 0.095701396 0.06347239 0.12540792 -0.11592012 0.15342139 0.14398655 -0.13208933 0.024901222 0.14616133 0.056714792 -0.10817549 0.20005378 0.038594067 0.035418466 0.034999989 -0.13847822 0.16695458 0.016767094 0.05961103 -0.11073203 -0.15142971 -0.13620305 -0.081660293 -0.043083876 -0.057500638 -0.090815313 0.22096211 0.076460525 0.14706162 0.090677857 0.0469946 0.044516955 0.26814821 0.19539957 0.21849044 -0.13412748 0.13841242 -0.17294045 0.26497898 -0.1293207 -0.010157813 0.010703691 0.02051512 -0.13959581 -0.045433193 0.041962422 0.066328682 0.075875103 0.19690935 0.11509411 -0.010255358 -0.13051192 -0.12404553 0.11906935 0.19498503 -0.17933242 0.0079847183 0.082758337 -0.0458754 -0.12273833 0.17170052 0.065493077 -0.033904858 -0.041926868 0.29252499 -0.11658415 -0.078357883 0.15209796 -0.014355558 -0.069524877 -0.0088749556 -0.11434299 -0.045039319 -0.097927399 0.067896768
投资 0.10389581 -0.0039371643 0.13080308 -0.16689248 0.073512107 0.20010473 -0.04849587 0.038768739 -0.112115 0.17325506 -0.012891643 0.025517162 -0.33658814 0.11124589 0.16071132 -0.16756797 0.068845682 -0.19350587 -0.094064347 0.098745182 -0.025497839 0.11196719 -0.019891832 0.10658432 -0.35780796 0.10031454 0.070750244 0.1213576 -0.12816556 0.15161078 0.16132969 -0.13315353 0.0077675763 0.14026266 0.066795848 -0.10877717 0.18159339 0.029707808 0.051108763 0.035374943 -0.1414807 0.16751806 0.025874544 0.061118718 -0.10727121 -0.1458807 -0.12505047 -0.090917669 -0.045007408 -0.049402546 -0.091788441 0.20810708 0.071872257 0.15943484 0.093875036 0.026181564 0.028534338 0.25055385 0.18458509 0.21688326 -0.13777521 0.14627871 -0.17019536 0.27154124 -0.11994259 -0.023815857 0.022848846 0.022421647 -0.13637024 -0.052063864 0.031829506 0.070680201 0.066348508 0.19796684 0.12439879 -0.016121903 -0.13533378 -0.12714434 0.10867424 0.18501782 -0.17558551 0.0077602388 0.072513029 -0.034032337 -0.13921067 0.1721538 0.061855052 -0.032966368 -0.037592422 0.29457614 -0.10645809 -0.094090782 0.14380611 -0.0082211234 -0.072203718 -0.006427261 -0.11324848 -0.043011475 -0.094828174 0.063197471
政策 0.095690213 -0.014794293 0.13946655 -0.16198926 0.086584203 0.19929451 -0.046726607 0.039850175 -0.11462444 0.16989979 -0.012439222 0.029213035 -0.33594435 0.11049417 0.15042244 -0.18107623 0.074744038 -0.20799863 -0.086592302 0.090346679 -0.023668738 0.12767449 -0.016261972 0.11199997 -0.35823053 0.093522452 0.062706992 0.13680373 -0.12050902 0.15959539 0.15452416 -0.13401473 0.0063756602 0.14851581 0.071716748 -0.11794091 0.19039422 0.036552362 0.037715916 0.029185126 -0.13654247 0.17759417 0.032747895 0.057046328 -0.10857618 -0.15095025 -0.12301677 -0.092992678 -0.04038275 -0.052255668 -0.087860905 0.21324976 0.073873274 0.15468067 0.091273107 0.03183759 0.05291881 0.257447 0.19244601 0.22149482 -0.14379495 0.14340386 -0.1729122 0.27208897 -0.12770396 -0.020207254 0.014934192 0.022723405 -0.14388053 -0.050057605 0.039718322 0.071968399 0.072808661 0.19863391 0.12110294 -0.014573222 -0.12111296 -0.13694049 0.11363721 0.19189262 -0.16976106 0.01095482 0.077550232 -0.044551209 -0.13660431 0.1742969 0.059981842 -0.037171751 -0.024133692 0.28539732 -0.11296768 -0.082503907 0.15369616 -0.014827246 -0.064969003 -0.0049918601 -0.1187346 -0.03749365 -0.09913829 0.061797485
状况 0.093248464 -0.024636129 0.13610865 -0.16523646 0.092503957 0.18927068 -0.030907206 0.033103157 -0.10749433 0.18317217 -0.011307534 0.026445214 -0.32468882 0.10828988 0.14710376 -0.17509311 0.061313268 -0.2020696 -0.092877813 0.096330643 -0.021607561 0.12246133 -0.021666637 0.11892394 -0.35462609 0.10107663 0.07179822 0.12369815 -0.11795715 0.14764538 0.16073835 -0.13229702 0.016546568 0.14732037 0.066989042 -0.11402954 0.19084638 0.043679059 0.048977386 0.031596329 -0.13954803 0.17328611 0.027369197 0.059701156 -0.10413516 -0.15286341 -0.12875113 -0.09123031 -0.04761273 -0.054792594 -0.085212171 0.21231896 0.067319997 0.16641237 0.099737637 0.037769791 0.036582612 0.2612446 0.19572808 0.21868896 -0.13503303 0.13483298 -0.17585185 0.27474749 -0.13458106 -0.023262022 0.017148413 0.019747555 -0.14355756 -0.046345275 0.045809336 0.076101422 0.065450661 0.19438751 0.12758584 0.00070769229 -0.1301135 -0.13696165 0.10461468 0.19851297 -0.17514308 0.0030564754 0.071791478 -0.045015063 -0.13956496 0.17929715 0.064370215 -0.019493766 -0.037532602 0.28955838 -0.10344998 -0.082558841 0.16053376 -0.011305022 -0.074049063 -0.010047689 -0.12229668 -0.037914798 -0.10019963 0.059246063
光学 0.094624206 -0.0081351735 0.14001697 -0.16309369 0.088145852 0.19601029 -0.035631325 0.027838396 -0.10180996 0.16344914 -0.0036110652 0.032694943 -0.31466532 0.11649077 0.15028746 -0.16847232 0.062678412 -0.19668415 -0.092944391 0.095092222 -0.024899824 0.12874772 -0.016480874 0.10158385 -0.34419036 0.10464254 0.057428587 0.12894119 -0.11364453 0.1544774 0.1418176 -0.13427272 0.0099540409 0.14578333 0.062017936 -0.10497125 0.19159091 0.029308282 0.050424635 0.029037282 -0.13842982 0.16672525 0.016636498 0.049728494 -0.11034127 -0.13999969 -0.12517972 -0.0906872 -0.043666519 -0.048045877 -0.090293616 0.19984022 0.065979533 0.1510691 0.077001177 0.030968815 0.045813113 0.25301352 0.17549385 0.20918986 -0.1446228 0.14303018 -0.16265126 0.25418907 -0.12869813 -0.010694131 0.019011531 0.025816457 -0.13374701 -0.054471258 0.038778525 0.065316327 0.07346423 0.19696487 0.11813883 -0.0073944042 -0.12659177 -0.1232976 0.1117067 0.19008274 -0.17318901 0.0019459082 0.079162821 -0.044286039 -0.12022112 0.1629364 0.051474251 -0.027025128 -0.028809525 0.28613597 -0.11097815 -0.07551726 0.14137056 -0.014799354 -0.055387508 -0.013518709 -0.12175276 -0.042604979 -0.08897648 0.065087683
资产 0.097433105 -0.018678114 0.14464672 -0.16877259 0.076596342 0.20702694 -0.054204658 0.03953572 -0.10842758 0.16809408 -0.0095144678 0.023823719 -0.33582127 0.1065025 0.14042951 -0.17239591 0.069917724 -0.20360467 -0.093600728 0.090090141 -0.024924502 0.11647968 -0.012672487 0.11553771 -0.34109828 0.090267688 0.062249593 0.13682137 -0.13295607 0.14832062 0.14686988 -0.14157245 0.0055688289 0.14972441 0.065502338 -0.11170363 0.19012934 0.031770345 0.037042409 0.03420122 -0.14091691 0.17430313 0.027101533 0.058965094 -0.10397244 -0.13805106 -0.11980909 -0.081680976 -0.051420823 -0.055236846 -0.090543792 0.20363303 0.06670808 0.16246611 0.085618936 0.034721054 0.045919813 0.2492065 0.18499108 0.21511017 -0.13921538 0.13591877 -0.16405387 0.2596994 -0.11972963 -0.021855397 0.025902947 0.015547393 -0.13556938 -0.056969982 0.032635801 0.070219129 0.060549445 0.19207048 0.12736143 -0.019323835 -0.12713854 -0.13110727 0.10612287 0.18732022 -0.16664429 0.012088945 0.081002183 -0.039027408 -0.12933482 0.16616632 0.059993111 -0.042058088 -0.025247242 0.28926221 -0.098370716 -0.090845875 0.15902476 -0.016198793 -0.068250254 -0.006054183 -0.11277433 -0.041493066 -0.099612318 0.062354252
磷酸 0.10093877 -0.010866278 0.14921148 -0.15393724 0.08815632 0.19619863 -0.040106881 0.040858056 -0.11938527 0.17431079 -0.023565624 0.029913044 -0.33128193 0.12653948 0.16997971 -0.17308475 0.059373431 -0.20887262 -0.10260952 0.092919782 -0.019600274 0.13645267 -0.011186715 0.1150025 -0.35187206 0.095509194 0.068605915 0.12605445 -0.12687933 0.14625701 0.14126976 -0.14419022 0.027244139 0.13796906 0.064460993 -0.10177498 0.18109618 0.040378112 0.049127936 0.042166788 -0.133527 0.16939527 0.024384743 0.063726865 -0.10966894 -0.14718443 -0.13792598 -0.088415965 -0.029759753 -0.057491269 -0.10905695 0.21524596 0.077394418 0.15134351 0.096338026 0.020908302 0.055418789 0.25759202 0.18163487 0.21682413 -0.14167742 0.13872349 -0.15499108 0.27723879 -0.12064932 -0.015079208 0.0073587331 0.029582895 -0.14802097 -0.042353626 0.041917227 0.071683839 0.061461724 0.19781519 0.12686035 -0.013540244 -0.13459711 -0.10660007 0.11267735 0.19296786 -0.17879988 0.011988565 0.076756246 -0.041106232 -0.14140527 0.16249369 0.045481093 -0.012327726 -0.045705009 0.28262419 -0.089855693 -0.075604595 0.14716235 0.0033376105 -0.056958638 -0.020193081 -0.12685946 -0.031051096 -0.10526378 0.066922136
机械 0.1063559 -0.016421769 0.14044015 -0.15681022 0.087504029 0.19621351 -0.032142386 0.034950867 -0.10268284 0.17713781 -0.016708709 0.022260834 -0.32667658 0.11023681 0.15887643 -0.17742555 0.067102574 -0.20345931 -0.086740017 0.098469198 -0.022879804 0.12469973 -0.01652333 0.11412262 -0.35890418 0.10331395 0.070640527 0.12052135 -0.12944712 0.1523513 0.15802258 -0.13359907 0.016659604 0.14965329 0.065137036 -0.10926942 0.184618 0.028646708 0.049890019 0.040265188 -0.14489585 0.16853586 0.030905614 0.049689483 -0.10789238 -0.15073341 -0.12588222 -0.093605585 -0.049610745 -0.056311145 -0.092788465 0.20682505 0.071531817 0.15833005 0.098223589 0.036354799 0.02991898 0.25528395 0.17975819 0.22729817 -0.13158454 0.14003032 -0.17073555 0.27426445 -0.12343664 -0.019392507 0.021909831 0.012300116 -0.14194767 -0.051159509 0.034964066 0.068191193 0.070177235 0.19678533 0.13153496 -0.0085237548 -0.12505777 -0.13471903 0.10004815 0.19908778 -0.17522453 0.0028143174 0.082687587 -0.03762662 -0.13967121 0.17810184 0.064666316 -0.022621425 -0.034606487 0.29577455 -0.10590827 -0.085029878 0.14885645 -0.0090948995 -0.06790635 -0.0093326066 -0.11209699 -0.042833388 -0.1089742 0.063939326
项目 0.089747228 -0.009617229 0.14691515 -0.15674448 0.081282683 0.19915514 -0.05604792 0.039138895 -0.10769758 0.1762858 -0.01091623 0.032157212 -0.32914346 0.11744821 0.16449517 -0.1782546 0.074455157 -0.20467681 -0.09001682 0.099503212 -0.024813473 0.11905403 -0.013048207 0.10469259 -0.34950814 0.098165035 0.068168506 0.12640263 -0.1277288 0.15634933 0.1537019 -0.1433787 0.012180938 0.14876883 0.072186239 -0.11711334 0.18350519 0.041830465 0.041251086 0.034390129 -0.13820721 0.17432138 0.018531708 0.062740371 -0.10473844 -0.14112344 -0.11592228 -0.083659351 -0.039578862 -0.050743736 -0.085110106 0.20366329 0.075268731 0.15855354 0.089350924 0.024602097 0.047901399 0.25693917 0.18781301 0.23295373 -0.14136843 0.14292507 -0.16532281 0.27097514 -0.13030745 -0.016180081 0.020889958 0.018314261 -0.13825367 -0.045419183 0.030865356 0.078102164 0.065403767 0.19641252 0.12932096 -0.01547221 -0.12642948 -0.12145301 0.11753572 0.19692327 -0.17505647 0.0066853757 0.069759972 -0.043963637 -0.13441263 0.16718137 0.053554628 -0.027044497 -0.026026694 0.28538278 -0.10928217 -0.081326358 0.13995644 -0.0044780155 -0.061653685 -0.0059865131 -0.11379264 -0.034680918 -0.10217347 0.067977153
汽车 0.094324857 -0.019501805 0.14226671 -0.16722582 0.088785701 0.20454429 -0.039268445 0.035977036 -0.11102878 0.17971969 -0.018402334 0.028039061 -0.33662152 0.11691651 0.14510837 -0.17520526 0.074690826 -0.20565487 -0.080853373 0.08638332 -0.01875695 0.12601908 -0.015919527 0.10783713 -0.3538585 0.093636468 0.062836379 0.12601216 -0.1355589 0.15659288 0.15313312 -0.1351575 0.012964792 0.15602347 0.064842977 -0.11478824 0.19478846 0.037610631 0.0446833 0.044544093 -0.13714789 0.171029 0.020679411 0.060472291 -0.10299448 -0.15518659 -0.1213005 -0.081070922 -0.037076678 -0.056487963 -0.086458459 0.21072014 0.072721921 0.16383253 0.083267704 0.036642332 0.045466285 0.26307124 0.1842192 0.22589457 -0.1371398 0.13309188 -0.16580404 0.26394844 -0.12635759 -0.017533328 0.024414271 0.018153669 -0.14604032 -0.04875908 0.037470523 0.080391161 0.070369177 0.20685007 0.12962276 -0.0013187467 -0.14726861 -0.1325693 0.10092371 0.19786337 -0.1747651 0.021997336 0.078836314 -0.034394544 -0.14333694 0.16783102 0.066890851 -0.026659114 -0.018931439 0.28976402 -0.10958648 -0.091878176 0.1502676 -0.006185059 -0.069410399 -0.00090139307 -0.12104658 -0.041320007 -0.098895609 0.063042916
工程 0.097800434 -0.01003643 0.12881735 -0.15531181 0.088661902 0.20007953 -0.035389688 0.039878525 -0.11229546 0.17938693 -0.010374254 0.032979626 -0.33253726 0.11415162 0.15026426 -0.17586945 0.077233113 -0.19875018 -0.08168713 0.090518348 -0.02481734 0.11317502 -0.014574008 0.11057241 -0.35770714 0.10327049 0.066429138 0.12368023 -0.12036233 0.14683989 0.16036072 -0.13931294 0.015972055 0.15051858 0.05975686 -0.1104429 0.18349516 0.032233536 0.047606707 0.043549757 -0.14328691 0.17483249 0.02110019 0.052488387 -0.10899241 -0.15148938 -0.13263483 -0.086303927 -0.039954003 -0.056646105 -0.087433062 0.20705685 0.067376167 0.15856463 0.088551097 0.036160786 0.030523766 0.25446585 0.18341768 0.22785048 -0.14288008 0.14205152 -0.16527016 0.26623368 -0.12643524 -0.022508757 0.03029146 0.020933945 -0.14056869 -0.049288098 0.032009203 0.068023637 0.073498078 0.20283327 0.12807192 -0.0042820014 -0.13432419 -0.13595833 0.10385929 0.19913511 -0.18252076 -0.0017391143 0.080762684 -0.03848245 -0.13774666 0.17516235 0.058924515 -0.021637484 -0.037722778 0.2916044 -0.11786783 -0.084823124 0.1415831 -0.015337191 -0.064806618 -0.0058553368 -0.11690458 -0.040753447 -0.10544946 0.071326055
发展 0.099573962 -0.0070577669 0.14150481 -0.16308345 0.081232041 0.19562624 -0.039667256 0.042637601 -0.10800892 0.18659376 -0.023237066 0.024780232 -0.3269161 0.12988074 0.15789671 -0.1839404 0.07694412 -0.21861905 -0.082918324 0.1011527 -0.01473242 0.12145299 -0.02365407 0.11677603 -0.35809636 0.087960966 0.063250974 0.14042309 -0.13262476 0.15640146 0.15371947 -0.14129618 0.0059594824 0.14716834 0.060715511 -0.1131945 0.19058955 0.040053599 0.040861744 0.041918218 -0.14917196 0.17097898 0.023893483 0.061109815 -0.11134231 -0.15034011 -0.13057566 -0.093053758 -0.036939569 -0.062717743 -0.09614718 0.21796261 0.067229912 0.17119321 0.09659858 0.027374366 0.034814574 0.26591513 0.18624645 0.23106264 -0.13516693 0.13388476 -0.17448738 0.27165574 -0.12609723 -0.027136505 0.021211 0.022406686 -0.15057385 -0.047201011 0.037775222 0.074767433 0.078458995 0.20018627 0.134057 -0.0045381933 -0.14427756 -0.13232562 0.10475869 0.19031687 -0.16993184 0.013522512 0.075760044 -0.043408066 -0.14127129 0.17322695 0.058565218 -0.02664227 -0.028825829 0.29242268 -0.11359271 -0.086976938 0.1376836 -0.0058587478 -0.072166286 -0.011949661 -0.11887034 -0.040786568 -0.10599802 0.067817748
环节 0.081922732 -0.02428773 0.1388513 -0.16571021 0.092214368 0.19285901 -0.034902625 0.037659425 -0.1174963 0.17872965 -0.0090721082 0.025081126 -0.33004189 0.12768015 0.15306245 -0.17718183 0.086497426 -0.19837299 -0.088661119 0.08603406 -0.030709567 0.11607265 -0.018851595 0.11449245 -0.35936144 0.098364107 0.071844913 0.11942714 -0.11836416 0.14697956 0.14296436 -0.14328276 0.013167476 0.14589582 0.065261781 -0.10667082 0.19418022 0.03557349 0.04517176 0.034464363 -0.14198473 0.16750301 0.021759601 0.052132625 -0.10651007 -0.14600892 -0.12437761 -0.078584857 -0.043551814 -0.050687831 -0.085843362 0.21380712 0.064430103 0.16076477 0.089426316 0.03444213 0.040806059 0.2574394 0.18236108 0.20949106 -0.13202311 0.13291934 -0.17678775 0.27298725 -0.1292337 -0.016915377 0.024424404 0.025548026 -0.14139836 -0.055722512 0.03665176 0.081006654 0.075558983 0.20411073 0.13280557 -0.002472369 -0.12416159 -0.13405871 0.1022706 0.19253954 -0.17947656 0.003634223 0.073708631 -0.052786335 -0.13464271 0.16495958 0.06245761 -0.030949755 -0.030317755 0.29078695 -0.11340172 -0.07866814 0.15425777 -0.010376412 -0.064864427 -0.0053845905 -0.1085188 -0.038139924 -0.098799169 0.056976408
煤炭 0.10260826 -0.0040175607 0.13580734 -0.1612715 0.087430999 0.20393106 -0.048906244 0.033424001 -0.10192095 0.17663664 -0.0065392409 0.021257503 -0.34299216 0.11202622 0.15355235 -0.18479124 0.070462063 -0.21451792 -0.092038944 0.10439402 -0.022378152 0.11844011 -0.014161641 0.10761253 -0.35844937 0.086257294 0.064663947 0.13174284 -0.12200284 0.15483885 0.15768558 -0.1441814 0.0045420877 0.15635194 0.073310144 -0.12184421 0.18796173 0.034867968 0.046358481 0.044085447 -0.14774558 0.17064553 0.025666054 0.066598505 -0.11069322 -0.14639482 -0.12907238 -0.089017615 -0.028742211 -0.052611455 -0.091227911 0.21845712 0.074579932 0.16896921 0.093409263 0.034936503 0.048717279 0.25480297 0.1901862 0.2296008 -0.13440238 0.13852167 -0.17162141 0.26927719 -0.13441066 -0.02554135 0.028012998 0.029037731 -0.14100106 -0.046499342 0.033147272 0.072007291 0.065121241 0.20350499 0.13263543 -0.020389436 -0.13002056 -0.13095208 0.11373767 0.18972328 -0.17845225 0.011452242 0.083646618 -0.045697242 -0.13862424 0.17084593 0.071012832 -0.031608906 -0.038263004 0.30065414 -0.11096343 -0.095399521 0.14292257 -0.018320676 -0.064766996 -0.018335037 -0.10900177 -0.029253528 -0.090089671 0.0668246
因素 0.095500931 -0.0079186577 0.13918938 -0.16440527 0.072865658 0.2071254 -0.051444914 0.034228444 -0.11012007 0.17661765 -0.0086297542 0.032775812 -0.33218199 0.12253242 0.15645078 -0.17805892 0.074346565 -0.20106621 -0.079701483 0.10033931 -0.014913335 0.12628706 -0.016597506 0.10137701 -0.35018936 0.093838863 0.065060966 0.13128443 -0.12678017 0.16011475 0.15542209 -0.14061134 0.018233465 0.15370943 0.069574781 -0.11698934 0.19030289 0.030156313 0.041373912 0.032915909 -0.13530576 0.17575571 0.023153428 0.063150324 -0.094937302 -0.14665212 -0.12467781 -0.093877584 -0.038324308 -0.056054581 -0.089868248 0.20287755 0.077576123 0.1613645 0.089418977 0.032850809 0.051653892 0.25721422 0.18643458 0.2242298 -0.13974424 0.14044541 -0.16736461 0.26490909 -0.12653041 -0.018745102 0.026385136 0.025696475 -0.14000808 -0.043075126 0.043474726 0.081135578 0.080681607 0.20209239 0.12928312 -0.0063751535 -0.12580183 -0.14135616 0.10546128 0.187205 -0.16312179 0.0043926318 0.080843426 -0.037075989 -0.13141152 0.17651373 0.057291303 -0.031350136 -0.032734469 0.28592789 -0.10135721 -0.084075131 0.13919704 -0.012713251 -0.071735784 -0.0015235406 -0.10475691 -0.028369337 -0.10686061 0.056178536
工业 0.10228386 -0.017060637 0.14451724 -0.16577159 0.080268465 0.19803587 -0.049658239 0.045756202 -0.097328335 0.17693225 -0.0076364651 0.030759854 -0.34218645 0.12035897 0.15346317 -0.18446556 0.072916321 -0.20076264 -0.081646502 0.097947694 -0.018485989 0.12150048 -0.016051725 0.099372424 -0.3636305 0.10332584 0.069013394 0.13642277 -0.12044985 0.16331728 0.15079962 -0.13354391 0.010010627 0.15663165 0.06972485 -0.12424064 0.18217105 0.037798166 0.041723192 0.045096401 -0.14109024 0.17516935 0.018635178 0.051831033 -0.096230209 -0.14698291 -0.1265406 -0.080408722 -0.032689825 -0.048221987 -0.081121743 0.20960058 0.078483611 0.15662727 0.081433944 0.027983809 0.049555954 0.26096591 0.19406103 0.21510306 -0.14761692 0.13332206 -0.15889286 0.27426144 -0.12280726 -0.015978962 0.025043711 0.021458339 -0.13559243 -0.054929692 0.037308671 0.081812248 0.074928358 0.21066093 0.12728372 -0.0045478856 -0.14045982 -0.12639485 0.10442382 0.1840118 -0.17467152 0.0060918806 0.07511209 -0.030894343 -0.12916261 0.16544621 0.05940618 -0.039535049 -0.027616819 0.29852599 -0.11459001 -0.086418174 0.14515431 -0.0077280295 -0.067502737 -0.0026047789 -0.11025342 -0.036396589 -0.11054464 0.066672333
PVC 0.09860412 -0.017885298 0.13426392 -0.16337787 0.082417212 0.19557044 -0.047263015 0.02786723 -0.10835879 0.17231727 -0.010136715 0.028573748 -0.33417973 0.1093456 0.16028605 -0.16623512 0.067081489 -0.19500531 -0.087080441 0.08913178 -0.029810121 0.12979604 -0.019623918 0.10773892 -0.34525114 0.092591472 0.067206912 0.13464583 -0.13486865 0.15314701 0.16097215 -0.13133197 0.016001809 0.15730196 0.076894976 -0.11088618 0.18188143 0.030528523 0.051258139 0.039573167 -0.13264208 0.17462212 0.021380721 0.060732245 -0.09576416 -0.14067551 -0.1204069 -0.081520014 -0.037155122 -0.047697347 -0.082064904 0.21312556 0.077547736 0.16531344 0.09580563 0.036163017 0.046393983 0.25940189 0.18164136 0.21538538 -0.14461173 0.13860631 -0.15714796 0.26660451 -0.12448686 -0.022414481 0.020123027 0.013800644 -0.12883535 -0.04886885 0.035523344 0.080247737 0.064971909 0.20198792 0.12687765 -0.012387148 -0.13466071 -0.13135512 0.10834702 0.18994392 -0.165893 0.013614291 0.07307177 -0.036347926 -0.13075893 0.16926971 0.057702783 -0.036320835 -0.030105537 0.2911481 -0.10086095 -0.082191467 0.15003611 -0.001453559 -0.056000516 -0.0030199927 -0.11944949 -0.038158339 -0.10239217 0.069592915
优势 0.10013597 -0.022076748 0.13827671 -0.16381389 0.085175067 0.20093262 -0.039585263 0.033025779 -0.10692171 0.17962299 -0.016753668 0.024259871 -0.32780391 0.10991322 0.15761125 -0.18563351 0.07354857 -0.20806859 -0.084433034 0.087697618 -0.027132707 0.1265187 -0.018304387 0.10737105 -0.34767407 0.098771676 0.0646106 0.12510978 -0.12763478 0.15817422 0.15948804 -0.14283383 0.021570602 0.1436803 0.063587308 -0.11370111 0.18418092 0.032871477 0.0417624 0.028293544 -0.13560557 0.17512622 0.01935585 0.054965295 -0.10553984 -0.15246141 -0.1216569 -0.096145004 -0.038253773 -0.055559024 -0.090722829 0.2107158 0.070899308 0.1631894 0.088083051 0.033000629 0.051738825 0.26049 0.18930759 0.22378604 -0.13768286 0.13157253 -0.17423189 0.26275137 -0.1286497 -0.01496416 0.019867996 0.016600415 -0.13748835 -0.057525873 0.036510911 0.067802303 0.071577743 0.19965453 0.12015499 -0.0039739069 -0.12198916 -0.12676224 0.11069486 0.18486977 -0.16351682 0.0018409728 0.082862623 -0.044266228 -0.12505956 0.17619905 0.054828018 -0.021590458 -0.024602666 0.28956693 -0.1137101 -0.075535975 0.14975086 -0.011362389 -0.066026747 -0.016460814 -0.11221655 -0.036503442 -0.10144202 0.071029007
资金 0.092904367 -0.023813456 0.1440057 -0.16592726 0.083573394 0.19652805 -0.038799152 0.025103385 -0.1145218 0.16317566 -0.014248871 0.028994102 -0.32992026 0.11488591 0.14554361 -0.19890465 0.085032955 -0.21068642 -0.090435296 0.10292866 -0.028214598 0.13001285 -0.0042057876 0.11385298 -0.36295575 0.095847219 0.067828819 0.13188358 -0.11592706 0.14514844 0.16221379 -0.13020115 0.014656398 0.1463065 0.069142193 -0.12570485 0.20480216 0.032381862 0.045596454 0.025854519 -0.1401328 0.17784457 0.032591458 0.067041166 -0.1044853 -0.15262714 -0.13096797 -0.095572717 -0.044720694 -0.061394021 -0.083227016 0.22256915 0.078743525 0.15957932 0.098059908 0.038029194 0.044614624 0.27614862 0.19395997 0.23722453 -0.12984343 0.14678542 -0.17129876 0.29044691 -0.12284686 -0.0081668077 0.030533947 0.025273938 -0.14503737 -0.046162605 0.053120088 0.063409179 0.077940837 0.20835951 0.12745497 -0.0067523508 -0.13379824 -0.13631587 0.11240996 0.20866996 -0.179635 0.0020438957 0.085384965 -0.041381948 -0.13897671 0.17516594 0.067865975 -0.026191123 -0.035556823 0.29604131 -0.10499927 -0.084253326 0.15512466 -0.012941033 -0.068121821 -0.0057532885 -0.11859782 -0.036755558 -0.10099404 0.065021828
特种 0.094877273 -0.018338554 0.13923866 -0.15865837 0.078229003 0.19472547 -0.058236245 0.02373869 -0.11298921 0.16791281 -0.0069418279 0.023985129 -0.33268455 0.10760085 0.15440112 -0.16674864 0.077749863 -0.20082729 -0.090563275 0.090405196 -0.022210836 0.11342591 -0.0096146353 0.1079362 -0.35549507 0.088467598 0.058825914 0.14122191 -0.12843707 0.15437445 0.15289617 -0.14367983 0.010326006 0.15117696 0.074694261 -0.12394179 0.18079644 0.037797254 0.04876015 0.031394921 -0.13582379 0.17755514 0.022762729 0.052715614 -0.092563093 -0.14169575 -0.1130579 -0.082470767 -0.048555989 -0.047686558 -0.08252313 0.21213746 0.078902848 0.15671 0.092426844 0.035079785 0.043695979 0.26762941 0.18683867 0.22058444 -0.14400299 0.13802055 -0.16383618 0.2754797 -0.12335446 -0.014630058 0.023242813 0.017173167 -0.12513258 -0.052225336 0.030349569 0.078845307 0.064028032 0.19686522 0.13129421 -0.013743001 -0.12205976 -0.14220197 0.10228832 0.18813156 -0.16713367 0.0089440253 0.082844056 -0.035719976 -0.13443327 0.16241719 0.062757649 -0.034143411 -0.019287582 0.28989485 -0.10595331 -0.085134275 0.15409836 -0.0090483632 -0.063950755 -0.01181316 -0.11210126 -0.037532572 -0.10171182 0.073692165
膜 0.08413358 -0.014663577 0.12893371 -0.15602002 0.093256392 0.20152564 -0.033219762 0.038414065 -0.098368719 0.16725147 -0.0037749098 0.034497831 -0.32537413 0.11861899 0.14905709 -0.17602341 0.068467729 -0.19617526 -0.082182117 0.094476439 -0.024633355 0.12960014 -0.011676989 0.098376498 -0.34812027 0.095481627 0.059992567 0.1267824 -0.11926392 0.1541414 0.15218358 -0.1350785 0.0095835179 0.1424839 0.063229389 -0.11424232 0.19094065 0.034537636 0.041343831 0.033479109 -0.13039078 0.17162681 0.026490284 0.051504657 -0.10568146 -0.14843057 -0.12429733 -0.087233119 -0.038752459 -0.051423982 -0.089150436 0.20584388 0.077477679 0.15903229 0.08892303 0.033672869 0.047690082 0.25781256 0.17707761 0.22113931 -0.13827278 0.14137912 -0.1658631 0.26861951 -0.12555115 -0.01658446 0.016821722 0.018959133 -0.13286352 -0.044928338 0.037000135 0.073528007 0.072710499 0.19724783 0.11499965 -0.0072884774 -0.12223233 -0.13356614 0.11326668 0.18561164 -0.16963401 0.005044743 0.079749689 -0.045422036 -0.12378494 0.16027221 0.054046735 -0.02583617 -0.02843797 0.28894448 -0.10623128 -0.07870616 0.13919254 -0.0047772406 -0.058442276 -0.019749487 -0.11785651 -0.033431731 -0.098532692 0.070625849
上涨 0.10064949 -0.0218424 0.13362396 -0.17150463 0.075230606 0.1969839 -0.053486768 0.03079251 -0.10440541 0.16882801 -0.013190623 0.026243275 -0.33566815 0.10799448 0.15604347 -0.17832682 0.076066338 -0.21074396 -0.084048718 0.092046469 -0.016239718 0.12409875 -0.0050187325 0.11342274 -0.35189524 0.10196026 0.063816331 0.13793091 -0.12675187 0.15558863 0.1556035 -0.14037992 0.013497492 0.15491349 0.064214654 -0.11292255 0.18711378 0.02685147 0.045142692 0.040655348 -0.14832956 0.17529285 0.022680739 0.054605518 -0.091409191 -0.14395702 -0.12181099 -0.093978733 -0.045447461 -0.048803329 -0.082976244 0.20604612 0.080017321 0.16547783 0.091186151 0.035646424 0.054424018 0.25630093 0.18087147 0.22173101 -0.15286399 0.13752386 -0.16842453 0.26429182 -0.13239449 -0.0064497269 0.024349147 0.018059544 -0.1378887 -0.05630194 0.037210677 0.066701628 0.069082446 0.20231354 0.1253649 -0.0087227924 -0.12865302 -0.14258905 0.10522158 0.18846962 -0.16233982 0.0089308275 0.081745654 -0.03177987 -0.1437429 0.17489286 0.064549327 -0.037734669 -0.030664233 0.30055082 -0.11468165 -0.080464773 0.16484541 -0.015657598 -0.057017166 -0.0058804704 -0.11696357 -0.037940051 -0.10914659 0.06627807
运输 0.096571811 -0.02020254 0.15105635 -0.14959419 0.07677073 0.19762419 -0.054704688 0.031546012 -0.10892721 0.17159559 -0.0088062622 0.02171159 -0.32870573 0.11224709 0.14647891 -0.18100019 0.082757108 -0.22090617 -0.075943217 0.097854607 -0.028781751 0.11831424 -0.013455926 0.1100966 -0.35454628 0.088301659 0.070860684 0.14345254 -0.13118765 0.15991051 0.14472528 -0.14717761 0.023300515 0.15031379 0.068564005 -0.11165877 0.1857504 0.032686591 0.032711528 0.033841491 -0.1375528 0.17402194 0.023804778 0.051014546 -0.091805242 -0.14165007 -0.12201922 -0.091707617 -0.03680779 -0.059079066 -0.079516277 0.20789896 0.080766216 0.15359908 0.084182963 0.029695131 0.052897263 0.26767281 0.18257901 0.23216859 -0.13291028 0.14111142 -0.17911713 0.26198357 -0.13587183 -0.020107584 0.00739964 0.01385137 -0.12778495 -0.051725503 0.044115353 0.066593178 0.069914654 0.19118947 0.12231974 -0.0065164287 -0.13080391 -0.12809929 0.10233523 0.19421223 -0.16635162 -0.0012198624 0.073167592 -0.039249983 -0.12822415 0.1740872 0.052817825 -0.042144414 -0.029352389 0.30214918 -0.10933568 -0.069559328 0.15157956 -0.0032165663 -0.061327495 -0.0030099915 -0.12330446 -0.032032002 -0.10775829 0.060380999
研发 0.1027784 -0.0060954662 0.15086637 -0.15908945 0.086557321 0.19699885 -0.0490808 0.03160711 -0.10600333 0.17316666 -0.0079952599 0.027694128 -0.32565171 0.12390843 0.16191903 -0.17285737 0.077139907 -0.21103625 -0.092136413 0.10063154 -0.022145333 0.12258948 -0.011516131 0.099908277 -0.35805354 0.090132803 0.058927745 0.13991795 -0.12430932 0.1574606 0.15622561 -0.14444341 0.021590512 0.15663764 0.062178921 -0.10991143 0.18404938 0.037206881 0.039776459 0.038693305 -0.13328263 0.17917837 0.021602526 0.058031715 -0.10463152 -0.14327501 -0.12223632 -0.081854001 -0.032131068 -0.061018046 -0.096119799 0.21659917 0.081723213 0.1593581 0.099933982 0.024138775 0.046617202 0.25730669 0.18784775 0.22726013 -0.13970575 0.14616099 -0.16635601 0.27487102 -0.12706259 -0.01519928 0.0097910017 0.024830833 -0.13321231 -0.048461396 0.031679932 0.073912099 0.078438416 0.20223859 0.11990339 -0.011292555 -0.13646786 -0.12565362 0.11644249 0.19961928 -0.16842782 0.016545272 0.078787424 -0.044121362 -0.1391609 0.17385848 0.061133664 -0.030454658 -0.031966966 0.28569099 -0.11036832 -0.080682844 0.14938955 -0.0088646468 -0.063614033 -0.0066428022 -0.11311872 -0.033427328 -0.098309606 0.076629721
稀土 0.088315226 -0.02058058 0.14241628 -0.16679195 0.086418658 0.20345674 -0.044028513 0.032787446 -0.10983268 0.18105039 -0.020104049 0.011453331 -0.32812476 0.12486049 0.15068893 -0.18788102 0.082303405 -0.19988012 -0.0812378 0.094513133 -0.024208261 0.11767317 -0.023212746 0.11155942 -0.36108375 0.094558962 0.075998813 0.12767325 -0.12924999 0.16116507 0.13790251 -0.13471667 0.0167502 0.15542252 0.076738842 -0.1231268 0.20209187 0.029007003 0.031591125 0.03004848 -0.1572285 0.16891249 0.024164204 0.053961616 -0.11226032 -0.14509434 -0.12184656 -0.087052159 -0.040125642 -0.063472666 -0.07066562 0.20894845 0.07009653 0.16321783 0.078719176 0.033241656 0.043788642 0.26012796 0.18208963 0.21810323 -0.13588394 0.13733003 -0.18222417 0.2733247 -0.12412602 -0.020049641 0.027874777 0.025294285 -0.1395025 -0.0538164 0.039679673 0.07932695 0.077624485 0.20198539 0.12358022 -0.0091665499 -0.14391322 -0.13500942 0.092651725 0.20203409 -0.1851669 0.01124333 0.072914906 -0.046028618 -0.13186771 0.17744683 0.072086103 -0.033471417 -0.025975697 0.28733194 -0.11003108 -0.086862996 0.15177336 -0.012930665 -0.060108963 -0.0030057258 -0.11104788 -0.033274993 -0.10097121 0.062684551
医院 0.09541779 -0.017830702 0.15672554 -0.15960404 0.071650542 0.20665738 -0.058136735 0.019391401 -0.11344717 0.16005097 0.0050036977 0.025636366 -0.33579567 0.10942509 0.15294433 -0.18183663 0.074190721 -0.2128419 -0.081164509 0.083587214 -0.022448465 0.10640858 -0.00087544112 0.1072413 -0.35888511 0.091598891 0.076778725 0.14998916 -0.13742946 0.14901011 0.16884112 -0.13856804 0.023457846 0.16214244 0.078569323 -0.11403131 0.17606325 0.034086291 0.05258479 0.034934834 -0.13908328 0.17059547 0.035835862 0.042742975 -0.079745039 -0.1454787 -0.10967455 -0.096403904 -0.053738739 -0.053136755 -0.08811973 0.21103169 0.077485815 0.15521489 0.091925763 0.021342551 0.052994408 0.26838255 0.18150872 0.2278595 -0.16327265 0.14317064 -0.16950059 0.27224171 -0.11974269 -0.0054126424 0.014451304 0.0066016149 -0.13756137 -0.056473553 0.03503824 0.071129106 0.066794232 0.20603007 0.12327725 0.0019310507 -0.12070931 -0.15441555 0.10064447 0.18316899 -0.16252702 0.0083380779 0.084207758 -0.052175995 -0.13478948 0.17715839 0.056654882 -0.05248056 -0.0062355842 0.30031651 -0.10890602 -0.069127113 0.17843841 -0.0060155485 -0.049849376 0.0014583622 -0.12098575 -0.038769014 -0.11448379 0.05927451
电子 0.10015115 -0.019562623 0.14232402 -0.17131738 0.078579731 0.21073072 -0.053147711 0.042903673 -0.099412978 0.17096485 -0.017200794 0.032365337 -0.33989748 0.13119499 0.14652114 -0.19300158 0.070880301 -0.20843691 -0.081132874 0.10707454 -0.019971507 0.12627089 -0.0067106448 0.10786331 -0.36921173 0.11193184 0.057998676 0.14604813 -0.129296 0.17326641 0.15380608 -0.13722874 0.021671137 0.15762588 0.065713637 -0.12187383 0.20309797 0.037971612 0.049189594 0.04298785 -0.13611466 0.18132202 0.015378951 0.063459948 -0.11045391 -0.15469782 -0.13333948 -0.091078378 -0.038951695 -0.060057543 -0.085364021 0.21220888 0.085772187 0.17109542 0.07964915 0.045333184 0.054072641 0.27143562 0.19821085 0.22377826 -0.15317559 0.1347952 -0.15967277 0.27028087 -0.12495007 -0.024190076 0.025138497 0.030988179 -0.145905 -0.043975357 0.046467405 0.084323883 0.084096119 0.20956314 0.12406102 -0.0028748917 -0.13193309 -0.1377572 0.11888106 0.1852569 -0.17404477 0.017575311 0.075404756 -0.039775226 -0.13325749 0.17883301 0.063007236 -0.035806905 -0.031782117 0.29705459 -0.11019763 -0.083651185 0.13405991 -0.0053774356 -0.072112367 -0.0071710162 -0.1093753 -0.035701223 -0.11322722 0.064985394
位于 0.10058432 -0.026457312 0.13883395 -0.16608639 0.084752433 0.19377384 -0.045635808 0.031932887 -0.11234281 0.16430436 -0.01228954 0.022397624 -0.32656333 0.11234321 0.14701998 -0.17558002 0.067893408 -0.20365253 -0.086922489 0.091503814 -0.030969499 0.12278246 -0.01636894 0.10091161 -0.3547428 0.095593855 0.067323178 0.12761395 -0.13263151 0.14664119 0.149829 -0.13558653 0.023820529 0.15582737 0.071266219 -0.10878498 0.18046787 0.032011993 0.040648874 0.030539755 -0.13914797 0.17790598 0.024412991 0.042492919 -0.093537234 -0.14409533 -0.12145364 -0.09150777 -0.046022654 -0.061316948 -0.07584253 0.19966123 0.076585054 0.1524833 0.088747635 0.031985443 0.0396595 0.25660986 0.18295453 0.22659935 -0.13633327 0.13498347 -0.17402726 0.26471892 -0.1292796 -0.0090819867 0.015578358 0.010757622 -0.12969324 -0.058507849 0.035597596 0.068953797 0.07442788 0.18857569 0.12455333 -0.011096518 -0.12250698 -0.14363337 0.10595569 0.18281919 -0.17114623 0.013095281 0.080739461 -0.043857906 -0.12439083 0.17852129 0.063959308 -0.026252853 -0.018465906 0.29224712 -0.1145529 -0.075291201 0.1589085 -0.0090809381 -0.064970516 -0.0083271284 -0.12179714 -0.039337318 -0.097597055 0.065591
企业 0.095532089 -0.016511053 0.1308579 -0.1600443 0.081439108 0.2032243 -0.045582544 0.024079461 -0.10937606 0.17932154 -0.019570576 0.023914935 -0.32478213 0.11418009 0.14636783 -0.17366241 0.08766634 -0.20840068 -0.083914891 0.089117095 -0.026966434 0.11365865 -0.017697379 0.1198261 -0.35693944 0.087161049 0.076201878 0.1294184 -0.129816 0.14759849 0.15246978 -0.14532447 0.010181068 0.15177564 0.067310035 -0.11939909 0.18532905 0.029629489 0.036173407 0.036609184 -0.13962588 0.16640024 0.02656482 0.050360043 -0.09989769 -0.13951731 -0.12269876 -0.079809643 -0.04051742 -0.05580496 -0.071715884 0.21428184 0.064494051 0.15274946 0.083602563 0.034927882 0.041226771 0.25708765 0.18375723 0.22945605 -0.13523598 0.1361011 -0.17885903 0.25549391 -0.12681708 -0.020412421 0.026274147 0.014527127 -0.13204858 -0.054671302 0.037563901 0.072134376 0.076874293 0.19740328 0.13197385 -0.01412085 -0.13613363 -0.13033053 0.09641742 0.19392459 -0.17989674 0.00096010644 0.063738316 -0.038254134 -0.13360995 0.17439647 0.064263821 -0.041468393 -0.026823353 0.30079994 -0.10920146 -0.0788517 0.16210859 -0.014508783 -0.068333216 0.0018741552 -0.119185 -0.039730452 -0.10177846 0.069279544
环保 0.098342404 -0.014873751 0.1423271 -0.15571649 0.087105609 0.18934461 -0.039823752 0.038653024 -0.10905974 0.16821352 -0.014407814 0.030622324 -0.32224724 0.12360337 0.14564127 -0.17220242 0.080269307 -0.20200206 -0.081469357 0.091689415 -0.025301365 0.12471866 -0.015400541 0.10582962 -0.34912974 0.097865358 0.061466012 0.13547538 -0.12228689 0.15597133 0.14287993 -0.13779135 0.007765891 0.14818254 0.074133664 -0.11816563 0.18753609 0.034001477 0.046873894 0.037882693 -0.14354564 0.16647366 0.018869588 0.053357933 -0.10473429 -0.1450707 -0.11882333 -0.08062689 -0.036242429 -0.050185453 -0.088870317 0.21005926 0.068640299 0.16381414 0.090567872 0.026466496 0.039931215 0.2583248 0.18448973 0.21591961 -0.13701901 0.13495779 -0.16575116 0.2676824 -0.12500905 -0.022373972 0.01891835 0.027485197 -0.13527821 -0.051841509 0.040469442 0.070041865 0.076941527 0.19698876 0.12866445 -0.011824921 -0.12785688 -0.13129821 0.09899576 0.19488785 -0.1771024 0.0090351263 0.078408085 -0.042610563 -0.13370062 0.16331172 0.066139139 -0.038103893 -0.024886783 0.29447877 -0.10905925 -0.084303841 0.13813849 -0.0071151061 -0.07101988 -0.015030833 -0.10611017 -0.038807049 -0.10424048 0.067292593
肉食品 0.071354322 -0.032391209 0.12927692 -0.16135013 0.090871416 0.18065365 -0.015288195 0.026457055 -0.11468554 0.16862684 -0.028513931 0.0032700109 -0.32346201 0.12359539 0.12637593 -0.17482811 0.091853291 -0.20737524 -0.061375763 0.085317217 -0.03050827 0.095759653 -0.02187966 0.13647775 -0.3541216 0.074190065 0.080784313 0.11167087 -0.11995278 0.1364693 0.12412759 -0.13815697 0.002696841 0.13952044 0.083082601 -0.12681894 0.19089793 0.018796396 0.0092864968 0.032810748 -0.14519785 0.15961641 0.021173084 0.046920836 -0.11416728 -0.14820199 -0.10953858 -0.073990956 -0.047305416 -0.064447016 -0.049824152 0.20730951 0.049980324 0.14592882 0.076212525 0.020563813 0.022673592 0.22692625 0.16203888 0.22491291 -0.12088992 0.11357927 -0.17669566 0.23678808 -0.12754358 -0.040882081 0.056502126 0.0053946916 -0.1373501 -0.056122549 0.052953504 0.063333713 0.076369882 0.20607528 0.12738127 -0.008056405 -0.15339309 -0.10814692 0.081724465 0.20862952 -0.18143718 0.021350313 0.050419684 -0.051490895 -0.13652048 0.1512576 0.062181368 -0.048837487 -0.0048208311 0.28463054 -0.10745215 -0.093495093 0.14190498 -0.024426963 -0.067269444 0.011315213 -0.11643697 -0.027573442 -0.097940996 0.068834938
能力 0.090030231 -0.0082437685 0.14220271 -0.16202126 0.085375682 0.20215724 -0.048385192 0.038804047 -0.10838119 0.17655323 -0.001999612 0.031976435 -0.32799855 0.11554753 0.15863837 -0.17425379 0.065021038 -0.19690429 -0.080021292 0.094380565 -0.01891879 0.11872552 -0.018077446 0.10281119 -0.34809154 0.10050233 0.063102283 0.12810427 -0.11975626 0.15592289 0.14903241 -0.13333669 0.0086687384 0.14471799 0.071227148 -0.11211827 0.1837946 0.028554147 0.040383387 0.040384967 -0.14387721 0.17685746 0.028586445 0.05604675 -0.09566813 -0.14425063 -0.12451322 -0.088623859 -0.035631295 -0.04881154 -0.087515004 0.21038055 0.072343379 0.1634554 0.086042047 0.024415685 0.045149647 0.25102189 0.18534769 0.22296843 -0.13499004 0.14259849 -0.16169985 0.25815621 -0.13262095 -0.020520177 0.015161896 0.020126399 -0.12785822 -0.048856918 0.041416798 0.070026942 0.074764393 0.19795871 0.12667155 -0.010665711 -0.12777679 -0.12423562 0.10638604 0.18446243 -0.16350074 0.010503399 0.078556448 -0.035345428 -0.13632676 0.16626143 0.061056998 -0.027945932 -0.033971641 0.28613609 -0.10307538 -0.089737803 0.14115435 -0.011549064 -0.062842056 -0.016364343 -0.11232068 -0.025840139 -0.093582623 0.059324451
甲醇 0.098758467 -0.0082669584 0.14979078 -0.15887779 0.080172606 0.20109233 -0.048390731 0.036216609 -0.10340006 0.18316662 -0.015457891 0.014890827 -0.32576284 0.12140929 0.14899744 -0.17613101 0.080819137 -0.21659276 -0.077485532 0.10091553 -0.022947365 0.11686309 -0.027986825 0.10633542 -0.35695523 0.087324344 0.067523792 0.13934249 -0.12629318 0.15085784 0.1463853 -0.15406242 0.015190878 0.15408717 0.066785626 -0.11155984 0.19429658 0.030109204 0.042653684 0.045808583 -0.14558348 0.17546438 0.024621926 0.048381861 -0.11427393 -0.1458593 -0.11828883 -0.077592224 -0.031584918 -0.057810392 -0.090886712 0.21337523 0.063046329 0.1658555 0.095205791 0.029678078 0.043375965 0.25649065 0.18663889 0.22824571 -0.14165962 0.13078922 -0.17651001 0.26581293 -0.12378711 -0.014646992 0.031471852 0.019791983 -0.14012727 -0.04314848 0.045329001 0.075053692 0.064157471 0.1922441 0.13165902 -0.012674661 -0.13789895 -0.12351126 0.090719186 0.19525705 -0.17595021 0.01467033 0.078507401 -0.052130185 -0.13750041 0.17062743 0.05199635 -0.025768617 -0.024650395 0.28717121 -0.10466091 -0.082873322 0.150446 -0.0051258742 -0.066669345 -0.0055749794 -0.12232665 -0.02872844 -0.097492389 0.073885754
电池 0.10218951 -0.022185156 0.14106557 -0.16132599 0.087694228 0.20567569 -0.052030899 0.029551433 -0.1107837 0.1761201 -0.018504504 0.039791122 -0.33484045 0.11799052 0.14772628 -0.17752598 0.074775442 -0.20922202 -0.086669721 0.092581302 -0.015480014 0.13365491 -0.014308852 0.10958657 -0.35329592 0.088741228 0.070860922 0.13588816 -0.136803 0.15204206 0.1582143 -0.14710279 0.0052393181 0.16344848 0.069943964 -0.11897503 0.18637305 0.030064574 0.046557426 0.049997929 -0.14252232 0.17641234 0.021232329 0.061544895 -0.10040809 -0.16319747 -0.12798788 -0.084748961 -0.033627301 -0.048083611 -0.090757102 0.21705443 0.078244016 0.17825368 0.0913831 0.039190847 0.04150949 0.26191643 0.19545008 0.22900437 -0.14088853 0.13955158 -0.16669877 0.27889547 -0.12291216 -0.013703682 0.012867874 0.028149659 -0.14668231 -0.051377535 0.038808208 0.085188098 0.077248216 0.20245302 0.13565284 -0.014691776 -0.14958645 -0.14674719 0.10410197 0.19524263 -0.17306907 0.016991146 0.074547835 -0.029256428 -0.13349636 0.18156864 0.069731772 -0.030842626 -0.03223728 0.28810489 -0.10025658 -0.092593931 0.14380367 -0.0074278833 -0.062657721 -0.0032089532 -0.12000369 -0.032492206 -0.10884313 0.066707388
电子级 0.093485743 -0.01571006 0.13912871 -0.15210143 0.092229493 0.1863026 -0.039351322 0.041967452 -0.11719944 0.18019642 -0.01651573 0.030425424 -0.31792939 0.11950687 0.16798368 -0.17715934 0.068588346 -0.21030542 -0.099272437 0.092582382 -0.017626585 0.1353669 -0.017435303 0.11071403 -0.35227615 0.091843151 0.062016197 0.13099419 -0.11937115 0.15998821 0.1404632 -0.14485396 0.028045367 0.14522898 0.049746085 -0.096889734 0.19092926 0.034635566 0.041326877 0.03763463 -0.13684115 0.1742063 0.015096397 0.055974085 -0.11151452 -0.15206745 -0.1401346 -0.087117493 -0.031475097 -0.063993812 -0.10196886 0.21713981 0.083506607 0.14808264 0.088142715 0.029804397 0.051772662 0.25260264 0.19372576 0.22360919 -0.13364236 0.14442696 -0.15917918 0.26888025 -0.13163321 -0.0081714969 0.0095503125 0.022230644 -0.14013973 -0.044485204 0.042446833 0.071396194 0.06852442 0.19407612 0.11350574 -0.001109007 -0.12741065 -0.10697269 0.11271346 0.20133948 -0.17595576 -0.0010376757 0.082543395 -0.043468896 -0.13870612 0.17363325 0.045625832 -0.019519726 -0.049804874 0.27995199 -0.1069658 -0.070388816 0.13977425 0.0013018736 -0.059330143 -0.015221206 -0.12703456 -0.034959491 -0.10957298 0.075443499
房地产 0.097232439 -0.004672172 0.14084841 -0.15665689 0.076883346 0.19740655 -0.048102558 0.034499813 -0.10856707 0.17992894 -0.015941637 0.026252896 -0.32482806 0.12029731 0.1631624 -0.17033681 0.072160244 -0.19076724 -0.084582679 0.10428391 -0.022861613 0.11141174 -0.0087276455 0.10588133 -0.34968024 0.10406029 0.073406972 0.12125441 -0.11678835 0.15633598 0.15390269 -0.12665749 0.013066936 0.14382544 0.069763102 -0.11446192 0.18250737 0.032469001 0.048319165 0.037048023 -0.1465037 0.17596814 0.016117426 0.05148137 -0.10204446 -0.13700353 -0.12572204 -0.081308015 -0.041878905 -0.050300401 -0.084378719 0.2066507 0.066956036 0.16389027 0.088898703 0.01993723 0.036659878 0.25440529 0.18919502 0.21902232 -0.12999231 0.14460491 -0.16522455 0.26503775 -0.12822951 -0.015331641 0.019205451 0.021037487 -0.14325024 -0.053873006 0.031800669 0.069385126 0.07125067 0.20088692 0.1218152 -0.014889804 -0.1340007 -0.12687343 0.10360425 0.18882257 -0.16804452 0.003198521 0.075993717 -0.038371138 -0.13460848 0.16489895 0.054262754 -0.037564781 -0.025254266 0.2824243 -0.1057011 -0.087178253 0.140799 -0.0065652062 -0.067547284 -0.0057214708 -0.10771677 -0.031742942 -0.10120939 0.066188402
速度 0.093992338 -0.029625628 0.13179407 -0.15800822 0.095314078 0.19725966 -0.03659036 0.033379834 -0.12083864 0.18401328 -0.027598586 0.0059698918 -0.32942888 0.12785421 0.14914617 -0.19418842 0.095328569 -0.20008543 -0.090075791 0.093744569 -0.035461478 0.11269914 -0.025594261 0.13103509 -0.37518528 0.088440053 0.073652297 0.12333987 -0.12686701 0.15991691 0.14243922 -0.13886367 0.01589657 0.15142079 0.0780221 -0.13140658 0.21308133 0.033259299 0.034004662 0.033185698 -0.15992998 0.16763067 0.017174672 0.051074129 -0.11445295 -0.15488388 -0.12695839 -0.080928683 -0.042491838 -0.066661611 -0.06685672 0.20503646 0.067749977 0.16430807 0.083599985 0.040553432 0.032913916 0.26058665 0.17789368 0.23366249 -0.13321051 0.13984144 -0.18891193 0.27999362 -0.122135 -0.022087652 0.036110673 0.02147731 -0.15301755 -0.060747322 0.046515208 0.076003417 0.07931985 0.20090705 0.13252263 -0.011999108 -0.15042242 -0.14215364 0.094639033 0.20845191 -0.19203641 0.013124152 0.071876444 -0.048152804 -0.12645705 0.18504219 0.083677769 -0.030716572 -0.017498188 0.30772078 -0.12403498 -0.08637923 0.15590279 -0.02450433 -0.069766715 -0.0028286667 -0.11589932 -0.043501064 -0.10232239 0.066955969
中 0.096946687 -0.009648392 0.14174217 -0.16979222 0.084285446 0.20056199 -0.041892298 0.035617545 -0.10185611 0.18272556 -0.017286262 0.032189742 -0.33154419 0.12275896 0.1608939 -0.18040222 0.076192833 -0.20734158 -0.088120036 0.10097609 -0.0206319 0.1295118 -0.011629022 0.099737093 -0.35441232 0.1012871 0.06936276 0.12304694 -0.123319 0.16076453 0.14985871 -0.1396146 0.021038299 0.14831036 0.063784242 -0.11523277 0.17740293 0.028756538 0.047493126 0.041149158 -0.12930155 0.16671152 0.030113863 0.061338387 -0.10409981 -0.14224283 -0.13034636 -0.088844232 -0.046275333 -0.058008857 -0.095237277 0.20187135 0.075924642 0.16030803 0.092233121 0.02971483 0.050429434 0.25412992 0.18511134 0.22668885 -0.13468677 0.14362426 -0.17062697 0.26903477 -0.1261162 -0.01055031 0.017272089 0.020876147 -0.13621092 -0.046369132 0.035256341 0.074630104 0.067072302 0.20191492 0.12923747 -0.0027184766 -0.12891863 -0.13058002 0.11441956 0.19576135 -0.15953426 0.010641581 0.077008918 -0.041092098 -0.12989521 0.17960918 0.05115737 -0.028872149 -0.037021108 0.29493186 -0.10232732 -0.078696154 0.14704955 -0.0018435009 -0.06595993 -0.0096258633 -0.12464955 -0.027839066 -0.093655869 0.066548392
长期 0.10018028 -0.0089010987 0.12898688 -0.16014223 0.078657895 0.18945333 -0.04359981 0.043295857 -0.10721441 0.16104423 -0.0031096281 0.030455194 -0.32312536 0.11522167 0.15969177 -0.17230047 0.070475012 -0.20361187 -0.081894942 0.090190992 -0.021186516 0.1230927 -0.020480467 0.097144812 -0.34221908 0.095775418 0.055036645 0.13177164 -0.11912683 0.15129702 0.1586213 -0.1423744 0.024337111 0.14925291 0.059298027 -0.11335381 0.18270852 0.028612843 0.046665914 0.035497736 -0.14004982 0.16290581 0.018468531 0.053580981 -0.095462337 -0.14466631 -0.11951462 -0.091951311 -0.040654473 -0.053787984 -0.09055692 0.1992673 0.070584364 0.15804264 0.084432468 0.025646901 0.049909979 0.25846964 0.17607263 0.22749665 -0.14390357 0.14138465 -0.16157319 0.2571913 -0.1268605 -0.007668959 0.022196043 0.023234196 -0.1388257 -0.047715418 0.029731775 0.060776189 0.066561833 0.18433701 0.11222149 -0.0066535566 -0.12297013 -0.12931468 0.10588913 0.18203443 -0.16338114 0.014465026 0.083962865 -0.043226436 -0.12442129 0.16655035 0.057521433 -0.024812687 -0.034690272 0.28820691 -0.10344761 -0.073200524 0.14100634 -0.0039931736 -0.058191914 -0.012333298 -0.11924443 -0.034137994 -0.10486058 0.07144659
上市 0.098322235 -0.025695898 0.13879482 -0.16323283 0.077834457 0.20847307 -0.050648179 0.030056976 -0.10972288 0.16661848 -0.0046885102 0.026992273 -0.33005455 0.11538635 0.14956626 -0.1762463 0.079529889 -0.20013672 -0.080195144 0.085964739 -0.027062016 0.11357856 -0.0123544 0.10770531 -0.35525024 0.090076879 0.06416326 0.12814564 -0.13401259 0.15300472 0.15306553 -0.14062092 0.016089646 0.14697713 0.066211522 -0.12378807 0.19397107 0.028378038 0.046972953 0.031937595 -0.14090331 0.1698031 0.034789197 0.047799602 -0.093705773 -0.14797336 -0.11709894 -0.087463953 -0.038839567 -0.048759051 -0.092245601 0.2139236 0.074641138 0.1530669 0.098357908 0.034496583 0.048957061 0.26086146 0.18412802 0.22557297 -0.1468233 0.13524838 -0.16724761 0.274602 -0.1232933 -0.0080846641 0.015784383 0.020521129 -0.13831 -0.046473816 0.035837397 0.073601767 0.070481308 0.20669603 0.12137974 -0.010922792 -0.12966888 -0.14011054 0.099653296 0.18825328 -0.17401333 0.010440558 0.072147489 -0.045673162 -0.13211586 0.17740972 0.067984439 -0.035790335 -0.020149773 0.29556009 -0.10555034 -0.082676612 0.16047297 -0.01722613 -0.063226245 -0.007250506 -0.10902222 -0.03106576 -0.10425822 0.061920661
下 0.099149391 -0.014362176 0.1354401 -0.1709144 0.083266027 0.20338251 -0.04846143 0.037229143 -0.10782085 0.17548405 -0.014585753 0.023396045 -0.33365142 0.11645263 0.14880079 -0.17865057 0.0679681 -0.20367101 -0.089986436 0.09315373 -0.024725879 0.1283399 -0.019051159 0.1002757 -0.35744932 0.095325336 0.061686818 0.12518884 -0.12102468 0.15416624 0.1597037 -0.13909239 0.015906481 0.14881438 0.065054484 -0.11609871 0.18943936 0.033939872 0.038970374 0.038547922 -0.13421933 0.17918721 0.023822017 0.05583271 -0.099710569 -0.14515881 -0.12547697 -0.086792 -0.039383762 -0.051409431 -0.080977336 0.2034007 0.077261701 0.15386333 0.083813369 0.035854619 0.053540636 0.26085269 0.17791547 0.2166574 -0.14182732 0.14166194 -0.16165282 0.26982987 -0.12740299 -0.013897248 0.014961979 0.012692907 -0.14080758 -0.043378364 0.040233165 0.075767033 0.078450575 0.20273644 0.12141874 -0.0016243757 -0.13298024 -0.13629723 0.10774735 0.18551689 -0.17491813 0.0070775705 0.075990707 -0.04083306 -0.12292188 0.16344409 0.06040439 -0.029320335 -0.037566103 0.28915128 -0.10881414 -0.078320302 0.14302565 -0.018117147 -0.060364421 0.0011537771 -0.10165741 -0.031302087 -0.10167613 0.068210684
等 0.097339265 -0.0086998576 0.13501531 -0.16029534 0.078838766 0.18852018 -0.038036022 0.038875438 -0.10498468 0.16709635 -0.013873053 0.02638022 -0.31193361 0.12048992 0.15317124 -0.17809823 0.066872559 -0.2012337 -0.090704225 0.097819142 -0.023655213 0.118274 -0.020110307 0.097853221 -0.33702761 0.093989603 0.056194808 0.13020197 -0.12629153 0.1529353 0.14597437 -0.13690315 0.021187499 0.14995907 0.06611114 -0.1066164 0.18723145 0.041126329 0.036400456 0.042162701 -0.1295027 0.16409108 0.0099868383 0.060232263 -0.098829843 -0.14838417 -0.12021954 -0.088794172 -0.038213812 -0.053890258 -0.081727885 0.20478001 0.073643014 0.15439904 0.080805294 0.034341708 0.039957084 0.25113714 0.18302856 0.21944311 -0.13446341 0.13668703 -0.16120432 0.26519528 -0.12141047 -0.01013239 0.020210639 0.02503185 -0.13911867 -0.048541185 0.031832255 0.077680908 0.076633863 0.18241668 0.12241344 -0.0088872127 -0.12719055 -0.12392122 0.11064983 0.19223762 -0.16823804 0.015251621 0.083015911 -0.036363848 -0.13092867 0.16121402 0.061659135 -0.032537043 -0.028017586 0.28129622 -0.11026593 -0.079435647 0.12777007 -0.0073846099 -0.062788256 -0.0097666578 -0.1099981 -0.041417923 -0.10191993 0.064356759
议价 0.09393543 -0.0086092418 0.13659447 -0.15576071 0.079173952 0.20448248 -0.042342734 0.035946365 -0.10773627 0.17673178 -0.0037460104 0.022485983 -0.33515739 0.12054829 0.15167874 -0.17207894 0.077243462 -0.20939356 -0.085087553 0.099523135 -0.017522153 0.12632753 -0.013969913 0.10760789 -0.35722625 0.094659097 0.069585793 0.12567954 -0.12729606 0.15387672 0.15176663 -0.14135994 0.0078299465 0.14791925 0.073713101 -0.11161566 0.19356672 0.025479103 0.046227749 0.042886116 -0.14113708 0.18007098 0.018370843 0.057048943 -0.10065521 -0.14503548 -0.12707435 -0.092188455 -0.039880093 -0.046925001 -0.092275515 0.21714626 0.07892888 0.16448231 0.093890026 0.032962665 0.045021106 0.25796992 0.1821827 0.22706929 -0.14534499 0.14085355 -0.16627438 0.27184603 -0.12530211 -0.020159855 0.015547073 0.01695242 -0.1406092 -0.048790861 0.041282669 0.074498795 0.073478356 0.19763868 0.12909052 -0.0096255625 -0.13246194 -0.13734548 0.105249 0.18503264 -0.16705614 0.0049374774 0.081609234 -0.037262872 -0.13725984 0.17155515 0.058932863 -0.030953819 -0.037350312 0.2923826 -0.11054932 -0.092186227 0.14305499 -0.0091030253 -0.058737013 -0.012897117 -0.11492946 -0.035611685 -0.10550909 0.064165495
使 0.092075303 -0.010425221 0.14465544 -0.16403043 0.072220206 0.19157529 -0.051058654 0.030807024 -0.10382029 0.17488782 -0.015149027 0.02775405 -0.32712236 0.1100338 0.15877227 -0.17272559 0.078346744 -0.20723292 -0.091608815 0.096997738 -0.025613977 0.12236688 -0.011448886 0.1023552 -0.35201713 0.091851108 0.066053078 0.127891 -0.11785687 0.14738198 0.15099616 -0.13669407 0.010585999 0.15123807 0.068132199 -0.10565359 0.1815079 0.035910808 0.045624547 0.041138224 -0.1376144 0.17399864 0.028735962 0.056211937 -0.1070402 -0.14045849 -0.11347483 -0.082189046 -0.032907475 -0.053011272 -0.078725614 0.20409831 0.065248854 0.15241349 0.089684136 0.025515409 0.039700996 0.2561312 0.18809775 0.22654976 -0.14254422 0.14326343 -0.17042252 0.26889721 -0.1303117 -0.013221815 0.026681522 0.025801361 -0.13930908 -0.051311862 0.040004481 0.069077864 0.066352002 0.19356167 0.12189076 -0.0067912438 -0.12773794 -0.13415579 0.10924669 0.18306622 -0.17241758 0.011493908 0.079701565 -0.046301372 -0.13177153 0.16146712 0.063337378 -0.027754122 -0.023135614 0.28977135 -0.11079623 -0.086173505 0.14901397 -0.013635182 -0.064081505 -0.0077992519 -0.11233714 -0.034286659 -0.09719649 0.060736388
融资 0.087310731 -0.0039040647 0.14484075 -0.16937529 0.088729516 0.20368314 -0.039812304 0.037864003 -0.11496627 0.18300581 -0.013800729 0.030777587 -0.31952685 0.11323074 0.16096541 -0.17187978 0.072796322 -0.2110444 -0.083570458 0.095703557 -0.018397845 0.12611669 -0.014194814 0.10069906 -0.35363671 0.091928326 0.072107799 0.13054621 -0.11774438 0.14951688 0.15014063 -0.13295534 0.0064474489 0.14608644 0.066892944 -0.10793033 0.17862424 0.036305726 0.036921583 0.029311333 -0.129196 0.16783717 0.017920187 0.053688172 -0.10026144 -0.13548642 -0.1231001 -0.092791826 -0.034846876 -0.061869521 -0.096628718 0.21224681 0.063577391 0.15237063 0.10084021 0.032752 0.040036291 0.25318831 0.18321826 0.22083718 -0.13578832 0.132855 -0.16437134 0.26822445 -0.12956452 -0.010933612 0.019091764 0.019008419 -0.13815434 -0.054788951 0.027221074 0.069921948 0.060053755 0.20233612 0.11847577 -0.0087197376 -0.1317395 -0.11670985 0.11727975 0.19393165 -0.16348539 0.020702748 0.064753868 -0.033361334 -0.14156161 0.16225807 0.055738885 -0.034301564 -0.031410143 0.28733891 -0.10203094 -0.089941509 0.15004072 -0.0057451148 -0.060143802 -0.016503768 -0.11835845 -0.016204059 -0.094784945 0.069236137
智能 0.092461959 -0.0051220474 0.13913406 -0.17168662 0.08566238 0.20508608 -0.052045751 0.038534351 -0.09672837 0.17437392 -0.020218614 0.041250005 -0.33405069 0.12586556 0.14307007 -0.18808226 0.073296823 -0.20114826 -0.084898286 0.09782844 -0.018082509 0.12000252 -0.013075828 0.10759218 -0.34410521 0.099050932 0.060399223 0.13778999 -0.11717476 0.16026406 0.16352424 -0.13928662 0.0060875574 0.15540893 0.054482952 -0.11457908 0.19264244 0.037190672 0.041712556 0.047593683 -0.13996474 0.17433321 0.027865617 0.055175245 -0.10311832 -0.15771542 -0.1190526 -0.096075147 -0.043901801 -0.044703905 -0.083771318 0.20212573 0.071291521 0.16863801 0.081193507 0.036286127 0.048250828 0.2634775 0.18290371 0.22069079 -0.14361335 0.13801761 -0.15739062 0.27371964 -0.12137938 -0.025004564 0.024463329 0.028222794 -0.14684688 -0.041281264 0.03815363 0.086285457 0.075876586 0.19919302 0.12198402 -0.009213903 -0.12578723 -0.12924267 0.11053024 0.1828844 -0.16139904 0.014618671 0.081575148 -0.043838855 -0.13175932 0.16680363 0.05607073 -0.024389815 -0.033094887 0.28951874 -0.097394921 -0.078825481 0.12649128 -0.013587579 -0.069472365 -0.01175387 -0.10083356 -0.043053064 -0.11238138 0.064950548
现金 0.10050162 -0.027060833 0.14605983 -0.17039916 0.082357638 0.20464091 -0.032138295 0.037694629 -0.12137486 0.17674722 -0.020143818 0.031237574 -0.34182236 0.1077119 0.15028282 -0.18296273 0.081216261 -0.21782856 -0.087736189 0.10287996 -0.025466042 0.13625187 -0.020374643 0.12807776 -0.36879641 0.084419817 0.057775687 0.13452065 -0.12146635 0.15970516 0.15690063 -0.14692822 0.01769915 0.16602154 0.07175681 -0.12723979 0.2106657 0.039141309 0.035771515 0.020533904 -0.1540917 0.1815823 0.028901881 0.054052826 -0.10644775 -0.1509179 -0.12612689 -0.086286113 -0.042882584 -0.053284474 -0.078779466 0.21971488 0.084661461 0.15360586 0.098921098 0.048439957 0.04557154 0.26806229 0.210448 0.2325801 -0.14170517 0.14465524 -0.17267238 0.28502843 -0.11961327 -0.012980358 0.020620098 0.025807576 -0.14370593 -0.052950788 0.047611512 0.06803482 0.082514398 0.19974917 0.13837647 -0.017738726 -0.13951987 -0.13909715 0.10918108 0.2054521 -0.19697602 0.0085173761 0.072237425 -0.034654245 -0.12965347 0.18302573 0.077909172 -0.038586076 -0.029666269 0.2973702 -0.11869048 -0.086107798 0.16357845 -0.021334402 -0.084484406 -0.010610272 -0.12533493 -0.045789417 -0.10443377 0.068784557
情况 0.10697518 -0.014144091 0.14754233 -0.16610958 0.07814388 0.20343933 -0.037756644 0.029214764 -0.10208046 0.18019952 -0.01750144 0.026498275 -0.33202642 0.11076299 0.15749592 -0.18108647 0.074160188 -0.20332524 -0.086027279 0.099309981 -0.025961341 0.12474962 -0.018216681 0.10466195 -0.34405527 0.0927632 0.061556719 0.1294045 -0.128067 0.15337507 0.15684581 -0.14512019 0.01971571 0.1483995 0.061842542 -0.11786567 0.1824491 0.043641604 0.037706058 0.045056317 -0.13641837 0.18156606 0.019727964 0.05185774 -0.10599912 -0.15485561 -0.12387005 -0.092980869 -0.034533072 -0.060790692 -0.090220913 0.20522794 0.071900301 0.16733296 0.096610405 0.028298914 0.039923284 0.2649101 0.18258362 0.22429343 -0.12944393 0.13013308 -0.1696803 0.26866376 -0.12831388 -0.021223182 0.018934878 0.025398575 -0.14435807 -0.050394729 0.0388956 0.075505324 0.068271041 0.18946664 0.12176973 -0.0018637917 -0.12772976 -0.1380979 0.10533806 0.19060691 -0.16801077 0.014546872 0.084756285 -0.03890055 -0.13457684 0.17522073 0.058893207 -0.023494542 -0.022176735 0.28602704 -0.10748568 -0.076632135 0.14769578 -0.0067720455 -0.066800751 -0.010596539 -0.1184475 -0.036440719 -0.097831458 0.069671899
分析 0.093725882 -0.016313661 0.13344754 -0.16918366 0.081991121 0.20854914 -0.049292266 0.035349347 -0.10144446 0.17729492 -0.012670359 0.025910009 -0.33294201 0.11910236 0.15747681 -0.18131223 0.075840697 -0.19488837 -0.09067405 0.090803854 -0.031176217 0.11545313 -0.0050281761 0.09750472 -0.34204903 0.10368184 0.070557594 0.13390319 -0.1274977 0.15094654 0.15321317 -0.13989632 0.022387953 0.14696215 0.061149895 -0.1135271 0.18478595 0.037761766 0.052180745 0.040198077 -0.13872395 0.1612483 0.025348153 0.048474986 -0.095341235 -0.1494865 -0.1169313 -0.096967205 -0.043625809 -0.056646857 -0.084820867 0.20116755 0.081135996 0.15885893 0.078927979 0.031504106 0.040175643 0.26047301 0.18896279 0.23003122 -0.14865991 0.14134032 -0.15856208 0.25903565 -0.11611734 -0.013037062 0.020879887 0.024760555 -0.14687449 -0.05326663 0.032616634 0.0819159 0.065344431 0.2069509 0.12452967 -0.0041350308 -0.13586697 -0.1314327 0.10454776 0.18824604 -0.16802745 0.011999437 0.074052148 -0.037731856 -0.13643631 0.17398706 0.049524121 -0.028749513 -0.026025569 0.29116637 -0.11027862 -0.075495385 0.1450773 -0.0047408068 -0.058572181 -0.010911621 -0.11056872 -0.033898219 -0.10973454 0.065334275
个 0.087868467 -0.01152363 0.13915157 -0.16081508 0.08717446 0.20241614 -0.041701794 0.032964289 -0.10984021 0.1701688 -0.0042272075 0.026638426 -0.32202372 0.11505137 0.15559432 -0.17444149 0.083312012 -0.20839114 -0.092120089 0.098662004 -0.030006936 0.1146744 -0.018193312 0.11361523 -0.35553861 0.10166285 0.059602011 0.11827139 -0.12012105 0.15471847 0.14849791 -0.14053227 0.020060115 0.15317354 0.063831516 -0.10851957 0.19898741 0.038381714 0.045728434 0.031441469 -0.14865658 0.16762212 0.024760051 0.059178781 -0.11143476 -0.14657487 -0.12308485 -0.083918825 -0.041811615 -0.052389763 -0.087128319 0.20994413 0.064613052 0.15334916 0.085207701 0.038860001 0.048203249 0.2632494 0.17742072 0.21096595 -0.14192697 0.14484873 -0.17765333 0.27373096 -0.12915441 -0.010757897 0.026766414 0.026715828 -0.14632621 -0.05506444 0.03876425 0.076883949 0.07181751 0.19694138 0.12632817 -0.010494927 -0.12220776 -0.14161104 0.094294302 0.18712963 -0.17546064 0.0012465802 0.077405103 -0.052768435 -0.13619283 0.17057073 0.05571625 -0.026495552 -0.031070689 0.29967871 -0.11160339 -0.08422865 0.15456894 -0.0095545286 -0.063235462 -0.011428914 -0.11413141 -0.033970773 -0.098784544 0.067441009
批发 0.098951645 -0.023294272 0.14304076 -0.16577822 0.074233346 0.20673278 -0.052768063 0.030752046 -0.10900532 0.17331764 -0.005130297 0.025788903 -0.33701038 0.11840045 0.15437448 -0.17750844 0.066474095 -0.21470125 -0.084446877 0.09024623 -0.016344799 0.11397054 -0.0087404493 0.11738908 -0.34775978 0.096687287 0.067047514 0.13713755 -0.13432302 0.15852892 0.14980738 -0.14266486 0.013007136 0.15870312 0.07416904 -0.12129737 0.17568031 0.035759289 0.048683602 0.033934522 -0.13817714 0.17146714 0.030720489 0.043057553 -0.086887762 -0.1490587 -0.10625216 -0.091676354 -0.042656787 -0.062752694 -0.080012262 0.21204124 0.076770544 0.15813412 0.095648766 0.028130557 0.050950907 0.25948188 0.1867743 0.22725417 -0.15858902 0.13580152 -0.17092735 0.26072848 -0.1295328 -0.0093949055 0.012967105 0.0098184459 -0.14805034 -0.04602132 0.040856674 0.073775187 0.07427831 0.196224 0.12769203 -0.0095602833 -0.12406542 -0.14013804 0.097137742 0.17853472 -0.16652989 0.008046601 0.069009058 -0.044113725 -0.14235885 0.17531197 0.061989695 -0.046535149 -0.014708112 0.29237008 -0.10032284 -0.074928023 0.17059745 -0.0079857782 -0.053178258 -3.6267455e-05 -0.11458776 -0.026977718 -0.10491752 0.053800777
气源 0.10033871 -0.012195739 0.14399952 -0.16362454 0.075083882 0.19226052 -0.045743171 0.042470526 -0.10419039 0.18309335 -0.016935036 0.021209618 -0.3345373 0.11595941 0.15632105 -0.17157881 0.082756527 -0.22114679 -0.076129206 0.090917207 -0.024995338 0.11894182 -0.019625794 0.10588362 -0.35960975 0.089847334 0.074278504 0.13955452 -0.12021121 0.15672533 0.14621525 -0.14796165 0.023028515 0.14761759 0.0633251 -0.11576776 0.19611941 0.040858343 0.040490791 0.036992606 -0.14268011 0.17073812 0.022560844 0.054952744 -0.10810055 -0.14589708 -0.11961577 -0.086362861 -0.035364483 -0.05284306 -0.082528442 0.22015616 0.066055305 0.16427869 0.088283964 0.025982054 0.046959285 0.25777599 0.18128671 0.21830992 -0.13415891 0.13513629 -0.17045723 0.26370126 -0.12899163 -0.021428676 0.026462246 0.0094580464 -0.13799582 -0.043894682 0.047419772 0.076194219 0.071901605 0.19768241 0.13071455 -0.010759369 -0.13993213 -0.12350648 0.08929386 0.18534158 -0.17318556 0.0035784016 0.065360121 -0.048422001 -0.13636747 0.16900475 0.051443715 -0.026910556 -0.033727225 0.29909047 -0.10974476 -0.077079095 0.14884913 -0.0078129238 -0.064467467 0.0004800405 -0.11090426 -0.030789934 -0.097964957 0.070340067
皖维 0.09475641 -0.012210216 0.14299156 -0.15876256 0.083772086 0.20066959 -0.041866604 0.032273885 -0.10601401 0.17363162 -0.014184072 0.026172787 -0.32156882 0.12080865 0.15007952 -0.17090032 0.069508664 -0.19305615 -0.083499007 0.091943629 -0.022714147 0.12270202 -0.013685464 0.10101919 -0.35000145 0.088356756 0.061174396 0.13044871 -0.12604658 0.1542749 0.14619915 -0.13270143 0.016819499 0.14935765 0.066638947 -0.11050052 0.18723893 0.039108697 0.037102781 0.034002606 -0.12966391 0.17416528 0.030200798 0.053561788 -0.094382718 -0.14590913 -0.12328185 -0.080007479 -0.043057002 -0.048940953 -0.08513853 0.20514643 0.075373843 0.1552615 0.087234154 0.035186112 0.043768484 0.25538552 0.18082242 0.21992029 -0.13811767 0.1324371 -0.1675382 0.26053461 -0.11824576 -0.011423489 0.022342535 0.01719551 -0.13056292 -0.043955244 0.035430767 0.070065252 0.073266484 0.1875609 0.11776131 -0.0020034236 -0.12472448 -0.13118538 0.10196683 0.1854119 -0.17090015 0.0092118606 0.077875011 -0.046292204 -0.13040799 0.16701728 0.057418086 -0.028820852 -0.030206487 0.28381762 -0.10884729 -0.078093871 0.15153354 -0.0067159031 -0.068215571 -0.013802056 -0.11877145 -0.033311173 -0.10029636 0.065551579
带动 0.10048218 -0.02113031 0.14489709 -0.1579822 0.073557131 0.19282466 -0.038312569 0.033962391 -0.11207823 0.17398591 -0.0096648317 0.033358753 -0.33169025 0.1240617 0.14555538 -0.18127225 0.069303907 -0.21393035 -0.084376395 0.095157452 -0.025421623 0.12015746 -0.019519329 0.10400759 -0.35656795 0.093164481 0.062943235 0.13367721 -0.12960617 0.14314471 0.15801838 -0.14477615 0.015168299 0.14952533 0.07146851 -0.12112387 0.18939213 0.03041352 0.041949887 0.034934942 -0.14463635 0.1711022 0.029796287 0.053902209 -0.099408492 -0.14455415 -0.12394097 -0.089827873 -0.043295119 -0.054478049 -0.088836707 0.20795456 0.077420898 0.17289546 0.0955498 0.029702658 0.048187867 0.26143369 0.18280254 0.22176895 -0.14126199 0.14472142 -0.16322961 0.27881283 -0.12119955 -0.019162187 0.014592954 0.013405714 -0.13859394 -0.054610159 0.043614604 0.065938979 0.07468994 0.20269254 0.13345608 -0.0086530233 -0.13232239 -0.13954426 0.10000739 0.18591587 -0.17040993 0.01442338 0.078486733 -0.035838086 -0.12694304 0.17741583 0.060370147 -0.03561781 -0.028164348 0.28580946 -0.098212838 -0.087480873 0.14817441 -0.0069764997 -0.063019291 -0.0027042099 -0.12005321 -0.038539831 -0.10845166 0.064041801
因 0.088946946 -0.0088007497 0.13563791 -0.16005164 0.081085391 0.19179028 -0.048512608 0.041515715 -0.1099005 0.17472464 -0.0038623039 0.023009757 -0.32305974 0.12216162 0.15505229 -0.18098757 0.066674173 -0.20551954 -0.092040427 0.099245086 -0.01832898 0.13030407 -0.014775577 0.11050574 -0.34975037 0.089442268 0.071319267 0.1237347 -0.12303627 0.15135761 0.14497887 -0.14010747 0.012763349 0.15193439 0.070149682 -0.11107597 0.18694353 0.031191977 0.050698329 0.041520923 -0.13966507 0.17376526 0.017344389 0.052018963 -0.095203817 -0.14993539 -0.11374203 -0.08031898 -0.043019567 -0.048439346 -0.09325356 0.20708625 0.074163303 0.15445033 0.088712677 0.023819417 0.047443911 0.26059204 0.18606968 0.21300964 -0.1364807 0.14413346 -0.16377166 0.26875007 -0.12097493 -0.009395075 0.01464078 0.024974139 -0.13777108 -0.051279515 0.041666929 0.075128779 0.073799685 0.19649619 0.12517333 -0.0091065103 -0.12787001 -0.12999934 0.098098606 0.1956512 -0.17627946 0.0050952188 0.083469436 -0.045111679 -0.13332011 0.16197596 0.063295856 -0.032717921 -0.027257916 0.28529495 -0.1036233 -0.085653335 0.14377934 -0.0073109148 -0.066686936 -0.011623221 -0.1203834 -0.037104882 -0.097232237 0.057819374
