719 50
影响 0.13510868 -0.019001516 0.18845543 -0.24243177 0.11155356 0.26072925 -0.071585797 0.044260319 -0.15342587 0.23619635 -0.0029046596 0.025448214 -0.46135345 0.17401938 0.20972091 -0.26416251 0.10975291 -0.29205167 -0.10683704 0.1526719 -0.028847504 0.16628624 -0.019375008 0.13871153 -0.48138762 0.15177514 0.069583289 0.1987104 -0.16321421 0.22196922 0.22798279 -0.17868312 0.023447772 0.20108183 0.075079806 -0.16054292 0.26904234 0.04277689 0.065372594 0.0576998 -0.19249666 0.25079355 0.046249814 0.087686099 -0.1467353 -0.2124664 -0.18828106 -0.12278367 -0.064121053 -0.073399574
天然气 0.13334206 -0.016663315 0.19851553 -0.22912863 0.11473466 0.26816463 -0.073586427 0.03866975 -0.15078725 0.2518957 -0.0083122458 0.028747074 -0.46396005 0.16500665 0.20988761 -0.236205 0.11228471 -0.30440128 -0.10963003 0.13392052 -0.049512938 0.16752781 -0.020961942 0.15613432 -0.48367321 0.13572565 0.087443106 0.19894065 -0.1865198 0.20891412 0.19754907 -0.20332441 0.017463628 0.21410149 0.097141862 -0.16818596 0.25667417 0.043009866 0.055604078 0.036845163 -0.19062878 0.25502819 0.046925921 0.073593102 -0.12809592 -0.20455189 -0.16371179 -0.1186244 -0.044541169 -0.082067043
PVA 0.13073485 -0.028851163 0.20621222 -0.22844934 0.12066258 0.26654914 -0.06083148 0.053377945 -0.13887653 0.23630378 -0.020737 0.047964193 -0.44628727 0.17055357 0.23269951 -0.26177347 0.08837907 -0.2784977 -0.13792078 0.1377103 -0.027247597 0.19168349 -0.035462465 0.13962288 -0.47467399 0.13339204 0.090223506 0.18984564 -0.16675508 0.22762804 0.20695604 -0.20109941 0.024556531 0.21217608 0.074371614 -0.15867549 0.26804599 0.051332757 0.06620115 0.056971643 -0.17116584 0.2561807 0.038430523 0.065481499 -0.15118988 -0.19725862 -0.16593693 -0.1382961 -0.054232351 -0.072320364
终端 0.13157444 -0.034400318 0.19856036 -0.2254321 0.13411297 0.28496057 -0.042955533 0.038967863 -0.14754346 0.24001749 -0.028289307 0.051931147 -0.44736114 0.16458924 0.22081888 -0.2663224 0.10784711 -0.2757414 -0.11638129 0.12797576 -0.026927892 0.18137626 -0.033520795 0.15450466 -0.49873751 0.14254491 0.097872943 0.17222375 -0.17127115 0.21857893 0.2047134 -0.20116636 -0.0015368336 0.20679939 0.10362586 -0.16380411 0.2712931 0.046136975 0.053681929 0.046156369 -0.20841759 0.24628119 0.022448329 0.074953243 -0.15479912 -0.19930521 -0.17926586 -0.118136 -0.056881525 -0.066172719
化工 0.115466 0.00087067572 0.19647002 -0.20903392 0.13455386 0.27626449 -0.071575128 0.051993173 -0.16921368 0.25868979 -0.014833866 0.054177493 -0.45039591 0.18736753 0.25953719 -0.24614139 0.078556545 -0.28621438 -0.15505029 0.12287768 -0.02561857 0.19078194 -0.024468297 0.1270519 -0.48675424 0.1527158 0.1056131 0.18547228 -0.17423345 0.22885567 0.20450418 -0.19817236 0.020923894 0.207782 0.084514245 -0.13334474 0.24177362 0.049240842 0.082222171 0.056404803 -0.18281566 0.22732139 0.017988514 0.076071665 -0.14028469 -0.19874538 -0.18822773 -0.13209426 -0.06237575 -0.087418087
厂商 0.14154713 -0.044675443 0.1899253 -0.23274636 0.12102504 0.2679652 -0.056794003 0.051669817 -0.13879882 0.24305068 -0.023099136 0.033598974 -0.46545866 0.16530001 0.1958141 -0.23951986 0.12181502 -0.28619039 -0.11366958 0.14297786 -0.025630096 0.17431448 -0.037724592 0.14628056 -0.51375675 0.14043914 0.089637838 0.17202421 -0.17954884 0.20896871 0.20789585 -0.19120915 0.030395675 0.23136923 0.088283084 -0.15788978 0.29148698 0.036141053 0.056935359 0.061055414 -0.21249376 0.23660202 0.021246379 0.082626283 -0.13992515 -0.22275195 -0.17615597 -0.12807122 -0.03989847 -0.083582774
下游 0.14506605 -0.029792052 0.20984086 -0.21802248 0.1169796 0.28639677 -0.069485702 0.062527239 -0.15823415 0.2423109 -0.0073037255 0.04609986 -0.4607065 0.17014112 0.23164263 -0.24140136 0.08402095 -0.28082141 -0.13171169 0.12537676 -0.027291955 0.19013624 -0.025092235 0.1479817 -0.48790541 0.12092232 0.081305459 0.18749265 -0.18885928 0.20403695 0.19087335 -0.18750985 0.031026246 0.20595065 0.097685009 -0.15887742 0.26631525 0.051717713 0.061689548 0.065853402 -0.19971168 0.23453887 0.016539039 0.084499903 -0.14894554 -0.19948089 -0.16595589 -0.12771797 -0.050341614 -0.064598739
磷 0.13924479 -0.010463383 0.21771415 -0.21765076 0.12516721 0.28028473 -0.063493438 0.064680837 -0.16978587 0.25707924 -0.018991981 0.059740078 -0.45478818 0.18426399 0.26556152 -0.2587105 0.091476865 -0.28258175 -0.15098518 0.14745556 -0.029568823 0.18212302 -0.037869193 0.1403238 -0.50614375 0.15795757 0.098421395 0.17935893 -0.16510427 0.20835687 0.20280762 -0.20560208 0.031376053 0.1998419 0.076769315 -0.15397084 0.25527188 0.0469517 0.061491963 0.049907118 -0.19048671 0.22925778 0.030000618 0.087240666 -0.14998163 -0.18612456 -0.19372034 -0.13229513 -0.051566195 -0.07032346
提升 0.13537467 -0.040326074 0.20785557 -0.23075165 0.1082172 0.28942496 -0.055815939 0.064156204 -0.16041337 0.24935012 -0.013206391 0.021196133 -0.47178248 0.16625665 0.2243332 -0.26628527 0.10444099 -0.29810852 -0.11172374 0.14608131 -0.039019331 0.16711742 -0.031198051 0.15081666 -0.50806856 0.13349935 0.092664152 0.17130028 -0.18127951 0.21482706 0.18637617 -0.19427224 0.018661505 0.20642634 0.098571084 -0.17760774 0.27279824 0.033953745 0.055652678 0.03923307 -0.20803083 0.25983447 0.037464999 0.064279921 -0.13283515 -0.20049289 -0.15789345 -0.10416115 -0.064420491 -0.064723909
采购 0.12753244 -0.023477953 0.18955861 -0.21835908 0.12351376 0.28351974 -0.071068913 0.061657716 -0.15036872 0.24808596 -0.023936974 0.032297421 -0.45973203 0.16431318 0.2173164 -0.25145623 0.11280974 -0.30208877 -0.11789894 0.14125814 -0.020725023 0.16870835 -0.021390729 0.14973639 -0.50532401 0.14604892 0.088676736 0.18498884 -0.16398931 0.21209109 0.20501719 -0.2117244 0.020275405 0.21788849 0.075498797 -0.15749626 0.27792233 0.039692439 0.048855819 0.057262301 -0.19309859 0.24320225 0.040269975 0.081167459 -0.14572622 -0.20917863 -0.16440645 -0.12405084 -0.05485465 -0.088029474
药品 0.12276328 -0.0099826241 0.21608998 -0.23753445 0.11282922 0.29744968 -0.090133071 0.031151261 -0.14569813 0.23078933 -0.0050651012 0.032733828 -0.45815706 0.14767702 0.21127036 -0.22993116 0.10391301 -0.2959201 -0.11215936 0.11590935 -0.041852381 0.15622777 0.0021375692 0.13592164 -0.48265031 0.13129793 0.10945433 0.19733423 -0.19913156 0.21155238 0.23810019 -0.18892123 0.028514724 0.20420556 0.10147289 -0.16231541 0.25833443 0.05434015 0.085229896 0.03899657 -0.20171896 0.24679694 0.05048402 0.064440727 -0.12042677 -0.19535105 -0.15749578 -0.14691801 -0.076373085 -0.075238235
延伸 0.12670608 -0.031222809 0.20483723 -0.22034508 0.12506364 0.2589438 -0.043584496 0.06566041 -0.14193803 0.23575971 -0.014447927 0.045200817 -0.44976094 0.17562686 0.22278078 -0.2571063 0.11201353 -0.29435334 -0.12465445 0.13818534 -0.028580703 0.18217294 -0.021257181 0.15097618 -0.48874849 0.14222291 0.099643975 0.18041292 -0.16775493 0.20804875 0.20263137 -0.20199624 0.0050485302 0.22172976 0.093606308 -0.16189264 0.26230997 0.055992149 0.072316423 0.046376903 -0.20399496 0.24548253 0.022243718 0.067432791 -0.15124501 -0.21168251 -0.17509438 -0.1031878 -0.05584209 -0.068577878
控制 0.12046289 -0.014108361 0.21155313 -0.23064642 0.13315029 0.29483169 -0.033462249 0.042775303 -0.15168299 0.25359383 -0.011276593 0.03968605 -0.46181136 0.17640543 0.20992714 -0.25554115 0.13329498 -0.27673063 -0.10239651 0.12424809 -0.037402939 0.17717955 -0.03145862 0.1631265 -0.50668234 0.13448629 0.088741429 0.17895015 -0.17762464 0.19852616 0.20398362 -0.20473592 0.03053489 0.19809292 0.094939686 -0.1420821 0.29251617 0.063246995 0.043243822 0.044604879 -0.19391847 0.22631365 0.030246094 0.063378513 -0.15763073 -0.19726568 -0.16720483 -0.12187263 -0.057491403 -0.069271989
生猪 0.09048979 -0.06208846 0.17008471 -0.24329284 0.12289138 0.24347816 -0.0032464887 0.028466482 -0.1677068 0.24488461 -0.053137429 -0.02321648 -0.45984864 0.19283651 0.17606753 -0.27588543 0.16196026 -0.28130722 -0.07915584 0.1152218 -0.065327831 0.12851508 -0.056260001 0.20723033 -0.52322918 0.095217802 0.11825992 0.1657754 -0.17960501 0.20295668 0.15112469 -0.1951382 0.0098566553 0.2126867 0.13304438 -0.19553144 0.30302709 0.013437354 0.0018296225 0.038132608 -0.23540406 0.2209231 0.020516815 0.077725343 -0.16233967 -0.21381129 -0.14182875 -0.096112616 -0.057281256 -0.078761883
水泥 0.13683878 -0.012141966 0.18564987 -0.22592373 0.10839668 0.27801934 -0.053298406 0.057261147 -0.15218264 0.24929513 -0.0075680786 0.033943228 -0.44956249 0.16201638 0.22671054 -0.24202694 0.10508012 -0.2660048 -0.13219047 0.12766038 -0.044109881 0.17888863 -0.023842694 0.13401659 -0.49102283 0.15122722 0.094601654 0.17524363 -0.17293015 0.21311975 0.22018149 -0.19125509 0.0054646661 0.20500518 0.10655676 -0.15195298 0.25255442 0.051029097 0.06187344 0.064190865 -0.19513045 0.23480169 0.040584385 0.084387213 -0.15443043 -0.20004123 -0.16331227 -0.12418968 -0.047966413 -0.072854482
养殖 0.086465627 -0.058254108 0.17043479 -0.2239289 0.1386123 0.25906873 -0.0044200053 0.023505287 -0.18303294 0.25920737 -0.037559744 -0.023435263 -0.44320357 0.19157073 0.15695933 -0.27406165 0.16818041 -0.29582623 -0.08914829 0.11166296 -0.060654845 0.136353 -0.05611695 0.22299929 -0.5295828 0.10089295 0.13146323 0.17405234 -0.16650037 0.21128456 0.14259493 -0.19506319 -0.0030433985 0.21174639 0.12857595 -0.19441254 0.30202541 0.026930656 -0.001485028 0.060084153 -0.23744068 0.20495223 0.042712588 0.064657211 -0.1754158 -0.19944677 -0.15391786 -0.089485914 -0.077599779 -0.095246129
需求 0.1341334 -0.038156573 0.2067398 -0.22235648 0.1068976 0.28931659 -0.075772822 0.057124201 -0.14248493 0.25269222 -0.014508708 0.022207625 -0.46228307 0.16604234 0.21536639 -0.25292537 0.10476491 -0.2959266 -0.12244675 0.11566318 -0.04103658 0.18484879 -0.030619947 0.14458147 -0.49117631 0.12646729 0.09070579 0.18296443 -0.17604701 0.22111028 0.20158052 -0.20065981 0.015358944 0.21990667 0.086665407 -0.16884613 0.26940361 0.036584314 0.058602002 0.058500178 -0.20636374 0.24103568 0.038669053 0.08250989 -0.13558502 -0.1918267 -0.17810205 -0.11171073 -0.050565813 -0.072751209
医药 0.11575226 -0.032636397 0.21973673 -0.2184175 0.11174061 0.29849583 -0.066496253 0.027690331 -0.14646316 0.24253376 0.0025954216 0.039025411 -0.46538606 0.14703073 0.20361394 -0.25209346 0.11283299 -0.2969251 -0.10079826 0.12329832 -0.042786729 0.1653346 -0.019364364 0.13644606 -0.48841506 0.14768034 0.093247093 0.20422256 -0.17859806 0.20553043 0.21767908 -0.19342656 0.016424594 0.19846453 0.0876377 -0.1694275 0.27222309 0.0636167 0.069246612 0.05541072 -0.20478083 0.25311011 0.055759422 0.058882639 -0.10600928 -0.2104204 -0.16908821 -0.12274878 -0.049568493 -0.078126721
能源 0.14637676 0.0032585023 0.19573887 -0.23871481 0.1278875 0.29094869 -0.053183593 0.05496233 -0.1340214 0.23068187 -0.012406234 0.051461682 -0.46372047 0.14927879 0.21560329 -0.24898644 0.083221287 -0.27120602 -0.13511215 0.14220878 -0.030665705 0.15976684 -0.022896776 0.14307523 -0.5009445 0.14533447 0.093023486 0.18273892 -0.17914973 0.19306603 0.21477978 -0.19626065 0.0033043481 0.19350253 0.089901529 -0.16410677 0.26544797 0.045586836 0.064893886 0.043968514 -0.21157232 0.24365027 0.025728147 0.076826386 -0.16578919 -0.21527453 -0.17979673 -0.128001 -0.066793397 -0.077610508
分销 0.11033531 -0.045561969 0.19797215 -0.2461006 0.11075121 0.26994509 -0.03793693 0.0294997 -0.17810974 0.2550965 -0.047736119 -0.010467399 -0.45144442 0.18587065 0.18007272 -0.26924676 0.14661323 -0.31625053 -0.085949622 0.13236888 -0.047320463 0.15662332 -0.038305487 0.20017526 -0.52509975 0.09881717 0.096892878 0.19640218 -0.17990993 0.21182498 0.16103072 -0.20392996 0.028326651 0.21233167 0.11779528 -0.16912654 0.28061476 0.046954736 0.019428799 0.056083601 -0.23544468 0.22720882 0.036279645 0.066128872 -0.1527874 -0.21674433 -0.15849046 -0.113967 -0.05512784 -0.084234297
上游 0.14089872 -0.019644063 0.18094595 -0.24007939 0.10445023 0.28366801 -0.055905014 0.051533572 -0.14491279 0.23734051 -0.0088407462 0.032738049 -0.46588263 0.15344365 0.21437813 -0.25489366 0.11029065 -0.29017544 -0.12295258 0.14706036 -0.024333395 0.16840637 -0.001679001 0.14980161 -0.49554825 0.12416105 0.10165891 0.18253559 -0.17517784 0.21971585 0.22201487 -0.18481122 0.023830526 0.20173942 0.08652015 -0.17469418 0.25689313 0.055886216 0.07592956 0.06529808 -0.20407464 0.25111514 0.028062098 0.089877047 -0.15771832 -0.1955335 -0.17804568 -0.13665108 -0.06542702 -0.081414424
关系 0.14116845 -0.0094714006 0.19102864 -0.22984177 0.11202382 0.28731421 -0.054684408 0.064332135 -0.13273358 0.22998077 -0.0037478812 0.043369576 -0.45573875 0.16900897 0.2126663 -0.25578776 0.11505083 -0.27788353 -0.12740032 0.14428151 -0.033430118 0.15848559 -0.0093483767 0.12814249 -0.4961206 0.13947035 0.076978788 0.17202033 -0.19066712 0.20523104 0.22322835 -0.20478565 0.011290001 0.19728127 0.099542081 -0.15691535 0.25116867 0.050587494 0.05464052 0.056267623 -0.19982821 0.24659653 0.033374898 0.065831944 -0.15647326 -0.20375916 -0.16153371 -0.1158698 -0.056251999 -0.079508021
医疗 0.13130236 -0.030191449 0.20957324 -0.23214298 0.11172432 0.29412332 -0.083567388 0.025583878 -0.15630764 0.22297959 0.017486842 0.040014014 -0.48313186 0.15175846 0.21308541 -0.24135695 0.098890334 -0.29577091 -0.1285609 0.12213521 -0.019415637 0.15145639 -0.00021882592 0.1363848 -0.49543339 0.12185857 0.10112962 0.20706074 -0.19223203 0.22297838 0.22034791 -0.20630524 0.020845458 0.2201094 0.11459059 -0.17915806 0.23851094 0.047984716 0.079412565 0.051396478 -0.20675072 0.23573835 0.056491118 0.050449003 -0.10931972 -0.18512735 -0.15804096 -0.12958917 -0.07141789 -0.084173463
厂家 0.15444918 -0.027670033 0.20834842 -0.23865287 0.10367101 0.26663083 -0.068180755 0.044852119 -0.15512778 0.2558223 -0.008563241 0.039360527 -0.47204009 0.16225585 0.22604242 -0.25039434 0.089448683 -0.29661968 -0.13143598 0.12982677 -0.038652465 0.17087328 -0.035265252 0.1578218 -0.50012249 0.14661489 0.099059209 0.18522967 -0.19495508 0.2073608 0.22874238 -0.19665669 0.025886312 0.22472838 0.10051777 -0.1599732 0.25576016 0.041217778 0.063592687 0.071986653 -0.19198349 0.23937626 0.04601929 0.084529072 -0.1424031 -0.20453092 -0.16469209 -0.1110362 -0.044161286 -0.070298538
数据 0.12020094 -0.010956908 0.18945634 -0.24393167 0.11702649 0.28674293 -0.084572047 0.03765171 -0.14044547 0.23360103 -0.022470921 0.042261384 -0.46120837 0.17681731 0.21439567 -0.25455859 0.11127546 -0.27397826 -0.12110631 0.13027222 -0.043567639 0.17081191 0.00290364 0.15356456 -0.48622561 0.13960902 0.10580287 0.19673327 -0.16791545 0.23041812 0.21979232 -0.20797761 0.023398414 0.2113892 0.087902643 -0.14813288 0.26044852 0.037092328 0.075410746 0.050471954 -0.19772793 0.22024141 0.032132331 0.054843005 -0.14118879 -0.19918618 -0.16751185 -0.13734674 -0.075977609 -0.068793483
电力 0.12130612 0.00062924979 0.19903642 -0.21823815 0.097668506 0.27425191 -0.06701909 0.057946969 -0.15864313 0.25281292 -0.0056880773 0.041847069 -0.45815817 0.17201969 0.22166567 -0.22983396 0.10834592 -0.26518661 -0.1200267 0.13178682 -0.018133957 0.18149681 -0.013607324 0.14714739 -0.49186775 0.14498964 0.10382209 0.18130381 -0.1634949 0.20730735 0.21398546 -0.18451013 0.011979436 0.20751975 0.094813474 -0.14122595 0.26726454 0.034218356 0.066294633 0.059070479 -0.20279899 0.24487813 0.034817964 0.086251095 -0.13024208 -0.18886009 -0.18558151 -0.1106667 -0.047620457 -0.076069623
肉制品 0.099780247 -0.043473721 0.17782973 -0.22903389 0.12201148 0.25120285 -0.0061540157 0.030845832 -0.17913219 0.24945827 -0.060905475 -0.013848466 -0.45307627 0.17610954 0.17574026 -0.24285707 0.14975798 -0.29455012 -0.081621513 0.11452736 -0.064479955 0.13861036 -0.039852004 0.20335719 -0.51401389 0.10875095 0.1215394 0.16989984 -0.15824412 0.19546278 0.1457231 -0.1909212 0.016104827 0.18991344 0.10832085 -0.18098897 0.28603524 0.025534017 0.0026511883 0.052178256 -0.23575482 0.2068156 0.036873497 0.077313468 -0.17409945 -0.21648671 -0.15030876 -0.093663834 -0.054748926 -0.090146117
钢铁 0.13812672 -0.005979483 0.18251519 -0.23500468 0.11807115 0.28288352 -0.059662521 0.053425126 -0.12977441 0.23679516 -0.024293246 0.045154195 -0.46185476 0.15402985 0.21091844 -0.24339889 0.091105804 -0.282772 -0.11712728 0.13661762 -0.03575515 0.16795145 -0.019019155 0.16126937 -0.47362334 0.11547421 0.072547965 0.17721052 -0.17713253 0.21107776 0.2202365 -0.17742796 0.023806179 0.20209739 0.091743305 -0.1653842 0.27270979 0.048602898 0.051936828 0.041787218 -0.21704046 0.2390116 0.036618032 0.092187084 -0.16125751 -0.19428356 -0.16459884 -0.12520821 -0.064138658 -0.074022271
行业 0.1233307 -0.0050064232 0.17682143 -0.23611346 0.11983371 0.29072422 -0.066031769 0.058474015 -0.13915351 0.23495992 -0.0043801488 0.036158115 -0.45928711 0.17397115 0.22119756 -0.2308968 0.09169808 -0.27241683 -0.11940617 0.12484163 -0.026550591 0.1670108 -0.012573875 0.13258199 -0.48668835 0.15346602 0.090307236 0.17485748 -0.16904652 0.20863874 0.22567458 -0.1943585 -0.0011982296 0.18328217 0.069552682 -0.14174603 0.24226384 0.047857378 0.076898076 0.065537028 -0.20434782 0.22061466 0.031754106 0.077223361 -0.13284904 -0.197713 -0.19139785 -0.13654055 -0.069020033 -0.072814286
PVB 0.14376019 -0.017601589 0.19770208 -0.2056994 0.14654824 0.28379333 -0.035544436 0.041019168 -0.14922573 0.25502336 -0.018996296 0.052864745 -0.45602253 0.16760373 0.19958606 -0.24424958 0.11496777 -0.27691054 -0.13614926 0.14111109 -0.051455583 0.19790836 -0.04234248 0.15876773 -0.51447636 0.13555902 0.087475464 0.17398261 -0.15643568 0.21544929 0.19688582 -0.18189323 0.039770942 0.20392057 0.072169505 -0.14583245 0.28889242 0.057375241 0.044979028 0.048589144 -0.19192119 0.23004802 0.018490041 0.086073048 -0.16036066 -0.21538009 -0.20102885 -0.11090404 -0.062077943 -0.083131626
投资 0.14993493 -0.00075413263 0.17855121 -0.23692289 0.09748815 0.28094107 -0.07081601 0.056129333 -0.15857951 0.24244462 -0.019695725 0.035819661 -0.4758139 0.15275039 0.23007716 -0.22898646 0.093640178 -0.26411813 -0.13732012 0.14177924 -0.036112085 0.15132421 -0.029458996 0.1486699 -0.50481391 0.14451729 0.1022388 0.16565849 -0.18118447 0.21138319 0.23201881 -0.18322812 0.0050046691 0.19163769 0.092455722 -0.14717238 0.2509433 0.039256636 0.076516658 0.049206696 -0.19767873 0.23057163 0.037104975 0.08876279 -0.1530831 -0.20384456 -0.1778952 -0.12939654 -0.065734796 -0.066751495
政策 0.13209376 -0.022698546 0.1946191 -0.22523998 0.12303031 0.27705166 -0.066832446 0.057601128 -0.16275932 0.23400894 -0.018721649 0.042572219 -0.47111341 0.15003364 0.2076648 -0.25447997 0.10487357 -0.2914696 -0.12132894 0.12366299 -0.032266378 0.18165465 -0.022040615 0.15866852 -0.50214076 0.12973522 0.085372679 0.19586226 -0.16452624 0.22608139 0.21642673 -0.18368243 0.0021184278 0.20692036 0.10179938 -0.16468585 0.26678157 0.052703802 0.049121626 0.036566291 -0.18629478 0.24900779 0.050735854 0.079872727 -0.1546265 -0.2126866 -0.1725869 -0.13265389 -0.056155283 -0.071857937
状况 0.12926583 -0.042759057 0.19070432 -0.23512335 0.1368583 0.26068324 -0.035596132 0.044815857 -0.15074478 0.26479575 -0.017067036 0.037295312 -0.45571202 0.14824182 0.20422728 -0.24642073 0.079253711 -0.28418696 -0.13600302 0.13834436 -0.028897429 0.17398481 -0.033548746 0.17499046 -0.5026322 0.14684135 0.10515779 0.17183237 -0.16187175 0.2052193 0.23231289 -0.1830509 0.023241365 0.20746303 0.093709886 -0.1591388 0.27189276 0.068019092 0.072746053 0.041947402 -0.19551606 0.24407963 0.040300105 0.086592369 -0.148173 -0.22017051 -0.18682551 -0.13086247 -0.071449712 -0.07824304
光学 0.13222681 -0.0092888111 0.19861276 -0.23084603 0.1279628 0.27452022 -0.045376446 0.034425225 -0.13930079 0.22490466 -0.0011804578 0.050241679 -0.43522018 0.16456462 0.21106291 -0.23283646 0.081968315 -0.27291524 -0.13606556 0.13524002 -0.035446789 0.186535 -0.023226593 0.13987938 -0.48160729 0.15455492 0.076237045 0.18252304 -0.15323682 0.21913461 0.19418332 -0.1873572 0.0096301129 0.2046252 0.083654433 -0.14089926 0.27346918 0.039000209 0.075708061 0.036826275 -0.19307896 0.23102295 0.018603629 0.066577367 -0.16055103 -0.19388415 -0.17960754 -0.13001385 -0.063425191 -0.064579703
资产 0.13635755 -0.030321188 0.20580913 -0.23953086 0.102994 0.29367545 -0.082217254 0.057272077 -0.15068574 0.23107834 -0.013021326 0.031784467 -0.47229636 0.14223634 0.18810236 -0.23791392 0.095331803 -0.28355375 -0.13595796 0.12375705 -0.034925893 0.15963814 -0.014772551 0.1664212 -0.46903542 0.12327418 0.084503852 0.19632189 -0.19035546 0.20415805 0.20189355 -0.19946755 0.00062948372 0.2099669 0.089791037 -0.15258566 0.26718262 0.043217245 0.047979705 0.046571665 -0.19587274 0.24317738 0.039549995 0.084290646 -0.14578721 -0.18739441 -0.16642968 -0.11056948 -0.078643121 -0.07831271
磷酸 0.14271298 -0.014677004 0.21405974 -0.20873471 0.12635861 0.27037811 -0.053537626 0.059973542 -0.17250225 0.24295589 -0.041295651 0.044296701 -0.46129623 0.18271177 0.2474083 -0.23843749 0.07341405 -0.29301021 -0.15395288 0.12875691 -0.024070028 0.19963835 -0.012130818 0.16440764 -0.48886308 0.13389428 0.097195327 0.17398021 -0.17719223 0.19928865 0.1894747 -0.20407695 0.04432429 0.18535402 0.086652942 -0.13166034 0.24788734 0.060646966 0.07218568 0.062819965 -0.17980909 0.23241498 0.033619016 0.093309544 -0.1568989 -0.20479077 -0.20271787 -0.12355666 -0.034642518 -0.082549378
机械 0.15449996 -0.026005829 0.1975963 -0.21623221 0.12555742 0.27254668 -0.037716206 0.048345122 -0.13963759 0.25027362 -0.027516009 0.028681796 -0.45561069 0.15077171 0.22622715 -0.24880588 0.090050451 -0.28425986 -0.12237062 0.14117421 -0.031038774 0.17664389 -0.022794481 0.16393512 -0.50698048 0.15035251 0.10204943 0.16406682 -0.18359309 0.21275358 0.22492038 -0.18401514 0.022883601 0.21048066 0.089241579 -0.14824754 0.25696489 0.037124757 0.074091896 0.058924768 -0.20457216 0.23241802 0.047210108 0.065667845 -0.15424363 -0.213563 -0.17951645 -0.13478459 -0.075020261 -0.080605708
项目 0.1208301 -0.012178254 0.21022381 -0.21560292 0.11272313 0.27742308 -0.086103059 0.056619383 -0.14920048 0.24789967 -0.015967714 0.048740949 -0.4590596 0.16491383 0.23689556 -0.2497641 0.1046612 -0.28618714 -0.12880534 0.1424778 -0.034701221 0.16519666 -0.0156391 0.14418453 -0.48646235 0.13974211 0.096705921 0.17536151 -0.17974427 0.22043371 0.21542992 -0.20328844 0.013708754 0.20787843 0.10304428 -0.16369383 0.25375229 0.063643381 0.056531392 0.047421616 -0.19033799 0.2434566 0.022025401 0.091805547 -0.14751151 -0.19352779 -0.15888099 -0.11434108 -0.054576281 -0.069138646
汽车 0.1298769 -0.032188479 0.2005755 -0.23670202 0.12782091 0.28836808 -0.051787958 0.050016001 -0.15620556 0.25475916 -0.031183871 0.040092476 -0.47422048 0.16402832 0.19750291 -0.24369945 0.10513787 -0.28790399 -0.11017611 0.1161705 -0.022267865 0.17907302 -0.021509496 0.15115052 -0.49509788 0.13050334 0.08584971 0.17477465 -0.1956514 0.22092873 0.21405873 -0.18675357 0.015332246 0.22284022 0.088229164 -0.15881357 0.27667168 0.05507461 0.063200496 0.067635424 -0.18854381 0.236669 0.026362592 0.087238044 -0.1441012 -0.22228982 -0.16969749 -0.10914741 -0.049644511 -0.080920726
工程 0.1377849 -0.012964319 0.17484026 -0.21415819 0.12854716 0.28141594 -0.044354882 0.05829927 -0.15959331 0.25573972 -0.014932573 0.050633628 -0.46897423 0.15934862 0.20968445 -0.24641816 0.11073179 -0.27549136 -0.11286552 0.12552916 -0.035108965 0.15442532 -0.019062029 0.15714093 -0.5062536 0.15094681 0.093887806 0.17088661 -0.16596122 0.202655 0.23065525 -0.19620556 0.02149415 0.21280847 0.078530572 -0.15090548 0.25550973 0.044625007 0.069649734 0.065833859 -0.20201015 0.24597535 0.027552871 0.071555935 -0.15710993 -0.2160607 -0.19397698 -0.1206523 -0.055909138 -0.081672996
发展 0.13964015 -0.0069728629 0.1979991 -0.22684999 0.11198869 0.26873937 -0.052386682 0.063312449 -0.14880508 0.26688668 -0.040611427 0.033499748 -0.45148137 0.18880573 0.22201321 -0.2596032 0.1089039 -0.31193367 -0.11343816 0.14500315 -0.014117534 0.16864209 -0.037021983 0.1678026 -0.50027633 0.11818353 0.086102635 0.20247798 -0.18837276 0.21902728 0.21426715 -0.19801426 0.0011027041 0.20362535 0.079182498 -0.15461984 0.26656345 0.059818953 0.05535458 0.061959591 -0.21131302 0.23488618 0.03266963 0.087774135 -0.15985265 -0.21103482 -0.18719411 -0.13246302 -0.048956595 -0.09280666
环节 0.10522884 -0.041706037 0.1952648 -0.23488151 0.13570395 0.26664543 -0.043123815 0.053613629 -0.17007402 0.25431684 -0.012146987 0.034357265 -0.46331945 0.1865153 0.21515632 -0.24909618 0.13014185 -0.27471814 -0.126799 0.11599206 -0.047013275 0.15982883 -0.028025713 0.16545427 -0.50941747 0.14076456 0.10474452 0.16215444 -0.1617178 0.20253357 0.19469665 -0.20435931 0.016075196 0.20347717 0.089884348 -0.14335512 0.27710897 0.051059928 0.064394943 0.047338441 -0.19938318 0.2308116 0.028719891 0.070851021 -0.15215887 -0.20471081 -0.17691711 -0.10452083 -0.063189656 -0.069345534
煤炭 0.14581242 -0.00061045052 0.18665873 -0.22319248 0.12428064 0.28557989 -0.07122273 0.044644132 -0.13696833 0.2470414 -0.0068861153 0.026132114 -0.48405966 0.15280859 0.21351357 -0.26135939 0.096140154 -0.30404687 -0.13194428 0.15190096 -0.029224219 0.16264622 -0.018006807 0.14926665 -0.50137323 0.11433135 0.08902511 0.18509291 -0.167 0.21585011 0.2222943 -0.20375723 -0.0019399901 0.22209853 0.10484577 -0.17203952 0.26130334 0.048849076 0.066364259 0.066425391 -0.20842817 0.23441896 0.036206532 0.099196211 -0.15861833 -0.20282702 -0.18424094 -0.12430741 -0.032387488 -0.072428748
因素 0.13163832 -0.0082979202 0.1932628 -0.22945949 0.094961718 0.2919161 -0.076500863 0.046505552 -0.15319066 0.24671781 -0.011031065 0.049459565 -0.46243599 0.17392366 0.21924396 -0.24779128 0.10348866 -0.27706948 -0.10682765 0.14377549 -0.014379559 0.17823906 -0.022716535 0.13628928 -0.48429108 0.12998827 0.089586489 0.18414833 -0.17649609 0.22678314 0.21792163 -0.19610667 0.026107538 0.2165305 0.096952476 -0.16238953 0.26601705 0.039711207 0.056424536 0.043861266 -0.18319236 0.2445899 0.031214677 0.092251547 -0.12665252 -0.20343523 -0.17540017 -0.13429098 -0.051628042 -0.079377942
工业 0.14482027 -0.027061129 0.20390895 -0.23190646 0.10982693 0.27309182 -0.072766736 0.069821842 -0.12704256 0.24735925 -0.0092499312 0.045466807 -0.48174593 0.16959026 0.21301733 -0.26037595 0.10061517 -0.27586091 -0.11092356 0.13838707 -0.021629408 0.16889735 -0.02164416 0.13221793 -0.51116198 0.14887093 0.097589709 0.19399884 -0.1636163 0.23298879 0.20835112 -0.18183306 0.0092637213 0.22250445 0.097385027 -0.17658745 0.24931963 0.055221036 0.056952972 0.068402849 -0.19470428 0.24344969 0.022125525 0.069225051 -0.12922952 -0.20399749 -0.17897381 -0.10674307 -0.040186625 -0.063661732
PVC 0.13975093 -0.028885532 0.18647121 -0.23068668 0.11577705 0.27263382 -0.068911314 0.03429947 -0.15203424 0.24166541 -0.014329168 0.041603144 -0.47304568 0.14967556 0.23013707 -0.2275575 0.09051802 -0.26874343 -0.12382112 0.12292994 -0.044942535 0.18790345 -0.028917264 0.15161306 -0.48192447 0.12941769 0.095354378 0.19348882 -0.19559085 0.21563847 0.23203076 -0.18049528 0.021737937 0.22711232 0.11359917 -0.15232633 0.25267926 0.041126058 0.077319004 0.058055777 -0.18086888 0.24599381 0.028196022 0.088303976 -0.13023078 -0.19433802 -0.1692351 -0.11104874 -0.050256055 -0.063741222
优势 0.14158913 -0.037105441 0.19257957 -0.22894043 0.12020301 0.28058779 -0.052388515 0.044201598 -0.14709561 0.25372663 -0.027453268 0.032497086 -0.4554548 0.14897539 0.22246571 -0.26403695 0.10216965 -0.29201892 -0.11703539 0.11882824 -0.039209004 0.17972635 -0.026197428 0.14922754 -0.48139071 0.14060304 0.089061946 0.17223234 -0.17912224 0.22355837 0.22671503 -0.2016329 0.032973349 0.19717985 0.085566215 -0.15620258 0.25465137 0.045439336 0.057574734 0.034701899 -0.18433201 0.24465227 0.023768686 0.07588663 -0.14856644 -0.21610762 -0.16993591 -0.13922006 -0.051738024 -0.078715228
资金 0.12762032 -0.041291617 0.20530508 -0.23475216 0.11770115 0.27334467 -0.051538866 0.028393794 -0.16386135 0.22233765 -0.022904331 0.042070881 -0.4627803 0.16004871 0.19944848 -0.29286644 0.12682191 -0.29971632 -0.13014303 0.15044035 -0.041870773 0.18799335 0.0024808426 0.16362827 -0.51564759 0.13522248 0.096214928 0.18720382 -0.15666495 0.19844781 0.23365825 -0.17749222 0.018988373 0.20418751 0.097345188 -0.18149492 0.29837623 0.044813987 0.065431803 0.029913392 -0.19486152 0.25174975 0.050961025 0.10099641 -0.14748473 -0.21788141 -0.19006556 -0.13891144 -0.065699428 -0.091188326
特种 0.1323837 -0.029881991 0.19678316 -0.22126824 0.10733686 0.27113962 -0.091190204 0.026010459 -0.16126195 0.23298232 -0.0076007792 0.032536138 -0.47026125 0.14618582 0.21847364 -0.2288205 0.11185326 -0.28069693 -0.13077079 0.12553221 -0.029631317 0.15514401 -0.0088930391 0.15215278 -0.50286281 0.12123618 0.078734122 0.20701803 -0.18284769 0.21829163 0.21598136 -0.20549113 0.010444777 0.21491319 0.10923663 -0.17866145 0.25065663 0.055770032 0.072404824 0.041407585 -0.1873911 0.2520124 0.031249825 0.072346337 -0.12383286 -0.19665456 -0.15453254 -0.11325076 -0.073271446 -0.063817471
膜 0.11119253 -0.022329235 0.17660137 -0.21690725 0.13827078 0.28584808 -0.04069481 0.05584893 -0.13244669 0.232823 -0.0014993611 0.053972822 -0.45712113 0.16916049 0.20884533 -0.24845049 0.093723617 -0.27222368 -0.1146015 0.13420434 -0.034609921 0.18839556 -0.013416415 0.13349856 -0.4896881 0.13608612 0.081301168 0.17828262 -0.16459055 0.21866742 0.21514605 -0.18898819 0.0088549694 0.19795087 0.086174257 -0.15970446 0.27236381 0.049472354 0.057526845 0.045979153 -0.17697753 0.24109389 0.038384784 0.07022474 -0.15136044 -0.21075292 -0.17800377 -0.12313607 -0.053500954 -0.071339689
上涨 0.14292337 -0.036878012 0.18399695 -0.2455036 0.10046214 0.2736862 -0.080938756 0.039604384 -0.14301389 0.2332869 -0.020245837 0.036750171 -0.47313368 0.1460547 0.22004814 -0.250328 0.10787669 -0.29882547 -0.11677055 0.1279664 -0.017276365 0.17532943 0.00046132281 0.16216265 -0.49199912 0.14732194 0.088023312 0.19894268 -0.17820035 0.21916533 0.21987946 -0.1977087 0.016602647 0.22087727 0.087437034 -0.15533198 0.2615515 0.033274073 0.064748757 0.059831679 -0.2111645 0.24577491 0.030625893 0.075450957 -0.12035725 -0.19985127 -0.17096248 -0.13524613 -0.066618949 -0.065372713
运输 0.13452551 -0.033492792 0.21888404 -0.20107278 0.10369155 0.27474698 -0.083637528 0.040929142 -0.15204766 0.23859753 -0.011480289 0.027559791 -0.45848098 0.15428588 0.20072556 -0.25537863 0.12135715 -0.31905192 -0.10041996 0.13931946 -0.042962961 0.16377965 -0.016757227 0.1553715 -0.49689719 0.11984791 0.10221953 0.21020477 -0.18674603 0.2276447 0.19765775 -0.21127407 0.036465164 0.2111641 0.095513679 -0.15267275 0.25863832 0.045209412 0.039252758 0.046066564 -0.18919022 0.2431726 0.032825932 0.068236418 -0.12116604 -0.19491825 -0.17127135 -0.13074809 -0.049356483 -0.086149037
研发 0.14716926 -0.0048657535 0.21853895 -0.22028507 0.12344512 0.27344117 -0.072096914 0.041446172 -0.14617939 0.24180771 -0.0099904155 0.039506286 -0.45224088 0.17801948 0.23202012 -0.23898895 0.10994883 -0.29906443 -0.13312237 0.14507763 -0.029350335 0.17234437 -0.012999441 0.13450614 -0.50404292 0.12346639 0.078130968 0.20271692 -0.1729673 0.22275381 0.22073664 -0.20576313 0.032798707 0.22407161 0.082861461 -0.14903887 0.25501433 0.054225456 0.053587366 0.055831555 -0.18038535 0.25340962 0.028362077 0.082489967 -0.147357 -0.19809319 -0.17177097 -0.11088682 -0.039666899 -0.08998768
稀土 0.11634149 -0.034453962 0.199458 -0.23410422 0.12223889 0.2839556 -0.060647186 0.043049324 -0.15285601 0.25556678 -0.034447528 0.0059610675 -0.45352027 0.17871772 0.20726572 -0.26755705 0.12008699 -0.27412915 -0.10992979 0.13147482 -0.033551797 0.16092657 -0.036439225 0.15779164 -0.50656337 0.13136671 0.11200356 0.17654742 -0.18143359 0.22835338 0.1817376 -0.18465571 0.023008417 0.22000529 0.11176617 -0.17463088 0.2898671 0.037212506 0.036143146 0.037857059 -0.2278723 0.23051779 0.033219144 0.073519573 -0.16188928 -0.20013185 -0.16936816 -0.1200939 -0.055655994 -0.094558112
医院 0.13289157 -0.029141057 0.23159239 -0.22224391 0.093692623 0.29400405 -0.091206484 0.016573073 -0.16152716 0.21617159 0.016571911 0.035540983 -0.47498375 0.14916243 0.21444331 -0.25825086 0.10450644 -0.30432731 -0.11142945 0.11122018 -0.029966202 0.14009579 0.0091626756 0.15013351 -0.50765622 0.12658256 0.11457624 0.22443941 -0.20044105 0.2067412 0.24753647 -0.1949795 0.037083212 0.2364186 0.11677837 -0.1584042 0.2395827 0.048208378 0.079957396 0.048438177 -0.19306673 0.23703805 0.057669945 0.051573832 -0.096788123 -0.20368597 -0.14661656 -0.14070849 -0.084032901 -0.074530542
电子 0.13854288 -0.031540196 0.19605301 -0.23938532 0.1042515 0.29433367 -0.078932241 0.063244171 -0.12855405 0.23100655 -0.028161917 0.048169576 -0.46944526 0.18870272 0.1952602 -0.27330592 0.09463051 -0.28633127 -0.10749223 0.1547717 -0.023735693 0.17525575 -0.0023460805 0.14651689 -0.51353359 0.1643265 0.073616594 0.2104965 -0.17839922 0.24919426 0.2109389 -0.18579699 0.032446228 0.22096358 0.087099276 -0.16898696 0.28702331 0.054762118 0.070983037 0.063491359 -0.1811455 0.25156039 0.015098112 0.09142933 -0.15526566 -0.21614671 -0.1899609 -0.12629251 -0.051756568 -0.086143732
位于 0.14362581 -0.046396911 0.19527683 -0.2357153 0.12010606 0.26813322 -0.065388761 0.042038232 -0.15951189 0.22518773 -0.018618464 0.029070336 -0.45665127 0.15528394 0.20295 -0.24574672 0.091952689 -0.28558004 -0.12317035 0.12736131 -0.047427606 0.17351457 -0.022564571 0.13767689 -0.49971518 0.13526577 0.095508747 0.17899311 -0.19065204 0.20197815 0.20907471 -0.18869036 0.037671853 0.22368518 0.10207248 -0.14782698 0.24924389 0.044121679 0.055594772 0.039700817 -0.19317062 0.25220582 0.03437914 0.051473286 -0.12542398 -0.20107397 -0.17083552 -0.13090715 -0.068063661 -0.091099374
企业 0.13291585 -0.026213679 0.17926747 -0.22378051 0.11364224 0.28792205 -0.065040402 0.02615688 -0.15416841 0.25587454 -0.033267811 0.031770565 -0.45397177 0.15943296 0.20175278 -0.24255516 0.13248582 -0.29574108 -0.11705149 0.12257151 -0.039589722 0.15522763 -0.025378291 0.17648388 -0.50530869 0.11831723 0.113794 0.18295667 -0.18528497 0.20424809 0.21432571 -0.20878179 0.010130982 0.215762 0.094187029 -0.16942206 0.25976926 0.039258271 0.046347428 0.051718753 -0.19512501 0.22923556 0.038834065 0.067497678 -0.13874151 -0.19178635 -0.17363346 -0.10740561 -0.057198334 -0.080080114
环保 0.13974856 -0.022980357 0.20345476 -0.21651115 0.12580907 0.2613607 -0.053975981 0.056181293 -0.15403965 0.23477261 -0.023070863 0.045649555 -0.45121792 0.17951719 0.20158209 -0.24089824 0.11772814 -0.28419629 -0.11297489 0.12861948 -0.036100015 0.17863755 -0.020977445 0.14870201 -0.49188566 0.14057432 0.084459871 0.19588903 -0.17096213 0.2224074 0.19654092 -0.19446579 0.0050926297 0.2096535 0.10831714 -0.16779071 0.26537001 0.048287634 0.068575062 0.054882113 -0.20384251 0.23071694 0.023258608 0.07388743 -0.14929473 -0.20427482 -0.16678438 -0.10975805 -0.04860612 -0.068955757
肉食品 0.084102809 -0.059013497 0.17633639 -0.22806273 0.13357835 0.24406372 -0.0026110907 0.030857088 -0.16691501 0.23582383 -0.052412216 -0.010754474 -0.45475933 0.18015756 0.16245392 -0.24720792 0.14269869 -0.29582876 -0.071911596 0.11545724 -0.047504488 0.11976437 -0.034753464 0.21283709 -0.50383466 0.092549421 0.12418234 0.14839353 -0.16671708 0.18328801 0.1575072 -0.19582579 -0.0050063636 0.19261983 0.12687007 -0.18625584 0.27339941 0.017034132 -0.0086200247 0.043889537 -0.20908259 0.21643864 0.027930507 0.061232962 -0.16929163 -0.21124588 -0.14780384 -0.096123569 -0.071604759 -0.098539226
能力 0.12176685 -0.0092032179 0.20115852 -0.22695816 0.12136511 0.2844882 -0.070582263 0.056006346 -0.1513487 0.24921393 0.0020127997 0.048562378 -0.45817131 0.16157816 0.22584897 -0.24245767 0.085950226 -0.27089036 -0.10897923 0.13276489 -0.022880776 0.16489963 -0.025923707 0.14099897 -0.48516405 0.14488512 0.086728737 0.17936037 -0.16406007 0.22031258 0.20685108 -0.18363047 0.0067839576 0.20053262 0.10138857 -0.15386193 0.25533882 0.036884911 0.055153407 0.059354015 -0.20234282 0.24914141 0.042301118 0.078736566 -0.12961404 -0.20056124 -0.1767326 -0.12471587 -0.046948828 -0.065324657
甲醇 0.1380551 -0.0093101515 0.21490362 -0.21865359 0.10996464 0.28010345 -0.06997934 0.050279953 -0.14024946 0.26046318 -0.025234897 0.013267444 -0.45001623 0.17226245 0.20468169 -0.24442478 0.11727424 -0.30852354 -0.10274773 0.14491481 -0.030603161 0.15976787 -0.045956478 0.14722466 -0.49920636 0.11687179 0.095031373 0.20068097 -0.17597774 0.20821305 0.19955039 -0.22410998 0.019803945 0.21783897 0.091702066 -0.15153584 0.27439728 0.039523955 0.058745176 0.069806777 -0.20456545 0.24432175 0.034172013 0.062595546 -0.16591926 -0.20218293 -0.16276594 -0.10143532 -0.038238391 -0.083190396
电池 0.14559703 -0.037759367 0.19780049 -0.22408541 0.12519005 0.29004446 -0.07765907 0.036836512 -0.15516494 0.24676214 -0.031119937 0.063892134 -0.46916354 0.16546912 0.20202087 -0.24757309 0.10483412 -0.29409611 -0.12146103 0.12833823 -0.015717311 0.19395949 -0.018071702 0.15372376 -0.4923203 0.12018086 0.10159362 0.19381575 -0.19758105 0.21097095 0.2243859 -0.21021059 -0.00048482761 0.23719513 0.098249994 -0.1666529 0.25908515 0.03973652 0.067110628 0.078529179 -0.19878046 0.2470468 0.027472923 0.089357786 -0.13807455 -0.23771548 -0.18291666 -0.11632991 -0.042197023 -0.063757792
电子级 0.12850761 -0.024279408 0.19491261 -0.20625781 0.13521442 0.25216809 -0.052290197 0.062302142 -0.16896111 0.25623426 -0.027070712 0.04546164 -0.43684769 0.16952899 0.2443146 -0.24769621 0.092595443 -0.29753494 -0.14806673 0.12884934 -0.020179709 0.1984015 -0.025011756 0.15660416 -0.49266839 0.12730235 0.084273659 0.18478201 -0.16284478 0.22808243 0.18883905 -0.20679879 0.045981228 0.20105362 0.057488095 -0.12247938 0.2692351 0.049162213 0.056784652 0.053972438 -0.18753573 0.24345143 0.015119416 0.078332707 -0.16152443 -0.21603963 -0.20843694 -0.12141096 -0.038450599 -0.095955759
房地产 0.1368506 -0.002066487 0.19931257 -0.21729599 0.10511453 0.2763797 -0.070286527 0.047831211 -0.1523516 0.25720122 -0.026131751 0.037355952 -0.45418027 0.17205188 0.2362117 -0.23577195 0.10074653 -0.25994924 -0.11886287 0.15327159 -0.030951176 0.15118432 -0.0070369667 0.14788543 -0.4907783 0.15267558 0.10822251 0.16628021 -0.15890804 0.22205126 0.21786577 -0.17107633 0.015473281 0.1996956 0.098978013 -0.15946265 0.2538828 0.045026518 0.071285225 0.052969821 -0.20866413 0.24844834 0.017495954 0.069887698 -0.14349236 -0.18677789 -0.18015732 -0.11068518 -0.059656639 -0.068826139
速度 0.12732528 -0.052826729 0.17751753 -0.21610157 0.13992447 0.2713069 -0.045269698 0.04388224 -0.17524596 0.26152745 -0.049718101 -0.0053192861 -0.45610172 0.18460597 0.20392491 -0.28030711 0.14678235 -0.27450508 -0.12753923 0.12986438 -0.056185145 0.15078066 -0.041063312 0.19738883 -0.53454918 0.11883758 0.10744635 0.16769283 -0.17655313 0.2256975 0.19071567 -0.19288172 0.021185726 0.21188016 0.11442095 -0.19123846 0.31191576 0.04564831 0.040836371 0.043870859 -0.23339878 0.22767739 0.01908645 0.067793995 -0.16623965 -0.21967801 -0.1795819 -0.10782013 -0.060296871 -0.10110584
中 0.13474523 -0.012070229 0.19933623 -0.2411273 0.11831057 0.2796154 -0.057485022 0.049206506 -0.13706422 0.26012486 -0.028507879 0.048425831 -0.46255371 0.17479436 0.22922929 -0.25342518 0.1077072 -0.290575 -0.12469071 0.14547777 -0.026104169 0.18571648 -0.01253771 0.13376401 -0.49452138 0.14536691 0.098825566 0.16834493 -0.17016804 0.2284867 0.20727576 -0.19498052 0.031774849 0.20653731 0.085731454 -0.15933207 0.24060909 0.037192158 0.069192193 0.06048144 -0.17162462 0.22725739 0.045403354 0.088655829 -0.14567946 -0.19507962 -0.18732829 -0.1245849 -0.068181522 -0.083501145
长期 0.14323664 -0.010764023 0.17634888 -0.22450829 0.10861941 0.26100907 -0.061356194 0.065380819 -0.14989606 0.21971068 -0.00012683353 0.045509771 -0.45181105 0.16200422 0.22962821 -0.24042009 0.097764879 -0.28698152 -0.11355586 0.12566376 -0.02778393 0.17490092 -0.031095348 0.13063338 -0.47714472 0.13620043 0.070896968 0.18824163 -0.16425738 0.21245632 0.22778565 -0.20332405 0.038767442 0.21112671 0.078160405 -0.15763111 0.25525355 0.037278619 0.067904137 0.049935047 -0.19626176 0.22334647 0.022382086 0.074117117 -0.13012666 -0.20309541 -0.1678424 -0.13235255 -0.057339098 -0.075905368
上市 0.1392305 -0.044932608 0.19576338 -0.23066992 0.10665841 0.29889995 -0.075746775 0.038527772 -0.15481181 0.23038149 -0.0033188916 0.038455609 -0.46504724 0.16196054 0.20837449 -0.24799225 0.11572386 -0.27947089 -0.11001068 0.11635251 -0.039336808 0.15548302 -0.014300209 0.15190269 -0.50212443 0.12424715 0.089341827 0.18069896 -0.19423096 0.21550789 0.21616793 -0.19952014 0.021974677 0.2064939 0.092149198 -0.17838608 0.27714336 0.036919571 0.068619296 0.042621344 -0.19754626 0.23631629 0.055199549 0.062454075 -0.12618932 -0.20928049 -0.16257305 -0.12319703 -0.053690162 -0.065906823
下 0.13853744 -0.021374485 0.18536703 -0.24219899 0.11566825 0.28387737 -0.070354231 0.052636351 -0.1482652 0.2442203 -0.022992209 0.030716835 -0.46474335 0.16168876 0.20360425 -0.24878512 0.090723254 -0.28177777 -0.12741163 0.12882477 -0.033969358 0.18239358 -0.027621763 0.13410047 -0.49842942 0.13312165 0.082709499 0.17161885 -0.16479987 0.21466306 0.22617674 -0.19296084 0.021479225 0.20668441 0.087857336 -0.16026255 0.2639488 0.047321495 0.051481683 0.055122208 -0.18062988 0.251293 0.032461237 0.077358246 -0.13604641 -0.20028837 -0.17678551 -0.11969791 -0.053828344 -0.070141055
等 0.13828424 -0.010503348 0.18946756 -0.22629462 0.1095873 0.26058009 -0.050652616 0.057019398 -0.14627679 0.23304726 -0.022015121 0.037467811 -0.43180013 0.17360525 0.21748927 -0.25339773 0.090727001 -0.28362918 -0.13195026 0.14151683 -0.032814451 0.1660492 -0.030524679 0.13280961 -0.4690688 0.13353798 0.073756427 0.18591593 -0.17960405 0.21678135 0.2032941 -0.19325057 0.032504406 0.21377921 0.091974966 -0.14491665 0.26571345 0.0629832 0.047630463 0.063626513 -0.17579542 0.22676915 0.0055671041 0.088123992 -0.13791037 -0.21161889 -0.17043707 -0.12682568 -0.052692253 -0.076654173
议价 0.12924099 -0.010182512 0.18942328 -0.21367189 0.10837589 0.28833991 -0.058371726 0.050004099 -0.14966244 0.24854536 -0.0013802029 0.02884298 -0.47126457 0.17109551 0.21105576 -0.23736055 0.11022675 -0.29536647 -0.11863525 0.14260669 -0.020104464 0.17972086 -0.017629946 0.15014195 -0.50181967 0.13240665 0.099476881 0.17385389 -0.17882626 0.21540764 0.211527 -0.19904558 0.0050178412 0.20637898 0.10624056 -0.15235184 0.27424774 0.030390263 0.066487364 0.064311363 -0.19633253 0.25496578 0.021788435 0.080440149 -0.13884969 -0.20155919 -0.18115669 -0.13147505 -0.055180006 -0.061552729
使 0.12673715 -0.014025371 0.20755166 -0.23232192 0.095516272 0.26479173 -0.076288223 0.040185459 -0.14285184 0.24723928 -0.024575545 0.039945386 -0.45886889 0.15141878 0.22706011 -0.24067044 0.11329553 -0.29352638 -0.1330301 0.13862896 -0.036702543 0.17337921 -0.012819987 0.1411027 -0.49569869 0.12797885 0.09325619 0.17980208 -0.16126685 0.20401248 0.21172136 -0.19144705 0.010888064 0.21477918 0.095971189 -0.14175369 0.25202969 0.051888097 0.065728523 0.06127828 -0.19095989 0.24491847 0.042904489 0.0792 -0.15338995 -0.19411238 -0.155283 -0.11225371 -0.041672856 -0.074435912
融资 0.11615502 -0.00079565251 0.20722923 -0.24230061 0.12847933 0.28847286 -0.05338411 0.054252625 -0.16515934 0.26303989 -0.02179308 0.0460217 -0.44228908 0.15750204 0.23133253 -0.2384118 0.10188166 -0.30039373 -0.11655043 0.1356777 -0.022054629 0.18043929 -0.018328803 0.13706529 -0.49761409 0.12792364 0.10525817 0.18486419 -0.16061203 0.20809698 0.20930994 -0.18351664 0.0025323713 0.20413786 0.09283784 -0.14603189 0.2452801 0.052572373 0.048005968 0.03719249 -0.17315924 0.23143895 0.02093095 0.074001238 -0.13929266 -0.18335301 -0.174485 -0.13373372 -0.045527164 -0.092365563
智能 0.12511814 -0.002590704 0.19265576 -0.24369903 0.12040467 0.28715008 -0.077550016 0.055291038 -0.12541896 0.24161458 -0.034469452 0.066822775 -0.46464646 0.18036656 0.19167371 -0.26718906 0.10103279 -0.27604795 -0.11701673 0.13826549 -0.020468444 0.16537718 -0.015487423 0.1483549 -0.47054985 0.14038141 0.079833232 0.19657701 -0.15666236 0.22641714 0.23384584 -0.19289675 0.0015251151 0.21971752 0.066068016 -0.1567542 0.26993716 0.054173786 0.056931213 0.073387325 -0.19180748 0.24116614 0.040551011 0.075964533 -0.14297275 -0.22540456 -0.16366741 -0.13826102 -0.06265156 -0.056423265
现金 0.14042282 -0.047364235 0.20579752 -0.23948096 0.11316662 0.2851465 -0.036417771 0.05276458 -0.17484803 0.24545743 -0.034588497 0.046010263 -0.47852245 0.14283001 0.20498769 -0.25603521 0.11722542 -0.30869395 -0.12239232 0.14801151 -0.035621624 0.1976282 -0.030082183 0.1900741 -0.51870811 0.10982691 0.074381419 0.1891215 -0.16449414 0.22412315 0.21902573 -0.20802067 0.024574852 0.24024941 0.10091881 -0.18165161 0.30535582 0.057658125 0.04433807 0.018118171 -0.21974882 0.2549381 0.042623039 0.073524155 -0.14896631 -0.21078421 -0.17745069 -0.11774373 -0.060695641 -0.073323794
情况 0.15525308 -0.021261137 0.21071538 -0.23348676 0.10584433 0.28507796 -0.048935242 0.036329277 -0.13733418 0.25482199 -0.029064987 0.036971837 -0.46311256 0.1505731 0.22168297 -0.25435764 0.10344125 -0.28207442 -0.12003173 0.14176787 -0.036898017 0.17602926 -0.026062541 0.14357443 -0.47344813 0.12836184 0.082825586 0.18072081 -0.1798045 0.21348539 0.22128406 -0.20595467 0.029053083 0.2066821 0.081793077 -0.16410819 0.25076699 0.067142785 0.049170744 0.06845513 -0.18596835 0.25722647 0.024417218 0.06943769 -0.14934114 -0.2208105 -0.1743008 -0.13271408 -0.044116084 -0.089243338
分析 0.12928934 -0.025672754 0.18414794 -0.2421802 0.1149037 0.29867801 -0.072879322 0.049105369 -0.13752131 0.25151294 -0.019563841 0.036274318 -0.46978334 0.16908491 0.22401886 -0.25738052 0.10795601 -0.2678557 -0.13079837 0.12601496 -0.047743175 0.15875062 0.00046893765 0.13065518 -0.4739821 0.15168801 0.10240186 0.19154713 -0.18043122 0.21086617 0.21598315 -0.19737846 0.034647826 0.20552243 0.081193477 -0.15722418 0.25800675 0.055774648 0.079068564 0.059073411 -0.19260517 0.2182918 0.036168925 0.063318811 -0.12924054 -0.21182309 -0.1619008 -0.14204858 -0.063331775 -0.081933066
个 0.11745374 -0.016015047 0.19555941 -0.22477996 0.12526262 0.28556615 -0.056931872 0.044180349 -0.15458208 0.2369615 -0.0024141718 0.037731949 -0.44692641 0.16089933 0.22019017 -0.24328421 0.12322439 -0.29457271 -0.13359672 0.14149953 -0.04536929 0.15690666 -0.026313415 0.16327849 -0.50099647 0.14764705 0.079771802 0.15980518 -0.16514993 0.21811979 0.2060149 -0.19874397 0.030069677 0.21797119 0.08668264 -0.14684425 0.28649008 0.05672149 0.065803662 0.041300852 -0.21227176 0.23087029 0.034633361 0.085075431 -0.1616983 -0.20547393 -0.17424999 -0.11530735 -0.059362415 -0.072687618
批发 0.13914704 -0.039862536 0.20264792 -0.23335545 0.098169573 0.29266375 -0.079543464 0.039179079 -0.15189891 0.24160121 -0.0039617941 0.035578065 -0.47497118 0.16666916 0.21615982 -0.24826874 0.088479199 -0.30634105 -0.11729977 0.12382936 -0.017543191 0.15437423 -0.0066641071 0.16994682 -0.48231393 0.13626423 0.094495147 0.19734263 -0.19315168 0.22473247 0.20764139 -0.2021496 0.015930839 0.22819966 0.1071275 -0.17210089 0.2376986 0.051058576 0.071585543 0.046086591 -0.19036119 0.23730481 0.046963848 0.05181079 -0.11066124 -0.20959407 -0.13894561 -0.13048449 -0.061093237 -0.093454823
气源 0.14082962 -0.017157409 0.20259473 -0.22709876 0.099183418 0.26106972 -0.064463124 0.062623337 -0.14103903 0.25929028 -0.028036389 0.02588228 -0.46554118 0.16043827 0.21840402 -0.2340509 0.12057431 -0.31649676 -0.099351294 0.12418731 -0.034868877 0.16308266 -0.029075246 0.14547975 -0.50208098 0.12144402 0.10827249 0.20021243 -0.16293947 0.21911938 0.198024 -0.21085271 0.035761427 0.2038307 0.084273227 -0.15936448 0.27689061 0.061096862 0.054144721 0.051861119 -0.19779253 0.23370279 0.029854961 0.075319998 -0.1526861 -0.20117925 -0.16454345 -0.11872905 -0.045763001 -0.072927974
皖维 0.1321681 -0.017528454 0.20413685 -0.22156833 0.11869973 0.28311968 -0.057813425 0.043140978 -0.14739043 0.24467693 -0.02238966 0.036729194 -0.44789878 0.17300224 0.20983188 -0.23700711 0.095404081 -0.26495987 -0.11670586 0.1285481 -0.030865319 0.17400408 -0.017376097 0.13829723 -0.49171546 0.12093191 0.0833501 0.18509838 -0.17806014 0.21805857 0.20234595 -0.18358201 0.023554619 0.21105953 0.092879288 -0.15140446 0.26355025 0.05844697 0.048757896 0.046889968 -0.17486945 0.24519499 0.045952283 0.074116021 -0.12781791 -0.20515725 -0.17518094 -0.10808119 -0.062086906 -0.066136055
带动 0.14255308 -0.035519965 0.20607276 -0.21787462 0.097100168 0.2647796 -0.050258886 0.046016701 -0.15816027 0.24299741 -0.013245659 0.051164743 -0.46432534 0.17810135 0.19867395 -0.25597686 0.09405002 -0.30447116 -0.11739899 0.13401459 -0.035739962 0.16734648 -0.028489169 0.14306393 -0.50055188 0.12965 0.086065009 0.1901274 -0.18341246 0.19364405 0.22438407 -0.20617577 0.019958073 0.20979437 0.10176225 -0.17154534 0.26571003 0.040470012 0.058141693 0.048204951 -0.20330854 0.23691528 0.044674151 0.073957592 -0.13637504 -0.20068525 -0.17508692 -0.12687103 -0.062095791 -0.076814666
因 0.11997163 -0.0106696 0.18870021 -0.22364388 0.11309078 0.26439023 -0.071132116 0.061559625 -0.15482357 0.2461997 -0.0017694086 0.03020346 -0.44963908 0.17536001 0.21913411 -0.25675678 0.089504622 -0.28941181 -0.13354351 0.14277121 -0.021864098 0.18878554 -0.019294884 0.15691802 -0.48983034 0.12292076 0.10373013 0.1711446 -0.1713855 0.21163803 0.19917299 -0.1979447 0.015295737 0.21577372 0.099639505 -0.15239911 0.2624217 0.042331591 0.076103427 0.0618403 -0.19444464 0.2438256 0.019886665 0.070721924 -0.12902793 -0.21260072 -0.1554611 -0.10852686 -0.0619011 -0.064964347
黄磷 0.12516892 0.00080356217 0.18267491 -0.22373068 0.12103739 0.27427423 -0.072012484 0.071093522 -0.16967069 0.26288936 -0.0042496324 0.035870139 -0.4197892 0.16175428 0.24638614 -0.23968816 0.089737572 -0.27092254 -0.14164761 0.11928675 -0.038898073 0.17870416 -0.0092339888 0.14751203 -0.47685525 0.14885986 0.095026806 0.17938897 -0.16863693 0.22012565 0.20951441 -0.18941805 0.031790208 0.19550048 0.072960921 -0.14579567 0.23147924 0.052304931 0.071818389 0.049115837 -0.16314054 0.22767714 0.01517825 0.08322598 -0.14098422 -0.17749038 -0.18766072 -0.14620881 -0.064391211 -0.078153282
机构 0.14942402 -0.020595884 0.23560824 -0.24089503 0.10554188 0.28400004 -0.10419257 0.039565407 -0.14909996 0.23676638 0.013432818 0.024976099 -0.47270036 0.14011399 0.22673404 -0.25229356 0.090512551 -0.29359925 -0.11223022 0.1172629 -0.02557143 0.16178273 -0.018946635 0.14539433 -0.48740783 0.12830722 0.08021275 0.21625617 -0.18104246 0.23211671 0.24280725 -0.20765817 0.024029018 0.23950557 0.11886563 -0.17590672 0.25055355 0.060932804 0.073070213 0.052159525 -0.18789925 0.24502292 0.052884981 0.04715617 -0.10676076 -0.1907488 -0.15099142 -0.11793008 -0.086741813 -0.092504457
其他 0.14281024 -0.0096886177 0.20770757 -0.23515561 0.11055633 0.27320123 -0.075032584 0.04890658 -0.15688924 0.23933899 -0.0034222973 0.015341092 -0.46771771 0.16513859 0.22200301 -0.2339457 0.11954238 -0.29520023 -0.10764418 0.1486515 -0.028455099 0.16772661 -0.028321071 0.14468046 -0.50810832 0.12268198 0.09195558 0.19573857 -0.19063936 0.22446938 0.2077864 -0.19088949 0.032156199 0.23091497 0.086117774 -0.16838671 0.2534959 0.042824056 0.058218539 0.05284477 -0.1981546 0.23615266 0.038058873 0.083090462 -0.13006067 -0.19763106 -0.16667379 -0.12728958 -0.053009462 -0.085911825
精细化 0.12494595 -0.020888556 0.2040135 -0.22049582 0.1228387 0.28418598 -0.031227261 0.029990375 -0.15918939 0.23430647 -0.035321273 0.0025704403 -0.45497039 0.18432869 0.21233968 -0.25877595 0.13721868 -0.28387782 -0.11477475 0.11797574 -0.036052432 0.17158087 -0.036425453 0.1561918 -0.52090132 0.14192039 0.090781666 0.15927684 -0.1574782 0.21702132 0.1964684 -0.20987868 0.018594405 0.21111415 0.11240137 -0.16330068 0.28626841 0.042473547 0.04081104 0.037045624 -0.21994087 0.21667337 0.02004868 0.071149483 -0.16047834 -0.20456339 -0.17131887 -0.12005813 -0.061774999 -0.067282207
平台 0.13862155 -0.030231835 0.18606153 -0.24162199 0.12005383 0.27542922 -0.057923522 0.035120569 -0.14827019 0.23582621 -0.0038024846 0.029505506 -0.44986135 0.15804285 0.21448392 -0.24030706 0.11862442 -0.28971869 -0.11756185 0.12284082 -0.029307997 0.17356357 -0.027760653 0.13646321 -0.50228858 0.14015247 0.089738965 0.18024322 -0.18088681 0.20087422 0.22136448 -0.2077329 0.023837853 0.19897845 0.097077228 -0.16638957 0.28199446 0.038153693 0.047894198 0.062369704 -0.21008292 0.22755627 0.039995421 0.069592468 -0.15439077 -0.20962614 -0.17061937 -0.11130641 -0.061466139 -0.071608834
乙烯 0.12764139 -0.021441877 0.19750963 -0.22400692 0.11976291 0.28014553 -0.038661353 0.058353476 -0.15641998 0.22644027 -0.025357971 0.038067162 -0.45812213 0.177728 0.22372483 -0.24359781 0.09325324 -0.30874756 -0.12047594 0.1253818 -0.021907009 0.17149864 -0.017739778 0.15291144 -0.48966911 0.14334945 0.078761861 0.183979 -0.18458022 0.2106422 0.22310124 -0.19525644 0.022784231 0.20486505 0.096512064 -0.14755836 0.26919138 0.059294283 0.072072797 0.055092786 -0.19844678 0.2398704 0.016814636 0.068013564 -0.13582757 -0.20469198 -0.16246487 -0.13462299 -0.044547707 -0.077348016
批发商 0.12790662 -0.013068233 0.21789451 -0.2487745 0.10676671 0.2770603 -0.066724151 0.045760404 -0.15713894 0.22433543 -0.00010392052 0.025149878 -0.48730525 0.16850328 0.22581545 -0.26372021 0.085303143 -0.29656366 -0.1286165 0.12649065 -0.02799746 0.14328106 -0.028297829 0.13713902 -0.51071078 0.12210627 0.092163883 0.19943069 -0.18553874 0.21175437 0.22041848 -0.20107816 0.027021304 0.22040294 0.11046412 -0.17738721 0.25716162 0.039578892 0.079747885 0.056324009 -0.18918443 0.2367952 0.036465701 0.058838509 -0.12052424 -0.21335185 -0.15400924 -0.12159653 -0.086470261 -0.068479322
如果 0.1456178 -0.02598609 0.1905878 -0.22966993 0.10962855 0.27213582 -0.067743562 0.046495833 -0.14017536 0.24902953 -0.022657484 0.035379514 -0.46089607 0.17855692 0.21157542 -0.26371923 0.093383111 -0.29879659 -0.12531054 0.12592518 -0.032301471 0.18029113 -0.019053916 0.13816768 -0.49716029 0.13845114 0.10283656 0.19378011 -0.18744016 0.22300142 0.20536479 -0.19412516 0.03622812 0.22746447 0.10036805 -0.17016341 0.26010421 0.050144494 0.06122715 0.058300663 -0.19899936 0.26316836 0.023454463 0.087279126 -0.12512514 -0.20534848 -0.16236423 -0.10727176 -0.043485094 -0.072981253
药店 0.13335235 -0.016534824 0.20441426 -0.25009152 0.11612163 0.28116447 -0.058216281 0.042389978 -0.15717082 0.2436927 -0.0019984215 0.03289805 -0.47477356 0.16716197 0.21578804 -0.23602711 0.10750369 -0.28609934 -0.12650669 0.12703264 -0.038566448 0.14902216 -0.028402062 0.15219802 -0.49922121 0.13308619 0.088079892 0.20108986 -0.18016744 0.20895857 0.21400709 -0.20396203 0.01454286 0.22599217 0.10423092 -0.16449927 0.2489538 0.040566176 0.058613855 0.060200084 -0.19049427 0.25280392 0.049704406 0.070146464 -0.13147716 -0.20830463 -0.15951797 -0.11476734 -0.086986884 -0.074258521
成本 0.12952851 -0.029584188 0.17818363 -0.23242725 0.1241081 0.27473494 -0.047821987 0.03860873 -0.13264804 0.23156454 -0.0070132716 0.041840766 -0.44573271 0.14584458 0.22953174 -0.24922927 0.11467683 -0.29102364 -0.11600269 0.13622245 -0.037685473 0.16254628 -0.023570148 0.13399693 -0.4973478 0.1500002 0.087499686 0.18495466 -0.1620864 0.20877416 0.21315809 -0.19825856 0.031417824 0.19697405 0.083583392 -0.1573014 0.28056154 0.027282942 0.066931248 0.045564428 -0.18480423 0.2518681 0.027956372 0.083554536 -0.14264543 -0.21024087 -0.17687185 -0.11020678 -0.042498965 -0.068057835
物流 0.13183556 -0.0089983977 0.17783001 -0.22567384 0.12214763 0.26694521 -0.068894625 0.06546329 -0.13940592 0.2312298 -0.0092010619 0.047023933 -0.46696857 0.16600324 0.22658417 -0.2551645 0.093053497 -0.27468365 -0.12554775 0.12932262 -0.027826827 0.16468893 -0.022261275 0.14885211 -0.4853746 0.13547005 0.090526477 0.16908242 -0.1681865 0.21559359 0.20852928 -0.20163909 0.019290974 0.21068697 0.077462204 -0.17033979 0.26990587 0.056239475 0.075890191 0.048686426 -0.2009972 0.24551231 0.018591957 0.074668318 -0.14866762 -0.19794521 -0.16460228 -0.12487908 -0.047379136 -0.061451506
分离 0.12899891 -0.028665187 0.18947907 -0.23732886 0.10715257 0.28095183 -0.041088399 0.053874463 -0.17095593 0.23354656 -0.018495155 0.011720524 -0.44830886 0.18824008 0.21116637 -0.24480599 0.10638996 -0.29123682 -0.12575036 0.13755633 -0.029718725 0.15486339 -0.027224755 0.15480089 -0.49494806 0.14207323 0.099282034 0.18184915 -0.15963702 0.21936703 0.19411445 -0.20601608 0.03435801 0.22116135 0.09242744 -0.16021198 0.26357299 0.051146921 0.062686592 0.045716096 -0.2054131 0.22986341 0.036216747 0.07986594 -0.16028209 -0.19402815 -0.17050019 -0.11310021 -0.066033639 -0.071712375
体系 0.14388694 -0.01754426 0.19613534 -0.21708995 0.1057702 0.29405317 -0.069666423 0.04371085 -0.14826146 0.2573052 -0.015365609 0.062186826 -0.47927615 0.16781317 0.20410842 -0.2518788 0.094287544 -0.28245512 -0.11171997 0.13396181 -0.031011971 0.18942907 -0.029812662 0.15673405 -0.50849849 0.11959238 0.08010672 0.17435224 -0.17147604 0.21489269 0.22496463 -0.20907535 0.0019639828 0.20669234 0.095344588 -0.16364197 0.27159706 0.032582775 0.067380637 0.050450526 -0.20900555 0.26026759 0.047924913 0.082320355 -0.13135293 -0.21610661 -0.17997168 -0.13408419 -0.047331404 -0.069229901
建筑 0.1269342 -0.022797095 0.18388008 -0.22315559 0.12451349 0.28616235 -0.062961169 0.056010094 -0.15759446 0.23747435 -0.030934623 0.031481825 -0.47017622 0.15896559 0.20958266 -0.246489 0.11563721 -0.29047549 -0.12088096 0.12307891 -0.044897478 0.17709033 -0.030605257 0.16284034 -0.49592814 0.12618075 0.096964546 0.18282619 -0.16799074 0.22111173 0.2104104 -0.19818434 0.025855782 0.21874332 0.090022147 -0.16869704 0.25764096 0.053508922 0.051546644 0.047223069 -0.19292352 0.23877732 0.03984908 0.086040117 -0.14981882 -0.19838481 -0.18076617 -0.12310062 -0.063262366 -0.068153679
锂 0.16224888 -0.044400509 0.20242286 -0.22463174 0.11596039 0.29765865 -0.059733648 0.037418976 -0.13812508 0.24087794 -0.025942346 0.051332343 -0.48010015 0.17606647 0.21870038 -0.25280696 0.09080404 -0.3059476 -0.12097639 0.14973797 -0.028831461 0.19255684 -0.014311121 0.14345537 -0.50006849 0.12515394 0.10520995 0.18680693 -0.20984292 0.22523597 0.2134282 -0.20373589 -0.0013219352 0.23218223 0.086337909 -0.163422 0.26634169 0.064911254 0.06898424 0.065526076 -0.2159427 0.25728935 0.044961285 0.0723629 -0.13830808 -0.2368203 -0.1906946 -0.12001383 -0.039528754 -0.067951724
调整 0.15789238 -0.011583001 0.20940927 -0.22995874 0.11663589 0.28288513 -0.075836815 0.0601319 -0.13798288 0.24834816 -0.010809279 0.057548795 -0.46851784 0.17782202 0.21179785 -0.25032553 0.094728038 -0.28237695 -0.11861993 0.14541674 -0.036513004 0.16944183 -0.022386251 0.14567873 -0.50061214 0.12969302 0.082266897 0.18898788 -0.18348131 0.21234941 0.20497742 -0.19540575 0.014816904 0.21402732 0.086247995 -0.17212196 0.27054399 0.063159563 0.060848963 0.0634472 -0.19688036 0.25239417 0.024521561 0.089680314 -0.15549091 -0.21771505 -0.1685333 -0.13223529 -0.032907832 -0.076538235
国外 0.12504855 -0.040202517 0.2113677 -0.22902741 0.10288347 0.28907675 -0.051202465 0.032484856 -0.13723704 0.24010645 -0.023552261 0.034655165 -0.46783918 0.17640911 0.21636935 -0.261655 0.11834861 -0.29190943 -0.1138889 0.11860503 -0.047570329 0.17224944 -0.016515534 0.1652226 -0.48300242 0.12388726 0.089141697 0.17904492 -0.18213135 0.20547982 0.22447202 -0.20783667 0.013092173 0.1983941 0.10535825 -0.15240327 0.28439182 0.03847307 0.050032511 0.052479494 -0.19485572 0.24410366 0.046329137 0.085414156 -0.14226699 -0.19727516 -0.17722538 -0.12934387 -0.044873901 -0.05764984
降低 0.12566382 -0.031860203 0.19926825 -0.21754809 0.11511094 0.29200783 -0.064653628 0.052676219 -0.15538268 0.241126 -0.0066982694 0.035634626 -0.45763448 0.14654364 0.23111723 -0.23716556 0.11298444 -0.2934573 -0.10923018 0.12297422 -0.025323465 0.1736189 -0.032786503 0.1564156 -0.47790176 0.13931264 0.08076556 0.17550187 -0.17512101 0.20201673 0.22249833 -0.20406708 0.027355639 0.19646136 0.084595412 -0.15099539 0.27856368 0.038320769 0.070971698 0.032789677 -0.1910017 0.2409922 0.020996977 0.074250869 -0.13230644 -0.19743714 -0.15954231 -0.11671624 -0.046100967 -0.063068137
集团 0.12116586 -0.019465048 0.21488546 -0.24152024 0.1161401 0.29088575 -0.091287903 0.056718901 -0.1347505 0.25548065 -0.0095657241 0.032922648 -0.46132717 0.16699891 0.22213244 -0.25399804 0.11934208 -0.29877278 -0.12119802 0.13670757 -0.043563273 0.1761709 -0.018360425 0.14228146 -0.46966848 0.13184467 0.104146 0.18109307 -0.19337437 0.22585027 0.1997133 -0.19621643 0.0037236132 0.18971284 0.090153635 -0.18164332 0.25346562 0.054262381 0.058854382 0.063170768 -0.19582237 0.22821006 0.046912394 0.067110375 -0.14412919 -0.18218476 -0.17491393 -0.12888071 -0.06157282 -0.074531294
树脂 0.13022248 -0.03425575 0.18047149 -0.21338099 0.1277155 0.28574109 -0.032457635 0.049673364 -0.14434548 0.2436972 -0.0228261 0.040967882 -0.44127175 0.16817935 0.21609856 -0.23197386 0.10885829 -0.29668158 -0.13331835 0.12257823 -0.050201543 0.18249708 -0.030446855 0.14641362 -0.50536186 0.14419034 0.085415542 0.16100344 -0.16532099 0.22238432 0.21332231 -0.19997142 0.029526239 0.21126576 0.075089701 -0.13263135 0.2750203 0.037347112 0.06238009 0.053578828 -0.1971273 0.25407949 0.019264745 0.069369055 -0.15316355 -0.2180021 -0.1965979 -0.11221904 -0.068536632 -0.072720565
民爆 0.12143769 -0.018316815 0.20371658 -0.22693133 0.10670487 0.27552512 -0.070294149 0.071600743 -0.1369184 0.24983793 -0.028795933 0.032291166 -0.48276854 0.16496198 0.22656985 -0.2550526 0.10332296 -0.27672946 -0.12238243 0.11624271 -0.022599546 0.17025693 -0.033238668 0.13614623 -0.51328844 0.12573133 0.096480608 0.16613784 -0.18201837 0.22155669 0.21061315 -0.21005096 0.026238533 0.2119043 0.11673367 -0.16678463 0.24635418 0.054961331 0.064606838 0.063963629 -0.20978342 0.23946066 0.034683552 0.064632438 -0.13530305 -0.19699101 -0.1603009 -0.094369061 -0.048690978 -0.083609782
结合 0.13582921 -0.038334265 0.21002476 -0.23173437 0.12147563 0.30102271 -0.053446025 0.049881712 -0.15808049 0.24334754 -0.032073043 0.047740061 -0.47596872 0.16193506 0.20754136 -0.26634923 0.11612625 -0.30969071 -0.11599351 0.14223415 -0.030730153 0.20537215 -0.022444461 0.17629893 -0.52448946 0.12396219 0.076696143 0.17974186 -0.1722064 0.20852426 0.22815374 -0.19609641 0.025768125 0.23875859 0.092668042 -0.16145991 0.28164425 0.060471971 0.062206637 0.028086606 -0.19489793 0.24804999 0.04437454 0.086102664 -0.14087297 -0.22697373 -0.19374464 -0.13746518 -0.042235289 -0.088533089
构成 0.13680872 -0.0056864372 0.19718514 -0.25335634 0.11451294 0.29860476 -0.082051709 0.035230093 -0.14204055 0.25421637 -0.010954589 0.021258473 -0.46701026 0.15830246 0.2275846 -0.26874804 0.1161974 -0.2860826 -0.12764566 0.14442281 -0.024503516 0.17276335 -0.026277743 0.13732444 -0.49036118 0.12659939 0.11084229 0.19977985 -0.18734376 0.21732365 0.23629588 -0.19332725 0.0091990409 0.20498662 0.10368979 -0.17399247 0.25681219 0.054833874 0.067574531 0.057989106 -0.18871735 0.23571469 0.045216452 0.068305582 -0.1579029 -0.18824166 -0.18312488 -0.12421612 -0.066775516 -0.070356138
水平 0.12200639 -0.010208957 0.20396298 -0.217237 0.1080581 0.2966992 -0.05915089 0.050314583 -0.15894911 0.24632709 -0.014498814 0.049049318 -0.47999835 0.14431548 0.20396119 -0.23386918 0.12914908 -0.27483213 -0.12904224 0.14453912 -0.037591025 0.17085283 -0.028850846 0.17279792 -0.50967395 0.11974327 0.093601502 0.19637565 -0.18721354 0.20492274 0.21958491 -0.19620284 0.01609391 0.22619084 0.10861875 -0.16249041 0.26003972 0.058327802 0.064935721 0.030072659 -0.21305485 0.23380081 0.049044561 0.087128632 -0.15005167 -0.19600995 -0.17201035 -0.11372834 -0.081513308 -0.066006206
矿山 0.14204882 -0.016391743 0.17531995 -0.24114177 0.11818799 0.2828199 -0.061789855 0.054570794 -0.14676665 0.24050277 -0.015380366 0.044556282 -0.47762215 0.16712877 0.20547451 -0.24948998 0.11200409 -0.28101316 -0.10834683 0.13403609 -0.021389948 0.15710072 -0.020441063 0.15611073 -0.48600021 0.12396121 0.1033072 0.18522285 -0.17036596 0.20618656 0.20195961 -0.20561798 0.0022647637 0.20342147 0.105478 -0.17118619 0.2824139 0.046695616 0.047942527 0.060446069 -0.22291705 0.24795958 0.021586258 0.090068072 -0.14611313 -0.1968812 -0.17642605 -0.12577507 -0.040753637 -0.0627148
运营 0.12589796 -0.019124104 0.1826127 -0.21519344 0.11687355 0.29471889 -0.054237623 0.048382707 -0.13995987 0.25149101 -0.017266287 0.043734256 -0.46222296 0.14858131 0.20781319 -0.23255554 0.098002829 -0.28723967 -0.11389352 0.14929684 -0.046543449 0.15959582 -0.011972765 0.13229491 -0.48970908 0.12652208 0.1000716 0.17430283 -0.17997596 0.21676309 0.21962404 -0.19427453 0.01514858 0.19433363 0.095024318 -0.147285 0.26690447 0.036710143 0.060223926 0.051131446 -0.18630438 0.23450917 0.0480887 0.060088772 -0.1233876 -0.21006694 -0.1657657 -0.1380105 -0.069865175 -0.083302684
占 0.14200415 -0.013825722 0.18997173 -0.21944182 0.099382818 0.28680831 -0.072228231 0.036049619 -0.14155366 0.25016114 -0.0021228273 0.029691812 -0.45721957 0.14974301 0.20584755 -0.25119799 0.096331276 -0.28029177 -0.11331391 0.12951252 -0.034439158 0.16474998 -0.031368658 0.1532688 -0.49861073 0.12475587 0.11121321 0.18323836 -0.18260261 0.22583662 0.20719658 -0.19393915 0.020851059 0.20748115 0.090047255 -0.1715298 0.27312598 0.058100961 0.052148797 0.065127775 -0.19633542 0.24994476 0.048281603 0.072621062 -0.13559 -0.19826214 -0.17925952 -0.10913729 -0.062182914 -0.074854858
综合 0.13561589 -0.032676395 0.19535226 -0.23624587 0.12357711 0.27572802 -0.060778454 0.0493601 -0.1598575 0.24671541 -0.005402247 0.030752638 -0.47346717 0.1600489 0.22426361 -0.26044005 0.10365105 -0.29844624 -0.1212218 0.14779328 -0.043197364 0.18383123 -0.029922672 0.14997269 -0.5099116 0.13288794 0.095311925 0.19164433 -0.18588963 0.21023671 0.20814161 -0.20450962 0.029442744 0.20192231 0.10888265 -0.16783518 0.26746696 0.056207776 0.065918967 0.043845557 -0.19793974 0.24544543 0.035365269 0.070917197 -0.13438042 -0.19063209 -0.18945308 -0.11241012 -0.057527438 -0.069549441
纤维 0.11563034 -0.01614817 0.18730202 -0.21685258 0.12631048 0.28460819 -0.072657302 0.056675088 -0.14533493 0.25142565 -0.0059130271 0.042443313 -0.44683754 0.16285688 0.21368888 -0.24246839 0.11719 -0.29870388 -0.1110147 0.13773271 -0.04071394 0.19012253 -0.037168529 0.14695443 -0.4968529 0.13930671 0.08131966 0.18793562 -0.18364395 0.22456378 0.19708604 -0.21030459 0.023115948 0.19960737 0.097302809 -0.15545879 0.26225138 0.033507846 0.055465616 0.049683426 -0.19316754 0.25216246 0.017888723 0.085552163 -0.148214 -0.20581111 -0.17981708 -0.12690862 -0.05585641 -0.087803252
磷酸盐 0.14954527 -0.0071367272 0.21673557 -0.21394217 0.13952486 0.27014402 -0.060782891 0.062676676 -0.15884666 0.25255525 -0.032035768 0.048138455 -0.44662195 0.17582984 0.23930083 -0.25472388 0.083400056 -0.28846082 -0.15529998 0.13982223 -0.014593739 0.20656139 -0.022795921 0.15491796 -0.49173322 0.13972613 0.092417769 0.16991524 -0.1864056 0.22162257 0.19740374 -0.21262743 0.040293679 0.19173941 0.078005642 -0.12703684 0.25277549 0.059425101 0.063067816 0.044628564 -0.1812932 0.22781403 0.026569866 0.081572562 -0.14830656 -0.21049888 -0.18153104 -0.12878352 -0.061631631 -0.085956566
当地 0.11715463 -0.029196618 0.20992352 -0.2254362 0.11005317 0.2794975 -0.046796497 0.055999123 -0.15885022 0.25219199 -0.010582331 0.038343523 -0.45660204 0.17476997 0.22051361 -0.24826056 0.089307345 -0.29485697 -0.13301454 0.12906745 -0.037832621 0.17309229 -0.019479733 0.16126794 -0.48416018 0.14168341 0.082891978 0.18498576 -0.18730718 0.21224201 0.20490749 -0.20029131 0.01364589 0.21142295 0.076446518 -0.14977707 0.26297188 0.038279437 0.065991476 0.041095909 -0.19416837 0.25131688 0.037655447 0.071581565 -0.13878477 -0.20096344 -0.186297 -0.11734323 -0.044237729 -0.069801725
漆包线 0.13407616 -0.030392906 0.18971273 -0.22384079 0.10608749 0.27144682 -0.047254097 0.038371135 -0.15940493 0.25804308 -0.014100126 0.026575437 -0.4564158 0.17269956 0.21484952 -0.25304276 0.10139674 -0.28478831 -0.11364723 0.14508042 -0.031191023 0.17976294 -0.022104014 0.15249383 -0.50452161 0.13452871 0.11559711 0.184074 -0.18044563 0.21759348 0.21162748 -0.1968793 0.022813383 0.20994811 0.10787652 -0.1672904 0.25361416 0.054581534 0.067651108 0.060296837 -0.18955714 0.23996514 0.043310072 0.077684477 -0.13943474 -0.21252164 -0.17695192 -0.12844023 -0.063873433 -0.071466774
供气 0.11683749 -0.051863555 0.22590911 -0.21846333 0.10619657 0.27001566 -0.094056711 0.029427405 -0.16497356 0.21271136 -0.027303521 0.029931115 -0.4589622 0.13077706 0.186967 -0.25193951 0.10909691 -0.32261842 -0.089760251 0.12707454 -0.032945976 0.16477455 -0.022190088 0.13723719 -0.50387484 0.1238969 0.13338506 0.22323985 -0.19736938 0.21345501 0.24307048 -0.19591722 0.050103646 0.19383822 0.090320945 -0.17078698 0.26099181 0.075402893 0.042127151 0.013961378 -0.20995946 0.23380718 0.038392682 0.066851303 -0.10582489 -0.21487987 -0.16841166 -0.15852216 -0.058303718 -0.084634885
确定 0.14014252 -0.02589388 0.2076695 -0.23187046 0.13296464 0.29889798 -0.045466933 0.05512438 -0.14562869 0.24128583 -0.035548255 0.033169471 -0.48534021 0.17666209 0.20385918 -0.24772774 0.12340635 -0.3062005 -0.12437395 0.15834606 -0.025530616 0.19677781 -0.019416315 0.17290099 -0.51456213 0.12991045 0.099377975 0.18477091 -0.17451255 0.20930462 0.21139415 -0.21596651 0.034228627 0.23655578 0.084780678 -0.15970334 0.29697463 0.066876017 0.048628286 0.041509334 -0.1967843 0.26089293 0.029234769 0.091081344 -0.15587854 -0.2113059 -0.18851504 -0.1288818 -0.042415638 -0.078819193
开采 0.11495217 -0.013980397 0.19653322 -0.23597032 0.12478635 0.27538225 -0.055407703 0.06564521 -0.16113952 0.24413465 -0.035032131 0.010889394 -0.4591445 0.17794679 0.19894883 -0.24801721 0.12511699 -0.28606692 -0.1156102 0.13251077 -0.034347378 0.159097 -0.041974716 0.15771818 -0.50577587 0.11969452 0.098473169 0.19296058 -0.16468927 0.20398994 0.18174694 -0.20728908 0.0086802877 0.21539582 0.10400919 -0.14917219 0.27593988 0.057169855 0.040830225 0.051159244 -0.20483264 0.2368459 0.044126902 0.077230565 -0.15330982 -0.19649872 -0.17740092 -0.10639145 -0.055800449 -0.082369544
交易 0.14380817 -0.026100932 0.20018333 -0.2415949 0.10843313 0.26602712 -0.05302003 0.046297129 -0.14417794 0.23151715 -0.012582546 0.04268707 -0.45030424 0.17168289 0.2166398 -0.24127686 0.10062335 -0.28126827 -0.12358885 0.12059222 -0.044120055 0.17820756 -0.025994558 0.15652142 -0.50007337 0.13822356 0.095321119 0.17679247 -0.18415126 0.20086601 0.21172373 -0.19177006 0.0092350794 0.2125895 0.099956118 -0.14807361 0.25751022 0.054418553 0.047925513 0.043517582 -0.18803979 0.22906674 0.037781782 0.074434571 -0.14024121 -0.2040911 -0.1636882 -0.1285862 -0.044856612 -0.068678372
发行 0.13667715 -0.0072946763 0.19069386 -0.22599651 0.11008709 0.28280261 -0.047679868 0.056360301 -0.16113891 0.23304099 -0.019498466 0.038399663 -0.47232008 0.1298862 0.20754427 -0.26423135 0.14673944 -0.29266903 -0.13331006 0.13573569 -0.045617804 0.16976471 -0.0087611601 0.15729807 -0.4822098 0.11308142 0.076877378 0.18567646 -0.18397892 0.22765717 0.22127455 -0.19561748 -0.0046212948 0.22019401 0.083057173 -0.17128403 0.28021771 0.053340007 0.038762372 0.0091678454 -0.20037097 0.24647343 0.050315496 0.084632441 -0.15895209 -0.21040031 -0.18274656 -0.10796325 -0.093420118 -0.080151454
报告 0.14751835 -0.043190993 0.18051885 -0.22712208 0.12137304 0.27967837 -0.080201708 0.055747297 -0.163187 0.22104491 -0.010181664 0.047353961 -0.45933354 0.16330761 0.20049602 -0.27475575 0.13156301 -0.29913884 -0.10911142 0.14532983 -0.050233014 0.17126499 -0.0093243001 0.16771485 -0.49842882 0.12595487 0.079585724 0.2011975 -0.17357536 0.20403148 0.23375534 -0.18081145 0.036784481 0.21117029 0.087729447 -0.16459376 0.29907039 0.033747159 0.070617259 0.065597333 -0.17941943 0.25741407 0.057276927 0.089560196 -0.13682869 -0.19656605 -0.18426448 -0.1320741 -0.076735459 -0.080016568
被 0.13396968 -0.0251808 0.18212739 -0.22200303 0.11393885 0.28167284 -0.071317889 0.057910595 -0.13812096 0.22830099 -0.0041048704 0.036828749 -0.45888022 0.17113407 0.20108148 -0.25174943 0.095137097 -0.29430372 -0.11054407 0.11903161 -0.037119411 0.1761177 -0.023716705 0.14571746 -0.48850647 0.13199513 0.1036276 0.17942259 -0.18209836 0.20580703 0.20145449 -0.19360307 0.0098608714 0.19356023 0.088055834 -0.14674892 0.25912106 0.046642784 0.064959086 0.045297913 -0.19630724 0.23208879 0.026509803 0.074094564 -0.13995011 -0.20761184 -0.17566322 -0.11637501 -0.04951942 -0.085071623
起步 0.13242795 -0.016177319 0.18412267 -0.2203218 0.12724021 0.27288473 -0.050886665 0.050542608 -0.14395458 0.25091332 -0.019269975 0.043846693 -0.45604959 0.16426142 0.20899065 -0.24182674 0.099152312 -0.28508285 -0.11763431 0.12981237 -0.037682183 0.17533836 -0.033274211 0.15099126 -0.48743707 0.14994119 0.094814382 0.17275125 -0.15232308 0.20587021 0.19842698 -0.17759594 0.016161187 0.20319781 0.080052927 -0.1450852 0.26511639 0.039431456 0.062971935 0.0520273 -0.19732164 0.22805128 0.038049974 0.072105281 -0.13935314 -0.20846105 -0.17147554 -0.10815056 -0.059347287 -0.064321145
依赖 0.15548991 -0.019748483 0.21534702 -0.2287932 0.10883185 0.27063212 -0.083267733 0.050895147 -0.15467517 0.26106134 -0.017514575 0.041192621 -0.47032011 0.1698855 0.22137929 -0.25543126 0.090694681 -0.29892042 -0.13480242 0.12849115 -0.040982239 0.1838586 -0.017935449 0.14282514 -0.50564098 0.12512888 0.091813833 0.19125775 -0.17579448 0.23166507 0.20546122 -0.20508705 0.029826315 0.21052812 0.091533177 -0.17698203 0.27270275 0.040496115 0.061157446 0.062208045 -0.19561191 0.2576327 0.034322683 0.081003964 -0.14353861 -0.21272689 -0.18384558 -0.12922812 -0.045723271 -0.066978045
布局 0.13955444 -0.02315617 0.20413785 -0.23547673 0.11953807 0.27715427 -0.044189375 0.039763018 -0.14725643 0.23703277 -0.012110684 0.029006202 -0.46190736 0.17434132 0.2209892 -0.24559164 0.11126485 -0.27499232 -0.10574707 0.13896918 -0.037031114 0.17965057 -0.033198342 0.14363064 -0.49294373 0.13192798 0.095298305 0.18770811 -0.16634914 0.20639047 0.2135938 -0.19540712 0.024333712 0.19922981 0.092754662 -0.14573601 0.26690289 0.048285574 0.061030794 0.054488339 -0.20107292 0.24244 0.028245725 0.066579044 -0.13112417 -0.20288561 -0.16331996 -0.12228471 -0.043044891 -0.07186842
扩大 0.11010907 -0.046152927 0.17801723 -0.23504187 0.12718488 0.26272935 -0.020678142 0.045604587 -0.15837534 0.24053439 -0.046487756 0.0058785337 -0.44593301 0.17377213 0.16613808 -0.25227794 0.1269052 -0.28190571 -0.1008255 0.11920841 -0.043974083 0.13044696 -0.034435596 0.192902 -0.50506485 0.10510492 0.1045609 0.17030978 -0.17566893 0.18480779 0.15886167 -0.17456333 0.0066137235 0.1951728 0.11965535 -0.17395166 0.26836142 0.019901358 0.026203483 0.052464403 -0.21395059 0.20675315 0.047279041 0.072644815 -0.15749416 -0.2096604 -0.14739202 -0.095900483 -0.059919 -0.078559272
财务 0.13389747 -0.034073316 0.20292158 -0.22498415 0.10534523 0.26964507 -0.052460916 0.045816429 -0.15024488 0.2298871 -0.0224382 0.031818505 -0.45044547 0.15950169 0.22098519 -0.24670741 0.11059885 -0.28332305 -0.12122179 0.14460438 -0.042464577 0.16277829 -0.013268315 0.15771133 -0.48936084 0.14955644 0.086425528 0.1784185 -0.16109629 0.21113907 0.20766237 -0.18464023 0.02282857 0.19635823 0.091528982 -0.1465434 0.25695664 0.044290476 0.065181531 0.054992143 -0.18784948 0.25896299 0.027852559 0.089219712 -0.12066644 -0.18977986 -0.17177662 -0.13396069 -0.063489683 -0.083317682
配送 0.12547883 -0.024211137 0.2023416 -0.23820131 0.11466154 0.28708279 -0.065280288 0.051585719 -0.14571944 0.25608417 -0.017537275 0.04774927 -0.47534612 0.15539536 0.2117175 -0.25047439 0.092084825 -0.28311762 -0.13030759 0.12253484 -0.040977053 0.1827053 -0.016598204 0.14943385 -0.49791041 0.12855278 0.10478566 0.17230149 -0.17939046 0.20357163 0.21229784 -0.18507013 0.030994052 0.21837762 0.10918705 -0.1676283 0.26191062 0.040744241 0.079221673 0.048674475 -0.19419794 0.24084848 0.035375953 0.08759553 -0.1336688 -0.20740007 -0.18801387 -0.12552173 -0.052473053 -0.06954506
选择 0.13808523 -0.023487536 0.20381616 -0.24458867 0.11460692 0.27517667 -0.055267822 0.049126837 -0.14642984 0.25046793 -0.015533258 0.034725741 -0.46017647 0.15842311 0.21602102 -0.25235963 0.12263507 -0.29990998 -0.1243479 0.13038042 -0.026475023 0.16615582 -0.022905724 0.15113351 -0.50834113 0.14316574 0.093366653 0.18487518 -0.17803127 0.20576383 0.22777291 -0.20958853 0.0048623956 0.22257902 0.10662239 -0.16114271 0.29007089 0.04327482 0.058561902 0.072736844 -0.2089317 0.23939931 0.055371679 0.068380572 -0.14188525 -0.21181288 -0.18657102 -0.11148357 -0.066449918 -0.069923081
业务 0.12725763 -0.031901203 0.20927973 -0.22202949 0.11435337 0.28819689 -0.07694798 0.041399203 -0.14069867 0.23773232 -0.018579701 0.024581736 -0.46201134 0.14873955 0.22008592 -0.24357133 0.10618252 -0.29160559 -0.11815315 0.13064834 -0.02158872 0.16163616 -0.017841833 0.1373004 -0.48420194 0.1338025 0.087878667 0.18950501 -0.18636565 0.20857103 0.22479914 -0.19989137 0.01565606 0.21924944 0.10455115 -0.15961094 0.25623468 0.052206572 0.074062698 0.045917165 -0.20140906 0.23666643 0.030132003 0.075233139 -0.14466368 -0.19368507 -0.16899057 -0.13564342 -0.062219501 -0.081406608
特性 0.11523173 -0.031678233 0.18805082 -0.22596149 0.11122186 0.26915661 -0.052087318 0.038666934 -0.15145272 0.25179151 -0.016884128 0.023676543 -0.45642316 0.16016856 0.21823113 -0.25338709 0.10420103 -0.27544561 -0.11699358 0.13928896 -0.045034014 0.16607426 -0.014205539 0.13530318 -0.48455089 0.14213151 0.094468132 0.17733093 -0.15831707 0.21321672 0.22540882 -0.18849945 0.034679435 0.20727801 0.090272725 -0.14533058 0.27845997 0.044567376 0.054412588 0.053849909 -0.18547931 0.2397325 0.028639808 0.067701526 -0.14275298 -0.20668054 -0.17516018 -0.12540323 -0.04703537 -0.070105694
偏光片 0.1279812 -0.012114774 0.19839789 -0.22764076 0.1243007 0.28245953 -0.05635193 0.056567766 -0.13986202 0.24977401 -0.0072441995 0.030612031 -0.46630353 0.17737053 0.23164128 -0.23601891 0.10256349 -0.28958035 -0.12153947 0.13276123 -0.029250791 0.18380213 -0.021808708 0.14330244 -0.49005628 0.13980936 0.10445555 0.18649368 -0.16785683 0.2053097 0.21344614 -0.19786191 0.016844416 0.20775007 0.080501586 -0.14375682 0.25747654 0.046056379 0.063255794 0.056303516 -0.19993779 0.2382673 0.039867826 0.07766559 -0.14324939 -0.20258836 -0.17058197 -0.11588504 -0.059937838 -0.06475085
垄断 0.13354221 -0.030988054 0.19798703 -0.23287998 0.11384638 0.27413106 -0.048609059 0.039541293 -0.14850329 0.23543538 -0.017608868 0.034039758 -0.45339745 0.15535867 0.21306425 -0.25263426 0.098732218 -0.28843138 -0.11658538 0.12272182 -0.034896541 0.16441321 -0.025046896 0.15866293 -0.47660756 0.14349879 0.08925084 0.18818143 -0.1712399 0.21352684 0.2106754 -0.20458923 0.011645119 0.19138838 0.084968366 -0.16001429 0.27039346 0.042006761 0.061445892 0.054505203 -0.19185267 0.23732871 0.045556936 0.08411064 -0.14366153 -0.19132285 -0.17114101 -0.12490284 -0.066160411 -0.073881283
增长 0.12823133 -0.01810953 0.19486791 -0.21612248 0.11965091 0.27855811 -0.050834626 0.045601256 -0.15434222 0.23655185 -0.019431883 0.045923162 -0.46311 0.17623809 0.22091943 -0.2587119 0.11958274 -0.27736759 -0.11672688 0.14661084 -0.045397211 0.16584767 -0.031790722 0.16149417 -0.50132567 0.1342586 0.10825244 0.17494681 -0.1707471 0.21341351 0.21532539 -0.20856321 0.023243325 0.21499853 0.1093078 -0.16456425 0.27327576 0.039861225 0.073111854 0.05287106 -0.20656687 0.24741866 0.046715587 0.077683099 -0.1331691 -0.21076423 -0.17794174 -0.10910501 -0.068153366 -0.075903684
认可 0.1253534 -0.015108417 0.19241211 -0.23856728 0.12609574 0.29500756 -0.058134284 0.052421678 -0.15488511 0.24619992 -0.0081717875 0.027555972 -0.46629009 0.15204762 0.22466297 -0.25766027 0.11398041 -0.29238582 -0.13228093 0.1328394 -0.026857745 0.16995676 -0.015886623 0.14733315 -0.50958353 0.13103352 0.090222768 0.19405241 -0.18542737 0.22157353 0.2314098 -0.1901928 0.02647152 0.20922808 0.090913616 -0.17452653 0.25887299 0.034665585 0.051953211 0.04384556 -0.1935108 0.245875 0.04531737 0.073979415 -0.13344941 -0.21901615 -0.15502712 -0.12536412 -0.052438274 -0.067272455
双重 0.13315009 -0.011495219 0.18665385 -0.22927995 0.10672393 0.2597163 -0.056833815 0.058007032 -0.16234194 0.23101184 -0.029701803 0.028436257 -0.45288846 0.17570417 0.2316089 -0.2471901 0.10649285 -0.28937632 -0.12794895 0.11716425 -0.024440644 0.1823322 -0.02829933 0.13472618 -0.48432842 0.14338873 0.1024206 0.19136816 -0.1755354 0.22434741 0.19956161 -0.19943656 0.022797136 0.20357327 0.089157008 -0.16650784 0.2533243 0.040744886 0.045315027 0.053045858 -0.19250481 0.2383053 0.042515889 0.080114201 -0.14467683 -0.18585809 -0.16727853 -0.13117059 -0.068555124 -0.079283424
基地 0.11512259 -0.015787402 0.18740216 -0.22091722 0.1086814 0.27485397 -0.065333374 0.052110687 -0.15486781 0.23481765 -0.0085488502 0.039630938 -0.4661285 0.16177322 0.22806872 -0.24169122 0.10542118 -0.2874504 -0.11243364 0.12431039 -0.038365699 0.17051409 -0.028911915 0.14871247 -0.48026106 0.14334111 0.095289931 0.19044545 -0.17174137 0.20679526 0.20238836 -0.2024197 0.0095479954 0.21141824 0.077081434 -0.1636882 0.2542969 0.052307338 0.051232059 0.040523704 -0.18071799 0.23852871 0.028032517 0.070789099 -0.12923723 -0.18681994 -0.17543717 -0.12674904 -0.05889798 -0.078288645
玻璃 0.11437129 -0.012257782 0.18693243 -0.20798644 0.12563312 0.26189774 -0.058922324 0.056012176 -0.14265943 0.24275756 -0.013070758 0.040222209 -0.44356576 0.15838093 0.22258773 -0.23191743 0.10389755 -0.28357455 -0.11823204 0.13305594 -0.030910844 0.1678891 -0.023687666 0.15754171 -0.47530761 0.12855181 0.093935162 0.16722804 -0.15442598 0.21758072 0.20680584 -0.19627625 0.011255877 0.19433276 0.090398043 -0.15381618 0.25638089 0.046550084 0.056328859 0.061995637 -0.18334779 0.24552064 0.035335694 0.072536469 -0.15112869 -0.20322114 -0.18285578 -0.11064922 -0.05433815 -0.079797991
家电 0.14681371 -0.023543829 0.20452149 -0.22880414 0.11863729 0.28809077 -0.065967657 0.042589314 -0.13909906 0.25605217 -0.032016497 0.041892089 -0.47918662 0.16208921 0.22359401 -0.26034293 0.095576636 -0.2903136 -0.12214173 0.14939582 -0.033536572 0.18721905 -0.018046107 0.15090592 -0.50239408 0.14074647 0.10461023 0.17805491 -0.18840609 0.20953168 0.21883261 -0.1969026 0.034629192 0.22644746 0.096930474 -0.17047739 0.2515184 0.059740569 0.063487343 0.073683858 -0.19135261 0.24589065 0.034295376 0.081422232 -0.13401303 -0.20925283 -0.17789622 -0.11120181 -0.05310208 -0.077982329
指标 0.12707713 -0.017028876 0.18507469 -0.2259082 0.11383434 0.27991354 -0.046037499 0.040872209 -0.14689574 0.23539218 -0.014844481 0.025540635 -0.46659315 0.17622279 0.20632713 -0.25022471 0.10545272 -0.28000838 -0.11495658 0.13832864 -0.038413819 0.15716565 -0.022499977 0.16430466 -0.49801421 0.12572654 0.096892849 0.18707328 -0.17419124 0.20768064 0.21047203 -0.1815758 0.015431923 0.21254677 0.098114394 -0.16258921 0.27722901 0.049512248 0.057862159 0.056129862 -0.19088297 0.24582829 0.023338778 0.072268873 -0.15305105 -0.19511084 -0.17133035 -0.12281265 -0.042546596 -0.082155816
泰 0.11935177 -0.0089026997 0.19604291 -0.24120428 0.1122063 0.30747935 -0.071529247 0.05794787 -0.14850056 0.24955544 -0.02548513 0.03964163 -0.46502867 0.17367037 0.2095155 -0.24769576 0.098573104 -0.28953749 -0.11749855 0.14655796 -0.03238564 0.16937347 -0.015981629 0.14213946 -0.49426004 0.12981927 0.099109799 0.181934 -0.18035558 0.22589944 0.22696079 -0.20514508 0.024011506 0.20853397 0.083594352 -0.15635641 0.26652431 0.046051171 0.078144073 0.056721449 -0.19860157 0.23836994 0.043016508 0.068426549 -0.14419281 -0.21603844 -0.17252278 -0.14308991 -0.063669667 -0.07157854
工作 0.14513685 -0.030680392 0.20105068 -0.22864987 0.11823455 0.26213962 -0.076010473 0.047060631 -0.17744042 0.22740826 -0.025549455 0.046723098 -0.48299113 0.17793477 0.20593661 -0.276867 0.10827685 -0.29742444 -0.1352081 0.13380684 -0.031211574 0.19853136 0.015976286 0.17003596 -0.49495947 0.13654548 0.082084358 0.20316283 -0.18373418 0.19737087 0.22148606 -0.18938558 0.034213781 0.21392918 0.076187477 -0.16749576 0.29218629 0.053753655 0.075709999 0.067826673 -0.1727725 0.25520378 0.056046363 0.10151514 -0.12001041 -0.21328337 -0.17764881 -0.12977557 -0.079531483 -0.08164157
应用 0.11689428 -0.013352321 0.18864314 -0.23455687 0.11942045 0.2952005 -0.079282485 0.053883843 -0.14952363 0.25596106 -0.028639318 0.050121002 -0.47068724 0.16461486 0.21107334 -0.25825974 0.10554624 -0.2883887 -0.13228187 0.14604259 -0.038716327 0.16327237 -0.0098940376 0.1478371 -0.48887396 0.14026625 0.11052997 0.18406633 -0.18746568 0.21778834 0.20786731 -0.19513786 0.023499329 0.20005928 0.076003201 -0.1602473 0.26531512 0.052056663 0.071159571 0.055594079 -0.2044276 0.23159702 0.037036899 0.080071174 -0.13270958 -0.22003034 -0.18748556 -0.13002013 -0.064628102 -0.083231986
混凝土 0.12567723 -0.029078592 0.18997242 -0.22223172 0.12021768 0.28714237 -0.067791931 0.044971038 -0.1611523 0.24308564 -0.007303847 0.040967423 -0.45605081 0.15895802 0.21911399 -0.2467726 0.11427462 -0.30200362 -0.12455123 0.12369218 -0.031518858 0.16671176 -0.027387396 0.15668376 -0.5049752 0.1431365 0.096191727 0.1845939 -0.18856159 0.22355519 0.214774 -0.19758831 0.035955369 0.20766446 0.10012882 -0.15747665 0.25682682 0.052046046 0.057767466 0.050164733 -0.20111646 0.2463325 0.043876134 0.072318919 -0.14675412 -0.20525922 -0.17408325 -0.11440136 -0.060375895 -0.070650287
开拓 0.1329518 -0.034293566 0.19660676 -0.23742422 0.10920171 0.27547666 -0.065063685 0.053708896 -0.14288929 0.24702202 -0.026126899 0.045105334 -0.43523762 0.16969223 0.21651262 -0.2488762 0.10984706 -0.27131656 -0.12427898 0.11805607 -0.042225804 0.16941643 -0.038040753 0.15257511 -0.49888119 0.13297808 0.098516755 0.16884294 -0.16867906 0.19472806 0.19788212 -0.19418922 0.012216396 0.19694905 0.094170965 -0.15431017 0.27332094 0.043411426 0.060998589 0.064541228 -0.20798966 0.24955846 0.045613725 0.072131738 -0.15599096 -0.21250185 -0.160841 -0.10193302 -0.058510885 -0.077703357
集中度 0.12080345 -0.040078271 0.1882764 -0.23007494 0.1191816 0.26694176 -0.036224652 0.058070015 -0.15809156 0.24730723 -0.015166529 0.02007764 -0.45375317 0.1778878 0.20525764 -0.24980389 0.12195352 -0.27854934 -0.10695317 0.12225217 -0.032719981 0.15257463 -0.035792284 0.17019117 -0.50117528 0.12000419 0.092146546 0.16512546 -0.15754999 0.20090126 0.1861887 -0.19507067 0.029254898 0.20200181 0.094301112 -0.16746643 0.27765182 0.055965487 0.047174461 0.051417816 -0.20994374 0.21665613 0.026003903 0.081606105 -0.15720658 -0.19366217 -0.17287432 -0.11255059 -0.065477453 -0.07100036
通信 0.12068343 -0.030304248 0.19352481 -0.22343534 0.11756243 0.28241354 -0.049563948 0.044353295 -0.15867695 0.24501832 -0.025687506 0.039043773 -0.46958587 0.16376045 0.22056182 -0.25541371 0.097045004 -0.29544121 -0.12752184 0.14507255 -0.041839745 0.1728588 -0.029286094 0.13965642 -0.50344539 0.13342081 0.10194342 0.19369373 -0.19063619 0.22354652 0.21630405 -0.1961122 0.012066636 0.20848116 0.108747 -0.1517731 0.27670819 0.046017103 0.06671948 0.047653314 -0.19574372 0.23973577 0.036442831 0.084903806 -0.16127807 -0.21159701 -0.18576932 -0.1127107 -0.056783695 -0.061646618
水质 0.1325845 -0.021656154 0.18930192 -0.22152945 0.12983268 0.2871415 -0.068894401 0.049164567 -0.15072243 0.25482705 -0.022526413 0.03741103 -0.44642416 0.17045869 0.22388825 -0.24295783 0.091146849 -0.28035447 -0.12778646 0.1259474 -0.023742026 0.16607323 -0.016949791 0.13790435 -0.47219786 0.13718098 0.10036366 0.17951068 -0.18855634 0.22458589 0.21774663 -0.19881357 0.031612027 0.2017706 0.080589905 -0.15615837 0.24932259 0.050676472 0.066040695 0.045252595 -0.18519095 0.22784038 0.035145674 0.071043208 -0.15165609 -0.19898392 -0.17435691 -0.13830222 -0.0410669 -0.080789804
信用 0.12438943 -0.041442771 0.20029138 -0.23199241 0.12875289 0.2639342 -0.036673695 0.041783739 -0.14746779 0.25025246 -0.016105942 0.021852488 -0.45217699 0.17537914 0.2023499 -0.26690927 0.12072106 -0.28150639 -0.10848858 0.14080662 -0.045510016 0.15574211 -0.030149655 0.17308275 -0.4989787 0.12929787 0.085825317 0.17161006 -0.16871639 0.20314652 0.20157054 -0.20064265 0.015177617 0.21619318 0.11008671 -0.16984995 0.28108919 0.037030477 0.042494606 0.052076261 -0.20786372 0.22268422 0.044235419 0.071750961 -0.14060143 -0.20916693 -0.17425747 -0.11188049 -0.068124123 -0.077643797
原料 0.13334408 -0.01213638 0.20017032 -0.22779587 0.10960128 0.29162583 -0.057419162 0.036559705 -0.15201475 0.25091588 -0.027685428 0.044160832 -0.4543311 0.16321282 0.22747657 -0.25294518 0.10446104 -0.29292277 -0.13405308 0.13413358 -0.039063487 0.17736723 -0.030029468 0.15307729 -0.50189638 0.13445629 0.09798561 0.18780114 -0.17342974 0.22242393 0.21835461 -0.20366226 0.0073061222 0.20116644 0.098550364 -0.14479072 0.27174684 0.039414652 0.053044822 0.053478245 -0.20465127 0.23906294 0.030157696 0.086530238 -0.14735354 -0.20176327 -0.17063797 -0.13222663 -0.066944778 -0.06409952
产品 0.11981265 -0.012559167 0.19686897 -0.21464793 0.12490405 0.28595984 -0.040321372 0.056118403 -0.15574569 0.25661978 -0.0094845863 0.053248908 -0.45808277 0.16225943 0.21207596 -0.23105916 0.10564101 -0.27819344 -0.1197065 0.13115656 -0.034955438 0.1701088 -0.023505829 0.15413097 -0.51195568 0.13291486 0.091345958 0.16407743 -0.16404237 0.21806243 0.19884521 -0.18357527 0.022751223 0.20461406 0.082218677 -0.13161676 0.28092557 0.054181572 0.058519296 0.05177379 -0.19973236 0.2339204 0.025891438 0.071648732 -0.15670775 -0.22317411 -0.19671819 -0.11313003 -0.059644703 -0.068758085
复合材料 0.12992755 -0.02789421 0.22488177 -0.22232416 0.093599595 0.26738 -0.093260981 0.027507877 -0.14593683 0.25895172 0.00023778889 0.034374669 -0.46324429 0.15615723 0.21534458 -0.27054995 0.11070743 -0.32037821 -0.12016109 0.14386608 -0.032912269 0.1703907 0.0021043792 0.16691777 -0.51016623 0.12876366 0.096102744 0.2031972 -0.18912832 0.21335396 0.24651417 -0.2194376 0.050873455 0.24735737 0.10088169 -0.15652108 0.24260718 0.038842641 0.059158213 0.044274364 -0.1850899 0.25211942 0.02077743 0.074089177 -0.12507537 -0.19693024 -0.14483353 -0.12079412 -0.067525633 -0.073870443
走势 0.13069321 -0.028850751 0.20696029 -0.23078364 0.11146513 0.2778188 -0.059607416 0.040465206 -0.15323286 0.25248161 -0.012241549 0.041751798 -0.46175167 0.18316209 0.20674449 -0.24151509 0.10335196 -0.29283565 -0.12850711 0.13692471 -0.046640079 0.18221295 -0.020648571 0.1528517 -0.50287044 0.14413595 0.089797184 0.19124773 -0.1917427 0.20973544 0.2159992 -0.20160221 0.017443568 0.22493032 0.11134172 -0.17551266 0.27182046 0.056477878 0.061044961 0.051701915 -0.20069785 0.26111406 0.037083808 0.071078561 -0.14417142 -0.21085908 -0.18488643 -0.12185018 -0.069956005 -0.080826491
期 0.12303135 -0.025567356 0.21247648 -0.23161125 0.11639716 0.2698023 -0.085372135 0.055567641 -0.14597708 0.25790191 -0.015923109 0.034922726 -0.45822111 0.15382531 0.2077843 -0.24189837 0.10958153 -0.29213569 -0.12964833 0.14620189 -0.027889855 0.15738089 -0.015223116 0.14284596 -0.48699522 0.14037311 0.10089924 0.19054781 -0.17047472 0.22292343 0.20848432 -0.19139287 0.020329488 0.2015443 0.10689741 -0.16902009 0.26267534 0.049145207 0.060913384 0.060766749 -0.20546995 0.24080145 0.022908164 0.080357276 -0.13177581 -0.19261454 -0.16121876 -0.11503408 -0.055260155 -0.055807713
代理商 0.12489354 -0.020465633 0.20339872 -0.23776284 0.1069781 0.2969209 -0.075978123 0.037315596 -0.15022966 0.24698502 -0.0081160255 0.036102027 -0.46427613 0.1660035 0.22792448 -0.25414097 0.11403364 -0.29515347 -0.12166287 0.13274375 -0.042366236 0.16868296 -0.016794285 0.14280713 -0.49491787 0.13982999 0.092580192 0.18031156 -0.17494954 0.22854671 0.20965837 -0.18936262 0.032464594 0.2272632 0.1045004 -0.17794627 0.26117131 0.045051198 0.07359127 0.048838489 -0.19963662 0.24204281 0.045310799 0.082329571 -0.12386094 -0.20498504 -0.16457494 -0.12618011 -0.065576382 -0.074593678
导致 0.13450518 -0.03213346 0.18646669 -0.22545651 0.10853346 0.28051332 -0.062434483 0.048138831 -0.14730844 0.24843003 -0.010745082 0.031284273 -0.45031902 0.15577506 0.2132349 -0.24961653 0.1130784 -0.28600273 -0.12397784 0.12244458 -0.048968237 0.18222955 -0.036841724 0.13435189 -0.49659902 0.1317246 0.09174376 0.17685068 -0.17183411 0.20674942 0.20251447 -0.18933678 0.03186905 0.21015354 0.094960168 -0.14397509 0.2638458 0.052150968 0.049656309 0.040174566 -0.18991567 0.24231097 0.046837252 0.06193725 -0.14777139 -0.21421635 -0.17186576 -0.12376955 -0.042128395 -0.086222723
航运 0.12682207 -0.0067505352 0.19213076 -0.24090163 0.10738315 0.26511902 -0.072701283 0.043657962 -0.14832111 0.23859344 -0.022867534 0.0374819 -0.45604184 0.16608909 0.23117149 -0.24928078 0.10932538 -0.29312277 -0.11990238 0.14021558 -0.018200541 0.17858742 -0.022117043 0.13707075 -0.49087811 0.13199137 0.085829236 0.18007082 -0.16799432 0.2200609 0.21025771 -0.20035793 0.030153472 0.20585017 0.089616731 -0.16230312 0.24865067 0.040987156 0.069720671 0.046721715 -0.18645507 0.23255131 0.023365505 0.070936017 -0.13415408 -0.1843358 -0.16005296 -0.13359147 -0.059517231 -0.085347936
焦炭 0.1323058 -0.011178727 0.17534651 -0.23179752 0.12432551 0.28407097 -0.052494604 0.059802223 -0.13652505 0.22982587 -0.0064645428 0.034826431 -0.45928794 0.16488342 0.21260419 -0.25937834 0.09872143 -0.28150347 -0.12979886 0.14392953 -0.024835503 0.1667451 -0.014623663 0.1503202 -0.47453892 0.12677494 0.097724199 0.17374708 -0.18066114 0.2112356 0.20549358 -0.18796295 0.0064531467 0.21129408 0.10159449 -0.17116249 0.27171141 0.043054491 0.058519762 0.051486894 -0.20191346 0.24459563 0.025798218 0.083686449 -0.16042037 -0.1930297 -0.18264785 -0.12949829 -0.038060997 -0.068304911
元 0.13091375 -0.019840168 0.20698465 -0.22886844 0.10738879 0.28228971 -0.074012659 0.056866068 -0.15530153 0.24759153 -0.022560151 0.038375538 -0.4617829 0.16691953 0.21124645 -0.2361937 0.11176969 -0.28982952 -0.1276968 0.14212537 -0.025589516 0.17636622 -0.019407762 0.1503543 -0.49749267 0.13494453 0.099656977 0.17824672 -0.17177156 0.21886906 0.21223857 -0.18720031 0.021153843 0.20698212 0.10412392 -0.15346459 0.25870469 0.037820891 0.052867193 0.047065321 -0.19038615 0.23800498 0.043666273 0.083810143 -0.12995094 -0.21838591 -0.16959755 -0.11708265 -0.041944638 -0.069516763
公司 0.1247266 -0.032445524 0.18929754 -0.21012977 0.10119562 0.27601928 -0.061434142 0.06532868 -0.13257819 0.25616041 -0.02185644 0.026612332 -0.47285539 0.16989173 0.22156765 -0.25428081 0.10203315 -0.2837705 -0.12148438 0.11837585 -0.036156867 0.18648766 -0.033070292 0.12933037 -0.49539587 0.13587601 0.094823763 0.17096676 -0.18776868 0.22561695 0.20448168 -0.20077425 0.012259881 0.20234959 0.10526928 -0.15241118 0.23884445 0.062540293 0.047509566 0.059981968 -0.20501144 0.23683921 0.023136599 0.083517388 -0.13772805 -0.21022668 -0.16088305 -0.095703252 -0.06114772 -0.065059848
增加 0.14132133 -0.015940892 0.18394999 -0.22583522 0.11743819 0.28190142 -0.056725696 0.058260575 -0.15848568 0.24520332 -0.02390958 0.02882592 -0.46567333 0.17256902 0.22351217 -0.23512307 0.1075686 -0.29037601 -0.12612283 0.14035897 -0.038306586 0.17949237 -0.014107795 0.13821955 -0.5016712 0.12119048 0.093901612 0.17022191 -0.16270287 0.20653439 0.20446804 -0.19704679 0.018916374 0.21261138 0.10342167 -0.16612813 0.25921226 0.033256341 0.070438288 0.060394336 -0.20677345 0.25006104 0.026456801 0.086849622 -0.13268441 -0.1935598 -0.15761656 -0.12298235 -0.044014018 -0.066596702
供货 0.14235571 -0.030769816 0.19476718 -0.21911095 0.10646101 0.28189254 -0.069007225 0.041595943 -0.15181255 0.24134707 -0.01681407 0.044039957 -0.45850381 0.15706378 0.21170916 -0.24398698 0.10881145 -0.29260713 -0.11373373 0.13772283 -0.037863728 0.16543949 -0.028320955 0.15496352 -0.49094492 0.14025211 0.099808186 0.18169565 -0.18290251 0.20509224 0.21846198 -0.18848942 0.011288835 0.2232274 0.10448961 -0.15120578 0.25417748 0.04722793 0.061599027 0.052430239 -0.19232041 0.2372292 0.043279763 0.086805932 -0.13728248 -0.20045766 -0.16580006 -0.11421742 -0.058094256 -0.074046902
特征 0.13644455 -0.0066217873 0.18663359 -0.21700321 0.099670731 0.27322039 -0.059151161 0.050474729 -0.15953359 0.23987143 -0.0055379169 0.042336509 -0.45534617 0.140563 0.21967234 -0.26004228 0.13382439 -0.28398001 -0.12456028 0.12075377 -0.051248208 0.16789314 -0.01427451 0.14630477 -0.4990418 0.11847283 0.089133337 0.16968228 -0.183348 0.21856606 0.23422888 -0.18429163 0.013665159 0.20217304 0.10120904 -0.16516812 0.28038827 0.052466962 0.057343401 0.032626238 -0.20223671 0.23970985 0.043449383 0.070699275 -0.15909998 -0.21834689 -0.15830092 -0.11104289 -0.087524734 -0.07906016
工艺 0.14838873 -0.0025602151 0.21421157 -0.22786759 0.12227555 0.26592892 -0.054519609 0.065220423 -0.16094182 0.25383759 -0.028654961 0.047503218 -0.4448199 0.17626485 0.24352401 -0.24532552 0.094760403 -0.28673235 -0.14882536 0.1420587 -0.021975031 0.19249521 -0.013170199 0.14894406 -0.48879358 0.14331371 0.08015772 0.18629245 -0.1870645 0.20905681 0.193496 -0.21117787 0.035771504 0.20017408 0.086861819 -0.13944593 0.24929647 0.051919412 0.065954603 0.062186014 -0.17412412 0.24781041 0.017183479 0.081892006 -0.13486338 -0.20308623 -0.19465856 -0.13320568 -0.052526388 -0.081871904
方 0.13556819 -0.0068752728 0.20514399 -0.21558399 0.1202428 0.28293166 -0.077845238 0.037805371 -0.1670922 0.26461992 -0.024801331 0.030264862 -0.45323673 0.17128474 0.21732418 -0.24290639 0.10645428 -0.30380225 -0.13682917 0.14212714 -0.033770461 0.18070969 -0.035588648 0.14914691 -0.52076125 0.11689002 0.084864601 0.18903293 -0.18874989 0.22786435 0.20580132 -0.21337384 0.031749811 0.2251863 0.10306508 -0.15432006 0.26787132 0.039542638 0.053921565 0.058376145 -0.19361138 0.25223151 0.041579463 0.086989559 -0.15256338 -0.20203863 -0.19538228 -0.12584099 -0.057907898 -0.074306332
门板 0.13336906 -0.015730459 0.20873094 -0.22817986 0.1086744 0.28396672 -0.051282473 0.045515258 -0.15766349 0.25481912 -0.0022199135 0.039916936 -0.45442194 0.17311606 0.21516538 -0.23820165 0.1122802 -0.27945343 -0.11477767 0.139832 -0.036984783 0.17032382 -0.017145799 0.15797217 -0.50802535 0.13666961 0.095311411 0.19090679 -0.1745619 0.20005213 0.20188312 -0.20114154 0.015166899 0.22401223 0.10271562 -0.16182576 0.25517863 0.049858458 0.0536802 0.066620819 -0.18096441 0.23645057 0.026233673 0.072415724 -0.15269698 -0.20564695 -0.18171811 -0.12052826 -0.06116835 -0.081658177
加强 0.12874325 -0.015216907 0.19582833 -0.2362458 0.10897717 0.27149871 -0.071141027 0.053676203 -0.15261455 0.250958 -0.019353801 0.041435651 -0.47202519 0.16579424 0.22011688 -0.2431567 0.10043856 -0.29479018 -0.13232923 0.14418577 -0.049527925 0.16892138 -0.020226279 0.15400346 -0.50363457 0.12100021 0.10728814 0.17779092 -0.17193003 0.22117329 0.22529225 -0.1875699 0.028117094 0.21273141 0.098354153 -0.15308437 0.2581256 0.056959294 0.054307953 0.044640355 -0.20558156 0.2489823 0.042715199 0.082180895 -0.13648404 -0.21011667 -0.17699945 -0.11587349 -0.055495679 -0.072531082
进口 0.13992044 -0.019867824 0.20843385 -0.23651312 0.10096658 0.29026082 -0.06389232 0.056708891 -0.15705134 0.27080351 -0.023798395 0.019938169 -0.45890367 0.15906969 0.21710731 -0.25006238 0.11010919 -0.30548185 -0.12018868 0.14820598 -0.043353528 0.17909953 -0.020516587 0.1356077 -0.50722092 0.14701977 0.095835745 0.18471262 -0.17632262 0.22720768 0.20203398 -0.19229278 0.039290395 0.20364079 0.091981448 -0.16155757 0.26695564 0.037077408 0.05853907 0.055272046 -0.20570993 0.26375225 0.037069105 0.072201118 -0.14686751 -0.20472412 -0.16642395 -0.12143239 -0.050540637 -0.081864402
单位 0.11952182 -0.030349974 0.18417081 -0.22089052 0.10821347 0.25697076 -0.070135966 0.035589024 -0.15554492 0.25823766 -0.010412654 0.035418916 -0.45517609 0.16382499 0.20746446 -0.24323399 0.12043191 -0.29344726 -0.13361447 0.1433017 -0.029933896 0.17470568 -0.032380406 0.14625731 -0.48268968 0.13753705 0.094719969 0.17336623 -0.17567661 0.21747757 0.19673161 -0.18541554 0.024009787 0.20263882 0.095636144 -0.14651468 0.26936194 0.035393849 0.041645844 0.041762788 -0.19989777 0.24916542 0.025805494 0.080019042 -0.14993575 -0.19177188 -0.17603067 -0.11736055 -0.0636921 -0.076823622
