1732 100
下游 0.30095032 -0.38467649 0.2276247 0.060846083 -0.033982601 0.0064574992 -0.21814387 -0.05664672 -0.16482642 0.43048668 0.40083337 -0.34968674 -0.37351003 0.019787276 0.30831322 0.28029084 -0.097806953 -0.18682772 0.045815941 0.065079004 -0.030605691 0.20773184 0.14215104 0.083405785 0.1168766 -0.011696998 -0.162811 0.17609932 -0.0009985395 -0.0068965987 0.0028592125 0.13905394 0.33522946 -0.03447913 -0.17271604 -0.10476688 -0.13398741 0.23789522 0.019649351 -0.093766652 -0.28987411 0.10434566 0.018083593 0.20923349 -0.51872027 -0.07326249 0.1416595 -0.18932511 0.35997039 -0.18664238 -0.02395832 0.075011976 0.012754282 -0.081686459 0.007840395 0.040567309 0.13749018 0.056628965 -0.020574192 0.10577684 -0.067778841 0.10613731 -0.049016986 0.044028174 -0.063613012 -0.065222882 -0.092697702 -0.026330899 0.022585383 -0.041221417 0.15514296 -0.088694885 0.20757726 0.15549023 -0.1249655 0.038398568 -0.11445022 -0.17095394 0.0072211782 -0.081598423 -0.034744669 -0.15292414 0.20036334 -0.079161465 0.12478946 0.20800687 -0.14679886 0.27038068 -0.026842097 0.18869375 -0.030458272 0.021642676 0.19396859 0.033843789 -0.065039851 -0.028427456 -0.026785521 0.18887042 -0.069196627 -0.14363252
上游 0.1818319 -0.24884537 0.21273051 -0.061086763 0.15346043 0.12413409 -0.12881127 0.060368411 0.06175828 0.28261298 0.32530564 -0.39979005 -0.30930862 0.095821477 0.25904909 0.076499775 0.19805419 -0.23075712 0.3262203 0.10969044 -0.087627411 0.24136433 0.23962316 -0.01027422 0.019373918 0.067989714 -0.0034762812 0.22054134 -0.086404219 -0.003288632 0.15574269 0.026564654 0.12784608 0.37000617 -0.1652531 -0.16776812 -0.11526084 0.26432627 0.15399966 0.067625329 -0.41290012 -0.11225379 0.062200487 0.011828008 -0.26270247 0.0096640671 0.046868861 -0.1707633 0.2086125 -0.31741118 -0.068381801 0.046810005 -0.1717751 -0.046063807 0.064615898 0.013856945 0.44329968 -0.12719277 -0.0020088903 0.01103093 -0.08733274 0.32274011 -0.25162828 -0.22540042 -0.1487422 -0.13345064 -0.10027633 -0.10575811 -0.034318101 -0.15788116 -0.051317081 -0.24891002 0.21778238 0.15130757 0.10081603 -0.004240639 0.11721414 -0.37650892 -0.020124812 -0.14832544 -0.036252301 0.0075420961 0.24281119 0.14950383 0.064226709 0.31714246 -0.065321364 0.15999171 -0.13084871 0.028317332 0.093007796 -0.12183043 0.094265498 0.1965073 0.0701553 -0.099704258 0.16496055 0.38465953 0.074107096 -0.17195176
和 0.3648434 -0.19931287 0.26328617 -0.0066245552 0.030603703 0.044835106 -0.11395063 -0.19288224 0.0099581806 0.36528054 0.26127136 -0.33102736 -0.2929973 0.010558452 0.074305385 0.20679131 -0.004615278 -0.27335748 0.24329726 0.13701788 0.0094345221 -0.1314597 0.18709742 0.020232497 -0.026081951 -0.040860832 -0.21945778 0.18165751 0.059714064 0.067401513 -0.073042631 0.073559292 0.34424388 0.21537487 -0.088943958 -0.069349527 -0.096007176 0.22744854 0.12688382 -0.25272486 -0.17557457 -0.075375102 0.11333918 0.047409672 -0.2697728 -0.061709609 0.24536143 -0.20029245 0.3433153 -0.12912655 -0.0013777015 0.084515825 -0.011984918 0.026564728 -0.026482908 0.062480193 0.00067510863 0.064612739 -0.010316266 0.18169267 0.013753867 0.059477173 -0.17095284 -0.19668302 0.048810177 -0.049671642 -0.18906493 -0.13975312 0.077279724 -0.091572262 0.041885886 -0.0089136111 -0.043955423 0.046900321 -0.15176064 0.036916859 -0.071373507 -0.13287926 0.075298443 -0.04428694 0.006418041 -0.1119155 -0.069290526 -0.020967219 0.20476627 0.19374259 -0.13848875 0.12397233 -0.093546174 0.16910401 0.029241361 0.12986274 0.094833232 0.11783056 0.10318961 0.050952401 0.0050596702 -0.002820699 -0.053133912 0.16421527
行业 0.18099007 -0.45013347 0.34623075 -0.20524551 0.14198343 0.077007204 -0.19976762 -0.11464244 0.16052453 0.50206208 0.36693531 -0.31435406 -0.46618631 -0.072773933 0.05231585 0.059727307 0.014937051 -0.48998052 0.069416001 0.029348705 0.071616605 0.18620344 -0.064149983 0.033248842 -0.072429195 0.22367179 -0.37127858 0.5146538 -0.048256502 -0.030205453 0.12934287 0.037156135 0.27655458 0.031696767 -0.18837267 -0.11481569 -0.031233668 0.37858254 0.14105827 0.049720682 -0.28929338 0.13352433 0.17375876 0.14913423 -0.22560956 -0.10723085 0.046667784 -0.12607586 0.06949231 -0.12415387 0.0018284367 -0.05747455 0.17210898 0.090835184 -0.033830624 0.015928863 -0.13823986 0.026034407 0.066478588 0.24036714 0.042824119 -0.11777329 -0.12944064 -0.085753664 -0.11257133 -0.25412253 -0.24329759 -0.065053664 -0.028859245 -0.024994006 0.041727424 -0.016322173 0.068144202 0.26757139 -0.001100662 0.28655657 0.13903357 -0.27494282 0.032408617 -0.015300874 -0.24148871 -0.29734075 0.16414671 -0.14619771 0.03701767 0.22382005 0.17588563 0.20486206 -0.10505235 0.24910387 0.11936768 -0.25013676 0.020212181 0.10842693 -0.16279267 0.21414214 -0.15504944 0.27908421 -0.024224536 0.0056541348
公司 0.094185963 -0.35418889 0.32258832 -0.044002514 0.10005762 0.01345304 0.028256522 -0.030436946 0.11371318 0.3078773 0.21157582 -0.25083515 -0.18421406 0.067700781 0.34224296 0.21971813 0.16929592 -0.10015784 0.25389534 0.077351972 -0.053346537 0.2454035 0.11890045 -0.034718815 0.074789025 0.15758882 -0.011187205 -0.020526173 -0.25616232 0.038184647 0.10697907 -0.21228462 0.10515171 0.25666913 -0.26134196 0.052244157 -0.22587973 0.30674413 0.021927599 -0.064373456 -0.38040319 -0.082771033 -0.023455853 0.0091069443 -0.33969173 0.063891917 0.11658693 -0.074207902 0.087654285 -0.37674725 -0.064176239 -0.13159738 0.02292656 0.026105395 0.050132129 0.2252658 0.42484963 -0.17630006 -0.15148391 -0.01584064 0.087479547 0.39675912 -0.074397482 -0.096771225 -0.14836974 -0.16169134 -0.10947752 -0.05517032 -0.00028371916 -0.078050412 0.019808225 -0.20191792 0.0098576276 0.11412816 -0.046671905 0.040406175 0.078880258 -0.21470696 -0.055206433 -0.15843095 0.032800529 0.018340344 0.26523671 -0.014010631 0.25706366 0.436517 0.0041874289 0.25437003 -0.066898972 0.11242152 0.017974932 -0.10105313 0.23935784 0.21439096 -0.078645028 0.1223785 0.18911567 0.33675492 -0.00078251597 -0.0098688528
产品 0.31698754 -0.12489532 0.5050472 -0.14065529 -0.20136416 -0.052995112 0.080697544 -0.0014361005 0.1947324 0.68657064 0.21684155 -0.14508122 -0.39043179 -0.26518229 0.38131526 0.28342485 -0.19639313 -0.3457267 0.23128425 0.11450636 0.00068615138 -0.014010544 -0.046945959 0.008057124 -0.021825457 0.126734 -0.46127316 0.23451775 0.027507564 0.21087496 -0.082847163 -0.00061548088 0.46479085 -0.23117347 -0.28472003 0.29471591 -0.18227345 0.18766209 -0.037388325 -0.18349892 -0.058744766 0.22026907 -0.0096272361 0.21053332 -0.37895036 -0.065756902 -0.0094450973 -0.24078774 0.093122482 -0.12097677 -0.099525496 0.26110756 0.17162426 0.01428199 -0.0406367 0.17129359 0.085253246 0.022029463 -0.10446066 0.034516543 0.036587771 0.10697551 0.026883803 0.025225602 -0.01594772 0.21742834 -0.29260895 -0.067313716 0.26181901 -0.13130167 -0.069898233 0.24869414 0.04481823 -0.11793149 -0.042811327 0.031002602 -0.0019876854 -0.11483606 -0.0059242137 -0.02178026 -0.030762773 -0.19885509 0.1802232 0.039066553 0.22309238 0.22909647 -0.095025778 0.33056343 -0.26674771 -0.035687964 0.066235594 0.040485602 -0.0082089631 0.18397054 0.05342336 -0.00021295396 -0.085380472 0.20847549 -0.042946424 0.049254131
等 0.22986153 0.011634648 0.49069321 -0.14989118 -0.14373209 0.020446872 -0.14665633 -0.27210742 -0.067735672 0.39998481 0.24190149 -0.15737 -0.2657381 -0.19608176 0.30409491 0.042593766 -0.17576969 -0.38983586 -0.049404092 0.30777961 0.11506687 0.021971013 -0.14693411 -0.068010323 -0.019295001 0.029435126 -0.29077527 0.45132104 0.18410675 0.073233344 0.021026507 -0.081649534 0.32129449 0.015142223 0.17649624 -0.10615567 0.036694217 0.53572243 -0.05496924 -0.020650394 -0.13459264 0.32264858 0.0052618668 0.1317203 -0.14079119 -0.09861169 0.091589242 -0.25212288 0.2711468 -0.11359566 0.0093150716 0.2239469 0.0076682791 -0.10388477 -0.098022409 -0.052717328 0.081706554 0.15388806 -0.17462109 0.14005812 -0.11715269 0.13577703 -0.24579777 0.072624601 -0.10333467 -0.013471505 -0.08561255 -0.038471922 0.18958311 0.10609426 0.065772727 0.13913946 0.12749955 -0.050241422 -0.085277557 0.070451424 0.16291863 -0.17447641 -0.2633014 0.060186911 -0.2615678 -0.12223923 0.082227796 -0.038378354 -0.04362911 0.074937806 0.19293074 -0.1382592 -0.16618079 0.088167042 -0.022601148 -0.083271846 -0.040374517 0.34387469 0.060746849 0.23960644 -0.17571861 0.15459989 0.14554448 0.040645596
及 0.20835894 -0.55902028 0.25936991 -0.022156626 0.07631807 0.28626987 -0.075337611 -0.096033245 -0.099258028 0.048079625 0.038662408 -0.41175106 -0.09378159 0.04953748 0.28214413 0.20487686 -0.10983136 -0.29799885 0.23419762 0.27315861 0.012401599 -0.18673235 0.056061015 0.13371445 0.22531116 -0.078375794 -0.053568438 0.16248775 0.030239886 0.13587576 -0.075829521 -0.013276822 0.2749072 0.29927346 -0.08928977 -0.095408514 0.0059919851 0.41128248 -0.093634181 -0.26328677 -0.45737281 -0.0081130192 0.058220681 0.0078102536 -0.099656224 0.066435151 0.15257233 -0.33768243 0.41717142 -0.33273524 0.23054288 0.048230961 -0.043817855 0.010063311 -0.10934142 0.22843392 0.23070526 0.24497072 -0.10134529 0.25156087 -0.0063149557 -0.13883898 -0.10913065 -0.16234815 -0.20235258 0.030084508 -0.11425822 -0.055590793 0.056149006 -0.057235423 -0.07385771 -0.26013494 0.22230025 0.24165072 -0.3532463 -0.070072845 0.069682613 -0.16185556 -0.2859683 0.13953236 -0.21270446 -0.16147816 0.17087534 -0.13242351 0.16947113 0.15337195 0.015461557 0.2612848 0.085152969 -0.046102662 0.046678971 -0.17786387 0.12514347 0.33637407 -0.02769837 -0.12806495 0.088543855 0.046774779 0.076331496 0.082078107
为 0.15588576 -0.37409267 0.14792815 -0.13755436 -0.012736976 0.05122672 -0.20195132 -0.4111751 -0.021883648 0.025426587 0.11507797 -0.32511568 -0.34508207 -0.15724157 0.11640909 0.013037926 0.015700489 -0.26187181 -0.10544742 0.15459017 0.20063868 -0.035344407 0.16041048 -0.073199213 0.044066068 0.10494958 -0.057537649 0.39330727 0.079394266 0.14414968 -0.12273686 -0.022475259 0.08703804 0.056282293 -0.35369676 0.13745338 -0.0019091625 0.34830046 -0.15402067 -0.058101844 -0.16010401 0.10377768 -0.061551724 -0.25056034 -0.12248056 -0.13511238 0.18663563 -0.43862677 0.2370818 -0.30600506 -0.14461412 0.11921761 0.19360061 0.50166935 0.042094432 0.45171624 -0.086838193 0.13306879 0.35448453 0.32832208 0.071924925 -0.058218341 -0.071222275 0.29901743 -0.37198487 -0.035262022 -0.27428362 -0.064991623 0.091424003 0.14214689 -0.16020438 0.045307636 -0.024410333 0.13785648 -0.56306255 0.33241984 -0.07380078 -0.28210998 -0.23044306 0.050649196 -0.055750985 -0.304086 -0.032286081 -0.034306016 -0.062348358 0.34412399 -0.17130472 0.041754618 0.10439198 0.25443017 0.082184508 -0.21084715 0.12175296 0.42010877 0.12119882 0.40273187 0.038983129 -0.11669528 0.095724523 0.10444992
企业 0.31545752 -0.21554694 0.20047805 -0.066489957 0.051490307 0.14737108 -0.12680204 -0.24190293 0.16212618 0.34435701 0.43104848 -0.18640342 -0.43508026 -0.33932284 0.1658394 0.14040086 0.14809614 -0.47596312 -0.10779172 0.025364656 0.10728901 -0.0032901557 0.20771749 -0.062910482 0.10757498 -0.058279485 -0.083684206 0.47463611 0.12105136 -0.0034380751 -0.013185619 0.094364479 0.082240753 0.045099411 -0.38666868 -0.10142123 -0.094070129 0.066152677 0.1655852 0.2128552 -0.20265208 0.009857052 0.19754077 0.036474615 -0.10854688 -0.062167495 0.37179825 -0.23706438 0.18839349 -0.026989978 -0.12822849 0.29778129 0.013894837 0.026923357 0.14810684 0.096450448 0.15468951 -0.12444513 0.16212933 -0.023088383 0.085544802 0.12388035 -0.29579219 -0.13740519 -0.33563367 0.13549325 -0.32917035 -0.13119669 0.01206562 -0.0573912 0.037126757 0.015981037 0.058519747 -0.026057445 -0.273022 0.19823003 0.015110712 -0.27038845 0.17914931 -0.090920784 0.10545855 -0.27694917 -0.18951884 0.15160064 0.12872162 0.19910479 -0.15435745 -0.16193654 0.083682597 0.26174408 0.094184078 0.044784702 0.14077236 0.24245283 0.069866046 0.15046656 -0.2339856 0.20067799 -0.10191949 -0.046427812
对 0.095900044 -0.01203239 0.20184201 -0.069148645 0.011758714 0.063253872 0.044503879 -0.10001855 0.057853948 0.24621549 0.20425482 -0.39292493 -0.3361645 -0.20306528 0.27674696 0.033849854 -0.19056344 -0.44040817 0.22732218 0.16596049 -0.12190424 -0.076383844 0.10778517 0.099642791 0.25088963 -0.004677583 -0.32191569 0.067669362 0.24342352 0.22204956 -0.11777468 -0.043170463 0.20156845 0.055520099 -0.1797646 -0.13445807 -0.089188248 0.003700153 -0.037350904 -0.015787959 -0.30999976 0.060483567 0.18785536 0.19161187 -0.23183396 0.09628851 0.10791002 -0.37922332 0.41450685 -0.1885277 0.20044608 0.16835569 -0.062452391 0.036175136 -0.11357533 0.16437449 0.22012065 -0.3015486 -0.063690148 -0.020487545 0.29550093 0.32016003 0.0694125 -0.16181988 0.03028151 -0.23716426 -0.25552157 -0.13540491 0.1731014 0.070853636 0.18688543 0.14167342 0.1132393 -0.40987611 -0.20796897 0.15427296 -0.038542569 -0.33428025 0.10116389 -0.099573798 0.14882064 0.16891949 0.20121507 0.10647209 0.13019671 0.25663972 -0.12094595 0.24258013 -0.052720048 -0.19559076 0.24788514 -0.05887774 0.25675774 -0.066586137 0.21395792 -0.26567206 -0.058087472 0.29749152 0.048554443 -0.053718355
是 -0.045547225 -0.15461713 0.56855893 -0.027308607 0.033746786 0.17474879 -0.023986638 -0.23990223 0.17424025 0.55231518 0.4398908 -0.15071811 -0.30137885 -0.10706842 0.34009984 0.033872213 0.076406822 -0.49437308 0.13952026 0.0044371434 0.037870236 0.27647322 0.096534774 -0.040410463 -0.025875771 0.35813054 -0.47096604 0.28545794 0.093283564 0.0081225792 -0.051490508 -0.1984615 0.1916548 -0.022032272 -0.045390587 -0.0054986128 -0.067814834 0.40484628 0.38102669 0.18445368 -0.26051688 0.010120817 -0.046757814 0.29421631 -0.4503687 0.11902545 -0.20909306 -0.032594368 -0.014067804 -0.2580148 -0.31700248 0.062071428 0.079852872 0.14463416 -0.069059305 0.2136984 0.088817589 -0.24977721 0.022138881 0.13282594 0.43909046 0.40450007 -0.12795857 0.033409975 -0.31680429 0.10316514 -0.24997845 -0.17587005 -0.019068906 0.043799475 -0.08371558 0.0025301753 -0.14248559 -0.044410869 0.046212077 0.12104115 -0.0059342268 -0.096341223 0.13520896 -0.17620611 0.10662517 -0.17121693 -0.080253251 -0.12770136 -0.026519528 0.45865363 0.15468007 0.08987651 0.081840016 0.37021536 -0.038841732 -0.20777676 0.099470735 0.25884637 0.14503729 0.26787633 0.061122932 0.36410439 0.22358644 -0.21670814
需求 0.18859425 -0.3429091 0.21265943 -0.031328693 0.0080213547 -0.23803091 -0.13678606 -0.14716043 0.06419 0.50440007 0.33051637 -0.30837813 -0.41161993 -0.20571753 0.02989924 -0.031681985 -0.13473065 -0.61535692 -0.12300377 0.05350776 -0.069384858 0.10232911 0.041679431 0.22431585 0.043704227 -0.015302101 -0.47721744 0.32493043 0.17750126 0.14654666 -0.028048085 0.16172826 0.31213838 -0.32876801 -0.20062058 -0.20871921 -0.13551225 0.089327738 -0.016503824 0.010253329 -0.33285829 0.24859588 0.13076751 0.28856254 -0.40425569 -0.10701695 0.14054474 -0.333884 0.32452759 -0.17489539 0.021775464 0.10669115 0.18032119 0.0018895351 -0.15095563 -0.013389789 -0.12597951 -0.33108354 -0.0067653283 0.17878504 0.081828073 0.15110268 0.095983885 -0.070360176 -0.086174108 -0.14092943 -0.2624211 -0.12678559 0.10841903 -0.0025048258 0.27898714 0.13617954 0.095402263 -0.22705914 -0.30586675 0.1446591 -0.051302362 -0.28978479 -0.049719155 -0.081401654 -0.037703209 0.046390209 0.20669819 -0.14114423 0.018562358 0.039355598 -0.016242169 0.27747059 -0.048401251 0.27028885 0.031921938 0.032681141 0.14074092 -0.28882623 -0.10201233 -0.039783612 -0.049366254 0.034561019 -0.034452856 -0.077539198
影响 0.24721269 -0.32361546 0.37711787 -0.3184981 0.065175787 -0.16398366 -0.013478288 -0.19481309 -0.024118856 0.47741449 0.35657895 -0.28441939 -0.36993104 -0.035424836 0.11647636 0.10661396 -0.050989967 -0.55450773 0.18238756 0.44831362 -0.069598392 0.12550968 -0.20373847 0.18098593 0.14468122 0.037690364 -0.61593747 0.44044551 -0.051787581 0.14824675 0.10359593 -0.017427746 0.24079062 -0.05033537 -0.053466052 -0.37624851 -0.04830816 0.18204466 -0.12815498 -0.039936773 -0.43081945 0.22885269 0.183544 0.31518248 -0.24402539 0.026622875 0.16866256 -0.29925069 0.07360211 -0.29042462 0.45231766 -0.2251977 0.0047146976 -0.21824214 -0.19266002 -0.025131732 0.0622923 -0.33285043 -0.23095639 0.15637287 0.17988779 0.075013891 -0.047006376 -0.23596078 -0.12131556 -0.33252975 -0.18958262 -0.14323238 0.21510911 0.022075461 0.22902539 -0.028392928 0.16120175 -0.21640398 -0.23282811 0.23434198 0.1271214 -0.38636282 -0.17488249 0.12022592 -0.040488109 0.1559343 0.20373856 0.015360189 0.1306648 -0.02518739 0.27510387 0.18991882 -0.072071567 0.079318114 0.11051553 -0.31283873 0.15030672 -0.16254427 -0.17065038 -0.021520093 -0.1340159 0.43327379 -0.051662963 -0.063582085
与 0.20488836 -0.308447 0.091394544 0.074158169 0.33357626 -0.076785192 0.1006053 -0.20270467 -0.12216756 0.1691398 0.367726 -0.12576908 -0.19644813 0.12284768 -0.067628354 -0.16097194 0.19920954 -0.387205 0.20876424 0.39623347 0.15086901 -0.022980712 0.30265117 -0.058747109 -0.17337096 -0.30521968 -0.1581697 0.32295316 -0.1945709 0.18437137 -0.038661804 -0.083691768 0.090093769 0.25841382 -0.23943339 -0.29273051 -0.026612185 0.41076043 0.06231416 -0.22557759 -0.17203908 -0.16360548 -0.19283338 -0.20937087 -0.20723763 -0.14207485 0.13852634 -0.30285341 0.43075493 -0.46477619 -0.26007715 -0.062350363 -0.34048194 0.16288 0.09438549 0.11247445 0.11263978 0.0071348492 0.10026803 0.17076431 0.18387102 0.19154018 -0.089488678 -0.094440922 -0.43187493 0.099562667 -0.32079664 -0.292256 -0.092737086 -0.2774708 0.0038823187 -0.010996237 0.051625252 -0.09648066 -0.50381124 0.2821241 -0.4262338 -0.24244925 -0.11415134 -0.11393728 0.26108053 0.010858348 -0.31427881 0.12866658 0.053671841 0.25737879 -0.26885343 0.19267544 -0.16029173 0.34945256 0.04286918 0.095521413 -0.026960669 0.10948271 -0.0088544376 0.23800014 0.28469053 -0.087285385 0.039639454 0.32271188
生产 0.3606413 -0.18240844 0.15808028 -0.093997337 -0.18842183 0.087329529 -0.014418353 -0.15318245 0.12661354 0.40412927 0.2301829 -0.18111053 -0.4880614 -0.40138811 0.32249016 0.19075905 -0.17519458 -0.32012048 0.013138398 0.066043131 0.013284551 -0.0087393578 0.096531644 0.0095096799 0.18267229 0.025927955 -0.14542207 0.44104531 0.10073153 0.16924447 -0.13331547 -0.15131766 0.10368653 -0.12000775 -0.30334225 -0.013547738 -0.10185593 -0.054175764 0.072775401 0.016498689 -0.2026566 0.17475782 0.015399978 0.21188238 -0.15001431 -0.025729142 0.20883235 -0.29743278 0.16550352 -0.097385615 -0.041802686 0.31956702 -0.020129664 -0.10832749 0.13805684 0.15206081 0.3359223 0.074561052 -0.0046311934 -0.10891739 0.017833417 0.23401321 -0.1402643 0.18031006 -0.25248009 0.16628537 -0.21749817 -0.02137194 0.3158693 0.064156935 0.10771585 0.14547494 0.085943379 0.050307568 -0.17993119 0.094899312 -0.019993467 -0.15835147 -0.011489695 -0.18714774 0.0040264996 -0.078084163 0.034449089 0.099215738 0.31607455 0.059975814 -0.15676981 -0.051696967 -0.055497028 -0.037803423 0.13270415 0.09007135 0.051686592 0.42012411 0.15879041 0.13346706 -0.23099974 0.30063555 -0.011817672 -0.0026598056
产业链 0.26390582 -0.31970689 0.21759719 -0.056462046 0.1785869 0.20950973 -0.024833387 -0.075356506 0.2139563 0.38723561 0.1723448 -0.56801826 -0.37358516 0.06136563 0.19927426 0.19621409 0.20401455 -0.42398155 0.52880973 -0.20581341 -0.087522514 0.17931788 0.12894663 -0.047212537 -0.016815435 0.49701652 0.084489807 0.36754575 -0.34930828 0.17340878 -0.18705328 -0.26693255 0.039848246 0.49551246 -0.48137385 0.085891604 -0.060153916 0.0050637396 0.28473762 -0.1314843 -0.35488796 -0.31228995 0.17448203 -0.016706614 -0.39197394 0.12797494 -0.02325502 -0.069162264 -0.041540533 -0.19876209 0.14398549 0.20315455 0.047401179 0.18243764 0.061060842 0.38273209 0.31578389 -0.19841576 0.12405621 0.032279525 0.14458008 0.33959359 0.012112316 -0.18678297 0.14396976 -0.13867207 -0.23736413 -0.0096332235 0.21597673 -0.15944472 -0.25914818 0.049676877 0.1553705 0.39032751 0.1836188 -0.042564332 -0.030032877 -0.3910901 0.095812544 -0.027543847 -0.08135888 -0.012951165 0.31264037 0.010726735 0.34259838 0.58003008 -0.15531071 0.07971897 -0.33917102 -0.22738132 0.35425243 -0.10000897 0.029593302 0.50237679 0.1727383 0.33573276 0.093193874 0.56889635 -0.067942336 0.15504564
在 0.16577731 0.17374584 0.18201785 -0.2032561 0.085699856 -0.088091955 0.04563133 0.01546168 0.06005748 0.40875608 0.044185802 -0.17467694 -0.1562445 0.061569504 0.059506178 0.046949122 0.077834778 -0.22028849 0.023298874 0.11100399 -0.10716198 0.1509123 0.079752341 0.15428746 0.079108089 -0.24795015 -0.32556766 0.12491515 0.15273599 0.09898816 -0.085866347 -0.07378982 0.31277117 0.059618924 -0.19270764 -0.10319458 -0.048834048 0.031155478 0.037604958 -0.27258268 -0.33753172 0.061366744 0.098257639 0.10435715 -0.33731377 0.014457438 -0.011183366 -0.19026947 0.55830783 -0.24780799 -0.20286961 0.12718442 -0.10964698 0.074269921 0.018840205 0.027076498 0.16100194 -0.097524844 0.01201894 -0.027169885 0.34301236 0.19102503 -0.061759688 -0.25108239 0.023831349 -0.2169766 -0.15000404 -0.45417994 0.3692593 -0.076587744 0.27056158 0.15242489 -0.11672962 -0.099583909 -0.066299751 0.17185633 -0.051961027 -0.13282131 -0.090810463 -0.019456675 0.13205515 0.14073473 0.26206753 -0.29466999 0.025144611 0.29536039 -0.15357213 0.34440544 -0.013991943 -0.048023991 0.031975977 0.090741418 0.17152067 -0.17123346 -0.099523641 -0.0038482461 0.16501306 0.17816141 0.1717125 0.17873336
煤炭 -0.18760392 -0.0056770835 0.35423809 0.068197772 0.33219099 -0.030109713 -0.18440001 -0.16040899 0.24002965 0.25794911 0.21488765 -0.29198596 -0.28752214 0.11699249 0.19175103 -0.13936435 0.081062511 -0.99083257 -0.11158379 0.16185285 0.087749697 -0.015702713 0.38010812 0.21073626 0.11534188 0.22047928 -0.11762134 0.1345613 0.44137233 -0.15385304 -0.1595736 -0.066310994 0.066890173 0.34939703 0.1755196 -0.5675177 -0.077624485 0.34113285 0.22198185 0.012576287 -0.76549828 -0.15485299 0.23082773 0.22681245 -0.28031248 0.020208022 0.14575803 -0.11275871 0.49502254 -0.36528307 -0.015760763 -0.091783181 -0.0093782367 0.016919492 -0.24708492 0.16784979 0.25111595 -0.45721057 -0.18427423 0.16091533 0.40764147 0.2670694 -0.42432299 -0.76136315 -0.30227634 -0.32333788 -0.47670102 -0.18803796 -0.11468274 0.11041203 0.19646172 -0.60805649 -0.14310078 -0.35802144 -0.31346926 0.023654502 0.26942483 -0.43558696 0.10429925 -0.34684974 -0.27418903 0.14608204 0.19075806 -0.57228273 -0.22396603 0.40023649 0.15743361 0.15625396 0.13799614 0.35496792 -0.24832276 -0.3594161 0.2902053 -0.16429266 0.0064264452 -0.19793355 0.18729253 0.32117474 0.23141082 -0.14652371
发展 0.42140952 -0.227099 0.24291126 0.045243241 0.040833969 -0.28572434 0.03723155 0.11097469 -0.087437123 0.49697825 0.078204803 -0.42422596 -0.2260519 0.25897616 0.19379063 0.043544196 0.044132829 -0.40428197 0.099157631 0.21097936 0.035983346 -0.087856278 -0.15333955 0.070877127 -0.12183852 0.31136507 -0.030235669 0.41087782 -0.13725023 0.26245117 -0.052956868 0.13974638 0.14284302 0.11095782 -0.20501432 0.011046112 0.012387102 0.3847822 -0.20190498 -0.27131552 -0.37939912 0.044050802 0.034471851 -0.069033474 -0.52769649 -0.087242499 -0.14087279 -0.25652891 0.35813969 -0.32837743 0.1577545 -0.0034016117 0.17711416 0.27302927 0.056963861 -0.021394262 -0.34023577 0.088828482 0.20398393 0.29861748 -0.047153749 0.06524004 -0.26267922 0.10160204 0.24163048 -0.44843289 -0.12935258 0.069545053 0.1401508 -0.28549474 -0.16867518 0.1315822 -0.0097891958 0.067310952 0.088421352 0.19144779 -0.19680844 -0.35189518 -0.12853716 0.073991343 -0.17051435 -0.20449038 0.20699358 -0.27413681 -0.064289674 0.38091442 -0.051486935 0.096092217 -0.28178775 0.036869731 -0.012206774 0.071690179 -0.095686033 0.028772878 -0.10441042 0.093142271 -0.072109371 0.093088076 0.0033047087 0.3939645
业务 0.030409012 -0.53283632 0.26093152 -0.025758822 0.20552221 0.32579514 -0.25529945 -0.45201001 -0.2753081 0.099074781 0.41633302 -0.40691221 -0.15403821 0.19716705 0.13878262 0.20904237 0.22002567 -0.19679675 0.26208958 0.28742415 0.15778978 -0.059883244 0.2834906 -0.13256438 0.022184581 0.093821041 -0.017159414 0.35750547 -0.25065911 0.13175826 0.18774892 -0.18658909 -0.027182627 0.42703825 -0.043759666 -0.31460658 -0.08448144 0.28784212 0.28142521 -0.097396903 -0.53739768 -0.16434473 -0.06307745 0.11771308 -0.2923595 -0.041811042 0.12804745 -0.3185381 0.15630867 -0.54898846 0.23663276 -0.17018358 -0.25568148 0.14760092 0.013582609 0.28944832 0.28754902 -0.13265808 0.10168924 0.23154356 0.15439129 0.20440483 -0.26579586 -0.18580584 -0.19338058 -0.021594368 0.1016986 -0.039822672 0.066606462 -0.059219852 0.14300525 -0.23429596 0.10764877 0.3460016 -0.4219121 0.17221271 -0.1865662 -0.38664785 -0.32819664 0.011033432 0.26929936 -0.18108119 -0.22198333 -0.052357987 0.15915854 0.49411628 -0.17687091 0.032573178 0.12681796 0.21171772 0.090774193 -0.031939775 0.16115591 0.42917141 -0.091766484 0.42178771 0.25694695 0.14599936 -0.030189104 -0.025712011
价格 0.33466223 -0.23818815 0.39244476 -0.35064471 0.014445984 -0.49593958 0.15932693 0.0018772916 0.11023783 0.23840645 0.38802403 -0.26681611 -0.28886759 -0.071890913 0.054584414 0.077454582 -0.069288582 -0.47275221 0.03373399 0.44812608 -0.10677984 0.12785532 -0.10797709 0.16524796 0.092885062 -0.0018324641 -0.51560348 0.31225893 -0.17014863 0.19284157 0.09103433 0.14610699 0.18297704 -0.081495255 -0.060069941 -0.28531754 -0.1249851 0.11278734 -0.15704799 -0.15449305 -0.3779808 0.11245745 0.12538268 0.096078761 -0.024215801 0.048639834 0.12055728 -0.28212756 0.35017115 -0.15974692 0.39262658 -0.15886411 0.11492591 -0.17892045 0.035480194 -0.27436665 0.21385808 -0.35085174 -0.3296226 -0.1223015 0.035326131 0.17556702 -0.039278302 -0.32129052 -0.11653005 -0.47222608 -0.15677522 -0.26488814 0.34745154 -0.078018181 0.38859347 -0.20702402 -0.097630687 -0.41003314 -0.18692259 0.2281763 0.019584015 -0.32315695 -0.049709193 -0.016191738 0.10331988 0.21204016 0.29128408 -0.11012944 0.080641493 0.019823257 0.062974349 0.13255042 -0.076289684 0.05266631 0.19366993 -0.15970606 0.034862034 -0.33366987 -0.32223988 -0.084043041 0.097557791 0.40511256 -0.092977181 0.053817146
销售 0.14386897 -0.37119934 0.22351931 0.02173258 0.0078639649 0.055643123 0.093586326 -0.049681965 -0.019255852 0.21409628 0.14110029 -0.23717895 -0.28184718 -0.3142505 0.23954119 0.084000081 -0.15122266 -0.28584951 0.088559285 -0.033143032 0.099115811 -0.018893283 0.19794756 0.11542869 0.030888056 -0.12996185 0.0046109697 0.082734913 0.060376398 0.12923218 -0.049074855 -0.091720395 0.05022677 0.0043070824 -0.29517263 -0.10412207 -0.15110242 0.0726768 0.10881487 -0.15727969 -0.48956826 0.038502757 -0.048650306 0.19647855 -0.11582012 0.011350305 0.21141224 -0.3335664 0.23584519 -0.30912814 0.10761617 0.098959714 -0.0022214814 -0.050972223 0.083927236 0.15901673 0.28699216 -0.15074179 -0.096218519 -0.20119765 0.10815555 0.39497247 -0.078674264 -0.26963949 -0.17466776 -0.094055675 -0.083549455 -0.13913421 0.11271374 0.0034066734 0.23347497 -0.2871069 0.0036541405 -0.23602489 -0.3300896 0.0038757827 -0.10985155 -0.33682534 0.011184186 -0.16373011 0.19921081 -0.070086069 0.25301993 -0.040667925 0.30434349 0.35362172 -0.31296411 0.23976652 0.076316409 0.085056201 0.062931478 -0.018985262 0.28105927 0.084951326 -0.008881202 0.085461326 -0.027694127 0.14609554 -0.0078455443 0.051262651
向 0.35284737 -0.31519336 0.054944891 0.098397486 0.12320693 -0.22548985 -0.024816789 0.20125668 0.1289321 0.33300981 0.33401537 -0.49855599 -0.44001392 -0.0022381081 0.30689186 0.23088975 0.13435479 -0.52039248 0.17704587 0.11081374 0.11116277 -0.042155571 0.022811132 -0.29871583 -0.092053279 0.36276266 0.0296208 0.28566125 -0.34573105 0.1937964 0.037557881 0.016679993 0.011109742 0.21616106 -0.51190513 0.019238064 -0.3016564 0.12251243 0.12180446 -0.073270418 -0.18657003 0.06692268 0.066378035 -0.016300337 -0.41410568 -0.096949585 0.14210628 -0.17473212 0.17936589 -0.12207641 -0.13076504 0.053991646 0.21083517 -0.093959294 0.10490043 0.10834739 0.014853643 -0.3509697 0.26419577 0.19677053 -0.063546896 0.3206999 -0.090439275 -0.0089324526 0.03584148 -0.060344107 -0.38480529 0.094916284 -0.020876586 -0.43014574 -0.15414724 0.1689343 -0.0036226232 0.24800156 -0.27352121 0.33427736 -0.075727753 -0.42025658 0.27567875 -0.34048897 0.10256243 0.072495691 0.11855765 0.15783855 0.19079223 0.45813215 -0.32045427 0.043668807 -0.42441145 -0.031699181 0.38300741 0.26007622 -0.09618751 0.25840107 -0.052673783 0.27674517 -0.17869319 0.11060236 -0.24166423 0.28189188
受 0.3158032 -0.34854969 0.40952376 -0.3178452 0.068545662 -0.14882261 -0.085951366 -0.13693896 0.024267333 0.45433804 0.37505817 -0.26048261 -0.18929657 0.14960031 0.16449863 0.28592494 0.0030899681 -0.50181478 0.15753724 0.55727065 -0.080467246 0.10712439 -0.12783243 0.22993571 0.074530892 0.068644121 -0.68063408 0.40735015 -0.12052925 0.066727981 0.064592138 0.011769995 0.37079296 -0.034480374 -0.10513875 -0.38485816 -0.056615848 0.34398267 -0.10638282 -0.19432309 -0.36294353 0.23336977 0.10068059 0.3137776 -0.26782188 -0.014268126 0.2377537 -0.36356467 0.17452972 -0.29008749 0.31353 -0.27454469 0.020873658 -0.21979855 -0.20311606 0.010702238 -0.082096159 -0.14554651 -0.085553326 0.30685306 0.11346645 0.0013860487 -0.10367081 -0.12854867 -0.092685379 -0.31531197 -0.21325147 -0.105579 0.21211277 0.047812164 0.27677986 -0.034602404 0.15108448 -0.040494435 -0.38312384 0.28888902 0.14057523 -0.23057918 -0.077997908 0.017576851 -0.16308099 0.028153421 0.15136401 -0.080051184 0.089882597 -0.06398645 0.19290431 0.18299003 -0.19666924 0.087504037 0.04139873 -0.33211744 0.090701073 -0.17860954 -0.37455985 0.063626587 -0.083306067 0.37685856 -0.057277933 -0.0027928064
资源 -0.20506439 0.057864528 0.3549656 0.037629284 0.35986254 0.088791728 0.043216623 0.057390533 -0.050561532 0.24343586 -0.053076345 -0.38002104 -0.20809993 0.20633912 0.55001879 -0.055734757 0.1678281 -0.70522678 0.21929811 0.39969167 -0.10712613 -0.14844716 0.36989558 0.10213753 0.11283839 0.29410186 -0.028936852 -0.16653298 0.35715801 -0.045543164 -0.18837112 -0.20368749 0.033586733 0.33667266 0.021581357 -0.35389522 -0.068659812 0.46983999 -0.094737791 -0.10623625 -0.62928832 -0.14765149 0.026644656 0.041444875 -0.31719831 -0.092391357 -0.0080214972 -0.35320795 0.49805492 -0.5750047 -0.014032851 0.080375567 -0.23700187 0.10607366 -0.38885432 0.062027838 0.3434585 -0.21164414 -0.081506401 0.16182336 0.40832236 0.3931132 -0.30208406 -0.45584565 -0.29516023 -0.23813628 -0.60972518 -0.23772295 -0.10756698 -0.060162067 0.08933349 -0.35362214 0.10412873 -0.53862613 -0.42853066 0.20132834 -0.038586009 -0.52839565 0.012410042 -0.29275408 -0.18950173 0.17239794 0.23264483 -0.26315019 -0.34651875 0.52109015 -0.084550641 0.27639198 -0.054256443 -0.042696003 -0.12982716 -0.094618134 0.24626118 -0.060784455 0.29794458 -0.31022173 0.20106238 0.21227476 0.24526224 0.032216985
产业 0.35901579 -0.15599927 0.27544624 -0.10769521 0.039898083 0.04462048 -0.18538179 0.23408438 -0.15898947 0.52508521 0.10938462 -0.44182798 -0.14105693 0.3199085 0.24122149 0.14407045 0.16750346 -0.34637499 0.22113532 0.26729742 0.083884768 -0.03397515 -0.039496481 -0.03173586 -0.18592381 0.35798591 -0.095789053 0.4025417 -0.16568804 0.2797507 0.036203291 0.12603149 0.215701 0.18397892 -0.24590935 -0.16831633 -0.15700743 0.41654348 -0.019831859 -0.29219595 -0.32919371 0.24565206 0.07879398 0.13619103 -0.50242913 -0.2764633 -0.15802331 -0.27970952 0.39132619 -0.26083988 0.031359579 0.15390067 0.014803751 0.044081531 0.075014785 0.034233086 -0.2476503 -0.011828843 0.30182651 0.27531648 -0.019858073 0.10961812 -0.29169622 -0.13259728 0.18055777 -0.2398507 -0.13461103 0.064445116 0.24352542 -0.4199163 -0.014440815 0.028151948 0.1927485 0.3312054 -0.051900368 0.20367004 -0.07273683 -0.41977775 -0.16324772 -0.010375055 -0.23981363 -0.33578354 0.23419511 -0.24277897 -0.16625157 0.33373985 -0.15252852 0.16934597 -0.3851687 -0.16431658 0.10268774 -0.017253058 -0.15720433 0.16458391 -0.12401138 0.20760487 -0.045485996 0.090629198 -0.056475665 0.22493969
加工 0.2494483 -0.12157983 0.13548027 0.024367817 0.069621138 0.49285728 -0.050075162 0.28681794 0.20835608 0.55540043 -0.10377186 -0.40591574 -0.27605507 -0.060610551 0.28827986 0.18087256 -0.2086886 -0.46452516 0.19092478 -0.2915583 0.12325037 -0.01795603 0.071155742 0.39260364 0.10375872 -0.062531553 0.31006262 0.32890782 0.22687237 0.090304106 -0.28793329 -0.3402724 0.20749657 0.46802825 -0.25912684 -0.1070365 0.055205312 -0.12413242 0.048674278 -0.3454425 -0.83572841 -0.025833154 0.18332873 0.25864661 -0.22699994 0.15003583 0.018313125 -0.18668433 0.30782256 -0.12472728 0.17661354 0.27830601 -0.14319885 -0.21574154 -0.047780566 0.39378574 0.47387764 0.43135256 -0.051771078 -0.17426436 0.13865864 0.20143221 -0.28262565 -0.35720116 -0.091005206 -0.0095359543 -0.30192196 -0.064514183 0.32526496 -0.035618845 -0.1170143 -0.22164747 0.26657751 0.52454168 0.080576643 -0.35449514 0.21466501 -0.20928738 0.027789535 -0.11606544 -0.45965162 -0.14489192 0.58031261 -0.42732695 0.52250385 0.37673971 -0.18318869 0.36475244 -0.20271039 -0.39431733 -0.030465882 -0.20982179 0.19173968 0.51935863 -0.010353157 -0.033206753 -0.2056424 0.59606189 0.19856106 0.26856986
以及 0.14433019 -0.091085635 0.30674833 0.12487888 -0.15972683 -0.10010809 -0.13981938 -0.16986462 0.077784009 0.51011342 0.1207225 -0.090218961 -0.24985877 -0.12504941 0.20423289 0.071871705 -0.10151258 -0.22295414 0.042469297 0.18921362 0.075439624 -0.059754234 0.11944043 0.11880748 -0.022976371 0.17658097 -0.013782628 0.28337291 0.21794035 0.23522532 0.047725573 -0.083041124 0.055512395 0.031874347 0.051232222 -0.21313705 -0.16996358 0.30687907 0.0095184632 -0.25849202 -0.38141257 0.20144951 -0.23707536 0.054658327 -0.23422703 -0.12523444 0.013857109 -0.11106034 0.41356313 -0.20419928 0.049753986 0.1082335 0.020422015 -0.090633914 -0.041589547 -0.14376619 0.12708108 0.048141439 -0.17596787 0.20799877 -0.092020214 0.33091038 -0.41500503 -0.18429913 0.10484366 -0.30280378 -0.086357459 0.05676071 0.27435815 0.050855018 0.22598232 -0.20385155 -0.03386892 -0.15380007 -0.017434942 -0.038063914 -0.052673209 -0.33836982 -0.28282648 -0.25110722 -0.38613766 -0.0080411481 0.15820442 -0.15224721 0.028582213 0.078843713 0.15440983 0.20695479 -0.17926209 0.15628874 -0.22118719 0.059005383 -0.012823133 -0.057168067 0.12932901 0.14493932 0.0058851382 0.13253424 0.085597999 0.12056886
其 0.16473196 -0.21819544 0.5126971 -0.30997878 -0.045163285 -0.031409793 -0.10111451 -0.1845613 0.24361567 0.43026847 0.48846471 0.044952825 -0.31824735 -0.15070097 0.091255747 0.16029583 0.062824272 -0.34197602 -0.16132049 0.15792458 0.26340225 0.20639317 0.020725744 -0.066859819 0.090827264 -0.048993614 -0.38873005 0.48290071 -0.11743914 0.030676885 0.18929376 0.048581671 0.39522198 0.027983466 -0.111885 0.10113765 -0.059608888 0.33710903 0.099396847 0.15590632 -0.067357689 0.27909353 0.13184559 0.088085979 -0.05681704 -0.048964169 0.2264009 -0.12864394 0.22406675 -0.14477007 -0.11937224 -0.039215401 0.11321189 -0.08703547 0.15896665 0.10828508 0.077098675 -0.084604219 -0.087768234 -0.029038362 0.065285668 0.14004077 -0.23822045 -0.066224717 -0.3377679 0.13208739 -0.14143936 -0.27134004 -0.045442872 0.051086735 0.050926313 0.13992199 -0.02767813 0.028692601 -0.069468632 0.14363077 0.22654705 -0.10998269 0.022095099 0.025839321 0.20238155 -0.44398886 -0.13650794 0.074828088 -0.014909549 0.19454917 0.14769971 0.06724003 -0.0028650439 0.26906762 0.098196432 -0.15515035 0.031904504 0.1643413 -0.23910698 0.17106928 -0.034143198 0.31079915 -0.093208209 -0.01303823
采购 -0.02105931 -0.0011275888 0.24383989 -0.010504568 0.14469889 -0.18222611 0.068159416 0.10302998 0.47723526 0.21256563 0.30524784 -0.075076535 -0.25017312 -0.32949671 -0.013605028 -0.30076745 -0.068786673 -0.7106787 0.0097983778 0.051536657 0.24842423 0.13865258 0.33746809 -0.098129138 -0.043509521 -0.10671553 0.061437953 0.19869943 0.15755947 -0.019638319 -0.10362094 -0.034429442 0.019693892 0.30079973 -0.014773162 -0.40723833 -0.13808425 0.11503193 0.28824952 0.037013195 -0.33107835 -0.035332587 0.042850621 0.25433952 0.031506769 -0.09894082 0.1505519 0.071067974 0.58470863 -0.00098810706 -0.30326244 0.21059373 -0.16193154 -0.23731315 0.20336187 -0.004630723 0.55146676 -0.21526213 -0.36518362 -0.35330594 0.18495402 0.6332202 -0.30122182 -0.54071438 -0.2247304 -0.085841373 -0.41290072 -0.25018111 0.095986299 -0.094054647 0.26984075 -0.36797601 -0.16386865 -0.39553502 -0.11249091 0.033123646 0.044215709 -0.45484033 0.26360694 -0.51290715 0.13604569 0.26997629 0.10375997 -0.11688344 0.097832188 0.30244166 -0.10137523 0.14112906 -0.25797111 0.30808654 0.098453633 -0.13440552 0.038809188 -0.060388517 -0.11964528 -0.013262135 0.02731128 0.40064028 -0.036316097 0.020681243
客户 0.015966492 -0.26238316 0.21501964 -0.092618212 0.12517785 -0.12109254 0.14169794 -0.10862742 -0.06199478 0.079981491 0.073508069 -0.10804216 -0.39596549 -0.44471285 0.27516657 -0.087292269 -0.030116659 -0.34760833 -0.091505803 0.21591964 -0.056972142 0.0097102178 0.24342999 0.15853292 0.1643158 -0.22680017 -0.14519094 0.011426191 0.2777679 0.14107546 0.032023951 -0.080548964 0.1794223 -0.24203873 -0.32158211 -0.11623999 -0.031148449 0.2187251 -0.18498515 0.033421073 -0.35832784 0.23020478 0.019595649 0.017963583 0.010866099 -0.023411039 0.27158597 -0.50185096 0.3548021 -0.43883178 -0.12915891 0.1844992 0.080115452 0.24490462 -0.068365462 0.07402043 0.14988409 -0.33346349 -0.022171659 -0.11825041 0.25724092 0.30251274 0.038330331 -0.041566737 -0.38587463 -0.087121531 -0.26191598 -0.39203548 0.010164648 0.064978652 0.36963898 -0.11245002 -0.00069458946 -0.66039002 -0.45063999 0.37973598 0.026652494 -0.40107137 -0.17248362 -0.058003414 0.30488205 -0.086790487 0.1654568 -0.065476529 -0.047233608 0.39279428 -0.27054226 0.26229841 0.2082877 0.1808968 0.026879396 0.018822763 0.40284169 -0.0437552 0.14071062 -0.027981818 0.065188326 -0.017771784 0.070426784 0.008617538
由于 0.34343633 -0.43570653 0.3266837 -0.25232238 0.046707943 0.033665076 0.086448908 0.11172033 0.24745716 0.48624593 0.3151373 -0.064275749 -0.25378308 -0.044456623 0.1361454 0.25193903 -0.01626879 -0.30161285 0.1371025 0.25791568 -0.0073836213 0.17338261 -0.018608341 0.093335509 0.086198695 -0.23981568 -0.504924 0.31780085 -0.14170671 -0.052943204 0.12575501 -0.12196542 0.4190346 -0.02136687 -0.29663005 -0.065409988 -0.11500145 0.27976292 -0.068335511 -0.12267668 -0.20929644 0.17567164 0.057992831 0.22178341 -0.2869446 -0.025092226 0.1794747 -0.17177579 0.079514094 -0.19108742 -0.091468178 -0.15660955 -0.094209805 -0.17017956 0.0098227831 0.079300493 0.17759529 0.22637318 -0.14010213 0.035498831 0.17983645 0.029838938 -0.016220413 0.0074573499 -0.31521508 0.09908545 -0.2877923 -0.14785838 0.074723355 -0.15765496 0.0028469602 0.16280195 0.14645523 0.19133498 -0.23449321 0.099402294 0.13789842 -0.0036829854 0.078485817 -0.0064569619 -0.040555827 -0.09646932 0.13965343 0.0197575 0.27306968 0.058641367 0.10476481 0.28752476 -0.17499563 0.12258788 0.16101347 -0.22360273 -0.047023393 0.067458734 -0.31855774 0.0012917368 -0.098668985 0.36588618 -0.0060580187 0.093368888
合作 0.15252769 -0.23005164 0.27437201 0.027904458 0.30613208 -0.22869362 0.27647129 -0.14053793 -0.016918113 0.41934645 0.42459217 0.018850643 -0.19614239 0.17619276 0.072830528 -0.09931653 0.31196386 -0.46805549 0.39608869 0.68372256 0.14415179 -0.038526528 0.19224918 -0.10873052 -0.17239033 -0.31671667 -0.27464366 0.19180475 -0.27162331 0.22046123 0.093757838 -0.13054454 0.11153736 0.2202933 -0.05698134 -0.36023849 -0.10675934 0.6122846 -0.072623864 -0.21961051 -0.10882565 -0.15980263 -0.36228123 -0.089965843 -0.23194459 -0.22464585 0.093651265 -0.29172316 0.37292808 -0.59843653 -0.31912041 -0.17079529 -0.45951423 0.088954307 0.011749108 -0.067324102 0.2702336 0.014239393 -0.15282823 0.088760249 0.22804111 0.41015601 -0.060953621 -0.038129486 -0.4879168 0.080972426 -0.38051713 -0.21512438 -0.19064426 -0.30091667 -0.016380869 0.072920449 0.0073138988 -0.5612793 -0.40782991 0.28589725 -0.42945826 -0.21190681 -0.026312737 -0.24604367 0.26057118 0.14641474 -0.37803143 0.24911046 -0.03343847 0.31532732 -0.15698302 0.21570069 -0.41419643 0.35689324 0.019659329 0.14750677 -0.076946549 0.029277135 0.059912585 -0.025944939 0.36066782 0.054025747 0.08460559 0.30117685
终端 0.041931622 -0.52154338 0.28215206 0.16320452 0.33893478 -0.11495187 0.18050475 -0.12314925 0.045685925 0.29495674 -0.089512378 -0.29970407 -0.23474061 -0.16334572 0.19969137 -0.045222808 0.1109098 -0.55683094 -0.021419486 -0.057923041 0.044719845 -0.20488113 0.40117294 0.31982705 0.028422939 0.10835761 0.11585894 -0.12227768 0.31690314 -0.17074628 -0.093843989 0.092092507 0.048793372 0.038187925 -0.35542914 -0.17340322 -0.16417605 0.3913646 -0.049377706 -0.21912137 -0.60233504 -0.066904604 -0.041747384 0.11338162 -0.30816206 -0.14581142 0.23259407 -0.35812408 0.24347886 -0.46602824 -0.10368048 -0.014970418 0.099120624 0.34214696 -0.14878397 0.29066107 0.046982341 0.018084191 0.081591293 0.22281063 0.20314783 0.024913311 -0.34428722 -0.40112934 -0.31088781 -0.32541391 -0.4148156 -0.14715801 -0.19602853 0.0040423186 0.20983598 -0.62697327 -0.10824499 -0.3957741 -0.55213118 0.32844394 -0.17112494 -0.43125686 0.13745087 -0.16035485 -0.099570058 -0.045661516 0.23594782 -0.51115441 -0.15075019 0.57833225 -0.34358266 0.39799932 0.28423455 0.47188392 -0.3685517 -0.11497848 0.4196853 -0.22983629 -0.11543799 -0.017620586 0.072898462 -0.036399197 0.049714763 0.088973098
主要 0.29317376 -0.42715231 0.42290539 -0.16067974 -0.075512804 -0.11859454 0.11105938 -0.003673543 0.33984646 0.41843277 0.20197849 -0.038776036 -0.45178053 -0.2526015 0.50917298 0.35371253 -0.19616836 -0.21109381 0.10530286 0.12065618 0.019649055 0.10813196 -0.08756762 0.075091705 0.17218924 0.1343731 -0.3259466 0.2454146 -0.057606999 0.023182128 -0.02117895 -0.038486395 0.31546357 -0.15706261 -0.36360693 0.25322965 -0.063831612 0.16649047 -0.18889369 -0.15830123 -0.36543876 0.16372891 -0.017599892 -0.029925924 -0.11940628 0.25810966 0.26348075 -0.23909229 -0.28929073 -0.17041187 0.019066555 -0.063861735 0.45636588 0.068679862 -0.06781216 0.34582448 0.29460272 0.040027604 -0.28007638 -0.094474018 0.025833365 -0.037661012 -0.014790674 0.21075149 -0.31978235 0.062315471 -0.37258503 -0.10562228 0.10463861 0.084575906 -0.15598737 0.0057566538 -0.12082827 -0.16439115 -0.20751619 0.063505866 0.25485229 -0.076325454 0.0039878222 -0.03912789 -0.10671819 -0.071006514 0.2986944 -0.064792253 0.27962118 0.29954356 0.10221694 0.19252467 -0.093122885 0.22754748 0.053925 -0.40467611 0.17143852 0.29476461 -0.10593806 -0.028334765 -0.072027639 0.43647552 0.058983762 0.003761085
中游 0.19726241 -0.25584805 -0.22320212 0.12294964 0.39065239 0.52111113 -0.28929889 -0.3315542 -0.17143227 0.37894639 -0.19362487 -0.72000879 -0.25687554 0.26514414 0.0083939051 0.06220492 0.13834117 -0.62055331 0.25514033 -0.12331923 0.035875309 0.073995665 0.32022414 0.3075166 -0.062992141 0.004906429 0.39298195 0.53854233 0.13954096 0.14354569 -0.52850956 -0.3680931 -0.10134976 0.46742454 -0.38427928 -0.30485591 0.17397346 -0.15176043 0.11977 -0.28932962 -0.83970976 -0.38484651 0.11318948 -0.053665228 -0.58340532 -0.046258546 -0.054265875 -0.35635138 0.5410375 -0.41130644 0.25924015 0.5370478 -0.31925943 0.29646185 -0.083252363 0.49741721 0.43767342 0.17104857 0.32369024 0.1112937 0.25852612 0.12025402 -0.17311409 -0.32919714 -0.095935665 -0.069547579 -0.2382111 -0.20427437 0.37752816 -0.083226651 -0.16336173 -0.22908446 0.27257171 0.58745849 -0.26946077 -0.2918376 -0.39845788 -0.45973828 -0.33017123 0.093400493 -0.47972769 -0.045945052 0.17434214 -0.54216689 0.30099022 0.48521209 -0.4002412 0.28666952 -0.17705096 -0.13756208 0.034288276 0.012649443 0.14030348 0.59864843 0.41010532 0.39411339 0.14107437 0.36345756 0.32975137 0.3844555
产能 0.35247201 -0.30847764 0.55880791 -0.22912601 0.19563405 -0.029055942 -0.14032333 0.18520986 0.27832654 0.62973183 0.23195793 -0.24408974 -0.15297849 0.23459014 0.16800955 0.36174524 0.11531744 -0.64497489 0.16257948 0.33322948 0.041230995 0.23290826 -0.063624978 0.31642383 0.0069221887 -0.12780614 -0.47688782 0.36006328 0.18560442 -0.28859362 -0.032658823 -0.16721275 0.66747659 0.23865809 -0.017600881 -0.3228761 0.065814599 0.40322965 0.09132985 -0.3603754 -0.49785429 0.18406881 0.32039392 0.42342362 -0.35153309 -0.040448692 0.15682031 -0.16409689 0.31549251 -0.051433194 0.16684513 -0.23388046 -0.11713618 -0.44703558 -0.31676561 -0.039399169 -0.0066151 0.34433752 -0.25951529 0.30426911 0.2355053 -0.044252302 -0.22121887 -0.48304194 -0.038455676 -0.14464721 -0.39457807 -0.1732709 0.064194582 -0.093050152 0.073907584 0.0054323738 0.35215905 0.3979378 -0.12010162 0.062647045 0.39207509 -0.096670799 0.21816543 0.070756137 -0.45740765 -0.041739061 0.3166869 -0.30813512 0.066317841 -0.017145947 0.30599079 0.280965 -0.38219878 0.021641294 -0.0054413402 -0.39597136 -0.13418274 -0.12902613 -0.54964703 -0.023870446 -0.16613008 0.45083761 0.058841027 0.12350713
厂商 0.23823705 -0.52612722 0.060255501 -0.14250559 0.11738531 -0.18865916 -0.016396089 -0.42324033 0.22953367 0.33051747 0.36923358 -0.23134963 -0.55446213 -0.42388728 -0.27390379 -0.19347215 -0.058094643 -0.4621172 0.16487825 0.047041733 0.29421803 0.23745163 -0.034525525 -0.13189541 -0.14100884 -0.43285432 -0.42680973 0.27952352 -0.22234595 0.018773112 -0.32576832 -0.060889851 0.20946932 -0.25099692 -0.30431199 0.016730394 0.16291304 0.027755601 0.053317279 0.077848867 0.23157759 -0.0096008489 -0.077536888 0.094478361 -0.18686792 -0.26733616 0.4078427 -0.47075096 0.28030503 -0.21571164 -0.34798959 0.227654 0.033310734 0.078044638 0.19150336 0.33776739 0.22435522 -0.02055287 -0.076715276 -0.0049146707 0.096787825 0.16121934 0.24874669 0.2534492 -0.4247081 -0.0042982455 -0.48614389 -0.13973726 -0.083053075 0.094028473 0.020941537 0.28877807 0.17360598 -0.29106891 -0.44994226 0.14291172 -0.30876452 -0.19611461 0.14874224 -0.14586784 0.26187697 0.10414002 -0.12239378 0.30919725 0.38555688 0.27828044 -0.14541389 0.26789853 -0.30929774 0.42743573 0.29184535 0.043974966 0.1356782 0.14240055 0.25307888 0.12678127 0.053963847 0.20023915 0.05604586 0.14086045
电池 0.23960494 -0.96673137 0.0069589908 -0.2786389 0.3222532 0.029011896 -0.13717064 -0.4748064 0.1194023 0.40503013 0.0079929084 -0.31822217 -0.81197333 -0.60000867 -0.40228701 -0.25311965 -0.11415005 -0.78272408 0.12023251 -0.18741097 -0.10288183 0.5239768 -0.16248229 0.18819235 0.14469232 -0.38899994 -0.39492273 0.68576622 -0.12897268 0.034669384 -0.24342799 -0.2057441 0.060069524 -0.41018426 -0.57280529 -0.14807595 0.3156625 -0.21513452 -0.11353519 0.24198104 0.1446415 0.16317867 0.075721405 0.35013911 -0.30943432 -0.15440698 0.18448204 -0.45882154 0.18429132 -0.21897191 0.14626177 0.21846531 0.15376352 0.32081476 0.030250268 0.27519089 0.23843098 -0.14707555 0.29156446 0.14757381 0.037228245 -0.019855633 0.38321111 0.40256494 -0.10028253 -0.21113504 -0.42147279 -0.012520353 0.0011346856 0.026000705 0.098473355 0.57469034 0.37077221 0.040116351 -0.048434891 0.17152181 -0.12318704 -0.55811596 -0.15116002 0.24033529 -0.0050343461 0.13923669 0.17411548 0.09414757 0.63052422 0.31088877 -0.062546492 0.30680346 -0.38771072 0.060184795 0.47157496 -0.030253047 0.21566263 0.36529687 0.20553091 0.29586655 -0.30033076 0.56916726 0.084393971 0.13434865
材料 0.71153587 -0.089162752 0.008327581 -0.2024705 -0.075136669 -0.23135579 -0.015359867 -0.55062175 -0.12051056 0.16258134 0.18638739 -0.55678546 -0.75948471 -0.28335848 0.22404438 0.11557905 -0.2866804 -0.52506745 -0.037551742 0.45375079 -0.19219045 0.06244956 -0.5207867 -0.09204185 0.085240752 0.074299626 -0.26928055 0.53005236 0.029537408 0.20432568 -0.51336402 -0.22217619 -0.091967851 -0.32003352 -0.11880013 0.10026344 0.31906974 -0.068292856 -0.47315866 0.1121519 0.028460521 0.11910818 0.34880507 -0.2529726 -0.2868022 0.28062338 0.33383319 -0.68156022 0.29112378 -0.15594731 0.50294316 0.32152405 0.32557654 0.17053352 -0.017214876 0.10432158 -0.050066546 -0.08623416 -0.050730105 -0.059921216 -0.22310984 -0.047943182 0.044568211 0.71872938 -0.21646352 -0.25724795 -0.48215979 -0.19328423 0.51873177 0.13587564 -0.28829533 0.48803285 -0.048848614 -0.29757503 -0.28522888 0.23219907 -0.21134749 -0.23970744 -0.19493349 0.33423954 -0.090837725 0.19315694 -0.13723926 0.073431663 0.40130803 0.090674736 -0.10803621 -0.48940039 -0.38107479 -0.067672379 0.4584814 0.060694791 0.065753162 0.74754733 0.58620268 0.29715264 -0.31251258 0.46832356 0.19418687 0.41578227
延伸 0.41373959 -0.29481739 0.29446197 0.01929616 0.1239894 -0.11000564 0.077434562 0.30553105 0.21318874 0.3948012 0.29457912 -0.47735101 -0.29271343 0.12983799 0.44622764 0.3526102 0.27811831 -0.47392365 0.38281465 0.11193534 0.10046954 -0.13165115 0.14497291 -0.3655549 -0.048653141 0.7123366 0.13370913 0.2438422 -0.37696764 0.26446986 0.077829577 -0.11865293 0.080863908 0.57131445 -0.5840354 0.14104402 -0.35317186 0.2237611 0.19799282 -0.12055294 -0.18779759 -0.06108145 0.1259578 -0.10127829 -0.46558216 -0.058939569 -0.023880417 -0.061485671 0.1688787 -0.18023024 -0.0033284151 0.10648354 0.086523987 0.02310368 0.13734533 0.20890683 0.16381584 -0.24950084 0.27610862 0.17226826 -0.011474703 0.6265499 -0.15851368 0.014929889 0.19581249 -0.010679442 -0.32029605 0.13033512 0.033139519 -0.52734596 -0.24773574 0.25998595 0.085209616 0.38355264 0.0020719056 0.19631831 -0.010047037 -0.4887026 0.29310629 -0.27375606 0.077601336 -0.1548879 0.20470987 0.1006514 0.1332994 0.61616069 -0.30055264 -0.0030260484 -0.47668692 -0.22435299 0.43412969 0.13663106 -0.16148169 0.39573288 -0.058763105 0.29769021 -0.080931403 0.24994123 -0.3063632 0.3025634
电子 0.0012905395 -0.69873321 0.62668979 -0.29378951 0.0098341722 -0.033036646 -0.073116794 -0.30604026 0.32719028 0.54714942 0.27219462 -0.049350139 -0.59859776 -0.60619348 -0.39359549 -0.50244504 -0.43002591 -0.57621145 0.21647631 -0.12853043 0.24569739 0.2938512 0.004108089 -0.11768498 -0.16959715 0.10000645 -0.61756247 0.65523273 -0.094207354 0.12640846 0.038923491 -0.085883521 0.48641971 -0.26427689 0.025363 0.0062655159 0.24466509 0.449507 0.283005 0.15383619 0.23282184 0.57728076 -0.39313194 0.5130567 0.027801691 -0.15487687 -0.1412688 -0.10357427 0.17715099 -0.29391113 -0.31824124 0.12279458 0.1343133 0.26419401 0.047907211 0.21941291 0.19074708 0.087095492 0.0026470318 0.048021585 0.043811668 0.25089371 0.087971404 0.18067339 -0.085667938 -0.11717171 -0.15990251 0.021778831 -0.040210124 0.24011239 0.32056645 0.44598213 0.052741971 0.04969259 0.12459924 0.30895492 0.19076681 -0.38285631 -0.090918571 -0.0019650448 0.016048061 -0.019977748 -0.011338884 -0.017602338 0.15549573 0.37559247 0.27613515 0.32987276 -0.43471822 0.44732255 0.23397656 -0.16873577 -0.11092187 0.41981512 -0.078667291 0.70741117 -0.26965022 0.50834399 0.037596315 0.054157168
开发 0.44789359 0.23665006 0.17627512 0.10093087 -0.19329397 -0.026322467 -0.056405552 0.045800038 -0.051478066 0.46958232 -0.055810895 -0.27961558 -0.20156038 0.11920976 0.39319444 0.37316683 -0.16956285 -0.36896139 0.13011986 0.23143803 0.080424599 -0.45516029 0.2500256 0.031311911 0.0020850785 0.27019915 0.097029634 0.050752483 0.083532855 0.30552343 -0.27190283 -0.25044829 0.18730962 0.22525226 -0.11986423 0.060055189 -0.28557774 0.13689354 -0.092100859 -0.47666797 -0.27925518 0.15574938 -0.067374855 -0.025633452 -0.40302685 -0.030339185 0.11922333 -0.23042315 0.55339581 -0.23253681 0.029824575 0.31855652 -0.13233507 -0.21827938 -0.08998853 0.11423281 0.25834087 0.23679616 -0.032975163 0.147882 -0.027763871 0.41922784 -0.22727598 -0.040155217 0.066963047 0.20534761 -0.3669405 -0.10241371 0.42265004 -0.31964201 -0.21976018 0.1955234 0.075864322 -0.0028641126 -0.21371914 -0.2208617 -0.11354157 -0.15365629 -0.09717118 -0.36541694 -0.23057227 -0.043926846 0.14181663 -0.10510354 0.13039894 0.18439016 -0.37378225 0.12324867 -0.4664557 -0.38185048 0.022288952 0.4287948 -0.15291646 0.42807364 0.33625594 -0.02680457 0.12932393 -0.066617705 0.017784566 0.4104256
通过 0.025249807 0.073916629 0.27633888 0.17467427 0.025676876 -0.12604448 -0.053708088 -0.060179103 0.16912702 0.11648107 0.055665907 -0.12675653 -0.19934835 0.00087566557 0.14568318 -0.073493883 -0.11476215 -0.54651505 -0.06287384 0.03359488 0.22228527 -0.15057544 0.2106289 0.01478135 0.16353044 -0.14532554 0.31800377 0.1183024 0.23816137 0.081754535 -0.21654883 -0.0088488013 0.00014694083 0.46185872 0.083611339 -0.14964241 -0.095743008 0.13493811 0.018108182 -0.25592613 -0.33314091 -0.070530437 -0.053110939 -0.027254041 -0.11741338 0.020559467 0.14777397 0.0017218634 0.81729674 -0.1414382 -0.14063519 0.14820111 -0.069893599 -0.11395073 0.0030013626 0.0087425699 0.36335659 -0.015451293 -0.16241904 -0.085185975 0.0013729486 0.39483345 -0.46869603 -0.37625322 -0.077098489 -0.18552932 -0.40650907 -0.17466065 0.059530292 0.010672004 0.073212385 -0.2649444 -0.14982206 -0.19528496 -0.14097847 -0.097055197 0.029274343 -0.33402231 -0.047870278 -0.33993322 -0.10141899 0.10041451 0.0056499029 -0.15887195 0.024390893 0.29493967 -0.06974598 0.078556396 -0.1436101 0.083555527 -0.093265586 0.079886213 0.26872274 0.077193558 0.20571579 -0.078656696 0.0425139 0.23165651 0.18280824 0.17947145
到 0.12995572 0.060711619 0.051263269 0.042735107 0.064579874 0.20511763 -0.0051768026 0.27476031 0.43770519 0.53935295 -0.034471065 -0.26078728 -0.33965582 -0.17483529 0.30078605 -0.099003367 -0.17635344 -0.64574504 -0.055685554 -0.19977286 -0.022121239 0.22154486 0.16088714 0.19590174 0.12660827 0.069696799 0.18396281 0.49560174 0.11404669 0.14800169 -0.23397395 -0.060775265 0.060324647 0.22449149 -0.29293621 -0.3438915 -0.078852251 -0.20559447 0.14726299 -0.044072445 -0.7461614 0.077243611 0.11530557 0.25504345 -0.20872837 0.06814988 -0.15881982 0.033852719 0.41282022 -0.010286865 -0.020838087 0.33282059 -0.12301973 -0.25083956 0.21827386 0.11331546 0.62303782 -0.13697903 -0.052545726 -0.32916862 0.13060462 0.41301352 -0.33404011 -0.43697262 -0.17708798 -0.044481747 -0.35103172 -0.084391445 0.40434754 -0.071228705 0.021612106 -0.34593186 -0.0081024431 0.11636195 0.0724122 -0.26412168 0.21746331 -0.34725818 0.042723842 -0.37660053 -0.40956151 0.23912536 0.3917425 -0.41471449 0.27345011 0.12542483 -0.040209565 0.25220597 -0.24406125 -0.11946685 -0.15440896 -0.14783116 0.02740493 0.14509487 0.050883137 -0.069997147 -0.18906902 0.61573511 0.13044488 0.12781355
从 0.092570454 -0.0068231886 0.15134926 0.11027537 0.07643982 0.29274166 -0.12264777 0.091415271 0.37739646 0.49986869 -0.014775258 -0.22150514 -0.29226637 -0.097777545 0.34595472 -0.11353516 0.039426018 -0.74649721 0.042054649 -0.079282001 0.22750524 0.15788999 0.22511195 0.059756428 0.056500368 0.18504316 0.2150812 0.55963624 0.13194183 0.15722904 -0.2365045 -0.10104296 -0.0057574906 0.34114248 -0.29942414 -0.23770852 0.0067232032 -0.10464724 0.29934505 -0.070933804 -0.59309757 -0.08819519 0.11742315 0.096117869 -0.21220519 0.00092048768 -0.096302897 0.032797884 0.31296173 0.016428422 -0.10596377 0.48851255 -0.048991013 0.02433002 0.20340243 0.22398336 0.4892056 -0.16295974 0.11392715 -0.11214578 0.20252916 0.40636462 -0.33577958 -0.48122096 0.01199443 -0.02582917 -0.36141479 -0.0054301405 0.21742785 -0.13414899 -0.11897156 -0.13269673 0.05966416 0.069470257 0.058501434 -0.10101546 0.04880425 -0.41271257 0.079602115 -0.36315441 -0.31074408 -0.052653383 0.26887742 -0.33193552 0.14191787 0.3943941 -0.24660419 0.22196816 -0.27184874 -0.15939328 -0.0048103323 -0.08686322 -0.0372562 0.29104859 0.22712672 0.037546508 -0.11492879 0.48148569 0.10795574 0.14915866
技术 0.48190883 0.14506082 0.24565938 -0.056133568 -0.1803889 -0.096691474 0.085160635 -0.14328922 0.0064665042 0.60495776 -0.07500764 -0.2093661 -0.18467398 -0.074553482 0.12539589 0.12499722 -0.25172275 -0.25342861 0.2327251 0.36995149 -0.025002632 -0.1428996 -0.042490758 0.016351853 -0.097686924 -0.3722975 -0.3017157 0.15365988 0.039104834 0.21208534 -0.39066064 -0.22229774 0.42623383 -0.23239975 -0.19916481 0.16875824 -0.07939893 0.11408857 -0.26777691 -0.46574816 0.22602765 0.15368907 -0.15944625 -0.052417394 -0.46749097 -0.19551168 0.028120905 -0.40909836 0.66363192 -0.26632357 -0.31013921 0.4984608 -0.16818392 -0.041644756 0.060010321 0.0067668208 0.22404803 0.50982553 -0.12402792 0.14728107 -0.016492324 0.11876023 -0.0080544306 0.24078442 0.0010028108 0.23002632 -0.3422446 -0.27384204 0.42834941 -0.25061607 -0.014687661 0.43075517 0.15177494 -0.15416729 -0.20973258 -0.14211711 -0.44273156 -0.024787009 -0.21418105 0.027695948 -0.17568977 -0.042226698 0.063672356 -0.012731512 0.21662706 0.074650712 -0.34207606 0.37663412 -0.34246454 -0.20951904 0.018688941 0.48110414 -0.070627995 0.26885349 0.2831465 -0.092773303 0.22916676 0.023835145 0.1331408 0.43757182
制造 0.28825638 -0.79261374 0.071747519 -0.091768779 0.32638726 0.34646681 0.019572843 -0.25512859 0.010168429 0.3038139 0.2781066 -0.35874006 -0.5157066 -0.22341393 -0.14891192 -0.13900228 0.14885888 -0.52141422 0.23479271 -0.24308351 0.21674101 0.019031601 0.24974234 0.056596 -0.17565604 -0.056904711 0.042898033 0.58567923 -0.16572502 0.029844757 -0.1687028 -0.1014188 0.022639727 0.19453952 -0.35474402 -0.24600512 0.1759046 0.1693213 0.33357212 -0.027047681 -0.31942663 -0.19502203 0.082474992 0.17319269 -0.15020686 -0.19023213 0.27485651 -0.33768821 0.054516949 -0.30353302 -0.015285872 0.18418506 -0.16016343 0.20167083 0.16941887 0.29739711 0.05310791 0.080581889 0.32995597 0.043177348 0.064125553 0.075145543 -0.095004968 -0.15212093 -0.26457271 0.068224758 -0.16186377 -0.0018388294 -0.1679799 -0.05857335 -0.02835357 -0.097691871 0.15504825 0.43144861 -0.16023664 0.10461144 -0.25592113 -0.27653581 0.054455008 0.13450125 0.053021152 -0.28349504 -0.099382214 -0.067892373 0.45593661 0.30846044 -0.2226133 0.094871163 -0.070507266 0.3741698 0.049746916 -0.017689774 0.034307715 0.5119105 0.057516735 0.48737681 -0.15235156 0.1915926 0.04138701 0.18599097
成本 0.29641643 -0.062390957 0.20123965 -0.49161363 0.11344901 -0.22393386 0.20930083 -0.029665535 0.23782869 0.12003502 0.21047704 -0.38852119 -0.29276261 -0.18305883 0.27883494 0.23925024 -0.00048201001 -0.42300829 0.11018015 0.38858798 -0.30921075 0.13175423 -0.03549958 -0.033912934 0.15693691 0.11205881 -0.32551461 0.13261296 -0.062282033 -0.091053538 -0.10957981 -0.15183756 0.0068756812 -0.024160147 -0.2101682 -0.15374343 -0.10092519 -0.15764794 -0.11078952 -0.076237202 -0.19114856 0.12925589 0.17868876 0.29144862 -0.12527356 0.077238508 0.081967555 -0.1441437 0.41311237 -0.082236066 0.27907714 -0.14354037 -0.12182517 -0.26283929 -0.01636868 -0.087984815 0.40438476 -0.25321269 -0.067006089 -0.056953084 0.085229598 0.29084432 -0.052611727 0.052337378 -0.14965801 -0.42179748 -0.32806307 -0.23960543 0.4928115 -0.055948637 0.22143105 -0.1300091 -0.24918729 0.034491841 -0.27452767 0.32312256 0.13585779 -0.36268702 0.073359169 -0.037843995 0.14364679 0.38737166 0.13349235 0.048275478 0.23606728 -0.017531138 -0.057696011 -0.015226101 -0.17185272 -0.14253624 0.33664978 -0.074464068 0.041706879 0.14666678 -0.21965566 0.080571219 -0.11658808 0.39309272 -0.036744498 0.091881558
包括 0.32433987 -0.28353727 0.58462572 -0.13448656 -0.21861321 0.23258439 0.13978241 -0.084570356 0.45378163 0.47841504 0.31316584 0.036110967 -0.48562589 -0.48037881 0.40534556 0.14718665 -0.19962911 -0.20355918 0.2221223 -0.079905063 0.23626773 -0.16400161 0.10227064 -0.10302719 0.084909245 0.12211867 -0.11122832 0.50733685 -0.028139777 0.17497067 0.10067826 -0.2421135 0.26902276 0.19373743 -0.14037046 0.22322536 0.020189386 0.25103679 0.11432263 -0.10443148 -0.25017518 0.12503694 -0.1199147 -0.14186481 0.2494642 0.18452519 0.13671495 -0.06340076 -0.18387142 -0.052509289 -0.097724587 0.21844083 0.1158453 0.04984973 0.14965022 0.25957704 0.52258718 0.28743666 -0.31710547 -0.17599544 0.020516036 0.24907562 -0.22981398 0.061725926 -0.25288713 0.34124029 -0.22473948 0.0014725601 0.23984146 0.13837269 -0.17240277 0.056980867 -0.027618907 0.099354006 0.12132721 -0.092459381 0.33916277 -0.11143942 -0.089286231 -0.070126384 -0.12611558 -0.36217546 0.058193106 0.017902914 0.35760435 0.3299267 0.17453155 0.014084388 -0.092295058 0.12293616 0.077839129 -0.26073194 -0.013423325 0.64530075 0.097543374 0.26088023 -0.15696591 0.46389517 0.025867296 0.11060853
情况 0.043754332 -0.57858616 0.40425348 -0.33126342 0.075492091 -0.23977587 0.19441439 -0.1000391 0.19557752 0.27854553 0.090124421 0.082032606 -0.28483227 -0.25632963 0.011250174 0.085495092 -0.04038937 -0.25297493 0.13773562 0.56323028 -0.0086960858 0.19068186 0.086491697 0.1805785 0.21561411 -0.34782001 -0.42610753 0.059105799 -0.21352118 -0.014875907 0.25976259 -0.27068564 0.28738159 -0.16054061 -0.25922367 -0.17277962 0.0057234024 0.4551293 -0.35428861 -0.14989835 -0.082455002 0.36001456 -0.34195545 0.13775958 -0.010604397 -0.10072151 0.19371994 -0.26134205 0.21332017 -0.50696874 -0.078995913 -0.41825041 -0.055137794 -0.0071454276 0.013015748 -0.01838392 0.35578677 0.16763836 -0.29117352 0.10840861 0.1497981 0.050229702 -0.00042120146 0.0034112791 -0.35720849 -0.34492633 -0.1479407 -0.11048913 -0.054736454 0.14888133 0.36992162 -0.12818605 0.1477105 -0.45137683 -0.43133777 0.35705969 0.23105608 -0.32599202 -0.070516452 -0.16345148 0.028963134 0.045136753 0.34026876 0.13696758 0.19257842 0.21204676 0.10521402 0.5654332 -0.071653679 0.16257168 -0.033342186 -0.22814725 0.36873457 -0.23575057 -0.35121101 -0.1230516 0.06259869 0.34773484 0.047907706 0.11695927
中 0.3435106 0.14817128 0.13670848 -0.35971519 0.16738553 -0.068120226 0.16570522 -0.13322194 0.016359432 0.27320349 0.057253052 -0.26004121 -0.22505224 0.04544396 -0.041814409 -0.0018664316 0.1211726 -0.34633261 0.25908399 0.0021380486 -0.24588422 0.23000285 -0.063004024 -0.09410686 -0.13041444 0.034688521 -0.32794991 0.21281007 -0.15650378 0.14748199 -0.11196069 -0.28456914 0.17551713 0.1543294 -0.29621643 -0.10351033 -0.23894808 -0.21268345 0.13520113 -0.020464066 -0.053070266 0.064316839 0.30820921 0.22380508 -0.39626369 0.27549684 -0.16251145 -0.05999615 0.27481273 -0.27899143 -0.005017417 -0.098429501 -0.23800004 0.12986685 0.14990367 0.23655045 0.23752353 -0.43150276 0.092118531 -0.068485223 0.39358562 0.56331354 -0.040591486 0.075290747 0.056946512 -0.16637628 -0.01854397 -0.44101474 0.65828502 -0.16013405 0.23133886 0.38747495 -0.24870014 0.21984647 0.29222688 0.20940618 -0.097733341 -0.34622738 -0.24671534 0.26252779 0.32757547 0.23278134 0.092482716 -0.19600628 0.28715661 0.45903727 -0.15214215 0.022118272 -0.13878258 -0.17799157 0.40435761 0.00025141236 0.04715351 0.47073847 -0.12589823 0.50926471 -0.0048834994 0.40227383 0.23353834 0.29309371
国内 0.24940298 -0.26743373 0.21293907 -0.19685791 0.20060642 -0.010504773 -0.27579275 -0.30962545 -0.014068574 0.45113462 0.29879573 -0.36452007 -0.17580239 0.31605068 -0.1134024 0.21793123 0.26376733 -0.50122219 -0.0032017822 0.32630348 -0.048167709 0.2923409 0.04726284 0.28017694 -0.090729751 -0.25938848 -0.49477386 0.38167745 0.10092001 -0.20611243 -0.11360377 -0.1005808 0.43288821 0.11272028 -0.11432236 -0.2944172 0.011536204 0.25065342 0.044265438 -0.2441081 -0.24264386 0.021785012 0.2789962 0.24804339 -0.55215961 -0.10518853 0.24227598 -0.17695452 0.41997531 -0.16384333 0.018146394 -0.14409794 -0.18271482 -0.18479501 -0.16324545 -0.04507912 -0.10065749 0.063230157 0.056341078 0.43034193 0.17300573 -0.18938842 -0.079755418 -0.24961357 -0.21639372 -0.20299341 -0.26869315 -0.25247657 0.060200304 0.0069934367 0.098238967 -0.043825768 0.25837255 0.43950346 -0.32511985 0.18127979 -0.031391468 -0.069746502 -0.012570581 0.077589698 -0.23402123 -0.022014881 0.039956573 -0.15192646 0.077931337 0.023927053 0.012268795 0.25757515 -0.021990033 0.27958438 -0.043266203 -0.10095812 0.14479068 -0.12768221 -0.36473244 0.02234084 0.12804818 0.12144624 0.10280752 0.073853724
化工 0.15671299 0.12643498 0.8018648 -0.023220375 -0.28984958 0.17186192 -0.26045868 -0.12575179 0.065399177 0.74214709 0.34483039 -0.014736986 -0.4960705 -0.070303179 0.75015432 0.11782981 0.043111701 -0.32582861 -0.023223376 0.14364697 0.30720133 -0.10456943 0.01450494 -0.30151343 0.035313502 0.59727317 -0.19024599 0.53410053 0.30622917 0.35905018 0.30229804 -0.017317366 0.21705273 0.15529178 0.087096699 0.24673295 -0.20154178 0.62066036 0.14668456 0.11560313 -0.35590377 0.3625237 -0.030091958 -0.00083729252 -0.1816887 -0.024214769 -0.020769643 -0.26818144 0.11944003 -0.25361869 -0.18800268 0.2622768 0.35368457 0.18677929 -0.037352972 0.022423197 -0.096183673 -0.12474845 0.048509043 0.13844605 0.015247315 0.41788745 -0.48728892 0.04589868 0.024207277 0.23361397 -0.30847603 0.046914671 0.079811081 -0.18789297 -0.1160812 0.37576568 -0.12902205 -0.15331979 0.035924945 0.17542015 0.22087823 -0.15583587 -0.13725433 -0.085849367 -0.019787872 -0.58374542 -0.087116547 -0.11277918 -0.32532057 0.45083195 0.064437963 -0.13933516 -0.25308257 0.062316831 0.071118295 -0.052384876 -0.23843966 0.56576669 0.33122319 0.2928113 -0.19598879 0.26410538 0.053785857 0.010705799
领域 0.37742031 -0.15934175 0.26822823 -0.17334016 -0.018386988 0.064069137 -0.25084913 -0.20900682 -0.12424826 0.61317551 0.20942378 -0.13115948 -0.29129076 -0.016018884 0.19530697 0.24711113 0.086310558 -0.24904965 -0.057761084 0.20716757 -0.018497454 0.11134622 -0.048683148 0.053270157 -0.029885823 0.17978486 -0.34391406 0.48249054 0.064054526 0.22674969 0.11013263 -0.21103162 0.28259057 -0.19525833 -0.3343769 0.075850382 -0.096263178 0.23652263 0.044077918 -0.074973054 -0.1744501 0.38842824 0.10209388 0.08656133 -0.5781557 -0.050111309 -0.017926101 -0.32755688 0.17808478 -0.2553786 -0.094300427 0.2130533 0.10687836 0.1939389 -0.032762099 0.076804645 -0.095184065 0.0096365679 0.26696733 0.36937216 0.024275405 0.059009079 -0.093706623 0.21116938 -0.099843331 0.19552279 -0.13277093 -0.21569192 0.30368933 -0.23770243 0.057738107 0.38898525 0.1810711 0.31933177 -0.12333106 0.23322128 -0.015044146 -0.18612286 -0.29276696 0.16057721 -0.18016034 -0.37649211 0.081618838 -0.20963326 -0.042815693 0.35245606 -0.20859 0.21691084 -0.16515359 0.0080462629 -0.024137521 0.15363987 -0.031222003 0.35636955 -0.031113269 0.50365013 -0.048395574 0.019925222 0.036158543 0.16309714
供应商 0.31027839 -0.099172637 0.30438009 -0.27499011 0.17410167 -0.37143528 0.20453002 -0.14516956 0.23759265 0.19667953 0.49714386 -0.11830757 -0.43760166 -0.25928992 -0.078840025 -0.14831838 0.026786637 -0.4590286 0.22417492 0.47392914 0.12405344 -0.014896942 0.047995612 -0.27721882 -0.14193821 -0.39897341 -0.38243437 0.22938967 -0.25297412 0.13956423 -0.21970201 0.12456596 0.16996191 -0.052279469 -0.063413046 -0.14788844 0.015868848 0.16804181 -0.060497005 -0.083623543 0.21710277 -0.026934218 -0.10703272 -0.069786593 0.048083045 -0.25004318 0.33220941 -0.3866936 0.49731091 -0.21743539 -0.33647493 0.20897193 -0.081505843 0.036948964 0.16028918 -0.070852213 0.26826662 0.056442931 -0.21952924 -0.22453389 0.075499989 0.26002872 0.11490504 0.042679705 -0.41887966 0.1013845 -0.51428932 -0.34685102 0.1403207 -0.28551531 0.043318518 0.15463872 -0.10962674 -0.62018788 -0.47672841 0.27887347 -0.34630448 -0.15955736 0.16500321 -0.12023298 0.35908642 0.22968307 -0.25002405 0.30579191 0.16117288 0.15006351 -0.20730074 0.069388852 -0.37749398 0.36235687 0.32193649 0.10629775 -0.10641952 0.096573323 0.045583613 -0.049870238 0.16783477 0.21354227 0.018836319 0.16839255
钢铁 0.27344468 -0.14791916 0.45031387 -0.18266074 0.042369388 -0.15704332 -0.30733985 -0.2658796 0.1769148 0.62151778 0.48365378 -0.26674879 -0.44698021 0.069555029 0.11615013 0.12797938 0.11113973 -0.80012381 0.011696 0.21186511 0.17033119 0.046132047 0.012449164 0.17356265 0.020918744 0.36581677 -0.59081191 0.59130275 0.24469241 0.045789417 0.1233594 0.16888459 0.44390467 0.065027393 0.081845172 -0.3395927 -0.056484055 0.41544133 0.12778659 0.022174794 -0.51790619 0.12730603 0.38687995 0.15649778 -0.22675827 -0.066879973 0.34644374 -0.33430347 0.02076151 -0.13996661 0.20736538 -0.060481682 0.18923886 -0.052950606 -0.27816656 0.016841704 -0.31720683 -0.24852499 -0.027309915 0.31257704 0.094122365 0.10395466 -0.19129224 -0.39502695 -0.050088555 -0.22393966 -0.30218253 -0.07891354 0.034458268 0.13610184 0.051043835 0.080486096 0.10233175 -0.074889921 -0.095410347 0.21951668 0.3244893 -0.21170589 0.024435973 0.056953494 -0.31932595 -0.17331089 0.15056363 -0.19939944 -0.15635869 -0.0051392391 0.34316221 -0.039865091 -0.16561958 0.30509058 0.042218897 -0.41554743 -0.18912661 0.014499405 -0.1581139 0.16367085 -0.080928385 0.2664074 0.024484113 -0.098229192
项目 0.64066768 -0.00075375859 0.20908785 0.094441518 -0.23265028 -0.6124692 0.063228689 -0.2225972 -0.14613654 0.16578768 0.12918031 -0.050288241 -0.18745674 0.053871825 -0.10646168 0.46375093 -0.27320236 -0.12231515 -0.19116022 0.42314735 -0.00080907106 -0.53378814 -0.1711784 0.12909843 0.016145028 -0.038329002 0.20772071 0.12186266 -0.24362519 0.21849576 0.022455271 -0.3085908 0.25309703 0.39402178 -0.033531491 0.092090301 -0.14214051 0.38941696 -0.59409809 -0.81926662 0.064139128 0.48838031 -0.18863654 -0.45522106 -0.14331321 0.31748146 0.3684687 0.13044024 0.96663272 -0.22555591 0.27678007 -0.32435957 0.24366044 -0.2298629 0.033844277 -0.1830676 0.18126288 0.49424824 -0.3803224 0.23101184 -0.4875747 0.43593755 -0.18600029 0.54276896 -0.11292383 -0.31556055 -0.3711575 -0.46918166 0.40694579 -0.080727197 -0.17629726 0.24956973 -0.25558668 0.26654792 0.035989631 -0.1401384 -0.035118867 -0.14498846 -0.35095567 0.013650573 -0.41779181 -0.14638476 -0.061443295 -0.2951676 0.29187977 0.097476482 -0.042893499 0.010290492 -0.22932264 -0.2485863 -0.062395848 0.26200965 0.127581 0.44639036 -0.21117827 0.32663435 0.12654772 -0.024534181 0.075864241 0.97289199
供应链 -0.36350489 -0.31186575 0.47200006 0.18071248 0.29098961 -0.063831814 -0.10697517 -0.53771996 0.22798096 0.1906191 0.12065519 -0.30396658 -0.31226742 -0.099984877 0.10445163 -0.27281708 0.076093644 -0.82110906 0.056824915 -0.12865217 0.28961188 0.047909949 0.43534878 0.10445186 -0.022245111 0.16492523 -0.10037708 -0.026840545 0.35176781 -0.1856184 -0.25638491 -0.24648425 0.026980283 0.20603144 0.25035688 -0.27282652 0.063463405 0.43327495 0.33568618 -0.085857719 -0.42995876 -0.20372647 -0.057255644 0.27980199 -0.3712399 -0.037749678 0.1769256 -0.15212002 0.40123725 -0.54028302 -0.27604258 -0.042613279 -0.057744063 0.19856587 -0.20100822 0.35050198 0.34847736 -0.28541598 -0.19874021 0.31209335 0.37359881 0.43335751 -0.28228065 -0.43104312 -0.30933011 -0.19041677 -0.4544355 -0.10878117 -0.18801595 0.2923651 0.17161016 -0.58577555 -0.19903468 -0.30124786 -0.41303355 -0.013357781 -0.10365056 -0.50564533 -0.0081963157 -0.23153672 -0.090000138 0.19725412 -0.026937323 -0.43700355 -0.036052119 0.6459552 0.032858439 0.31348357 0.17385849 0.61983955 -0.29296812 -0.20131782 0.41212946 0.14250472 0.22968774 0.087510981 0.25277096 0.22294183 0.36070052 -0.082805745
供应 0.2694836 -0.1128858 0.37367484 -0.31620461 -0.017526813 -0.095921136 0.0051378086 0.21932946 0.4131662 0.47968569 0.36817905 -0.13835248 -0.37053016 -0.11294764 0.1826514 0.24658209 -0.084826477 -0.44281465 0.38325247 0.28784782 0.13126764 0.027870759 0.25301641 1.1946788e-05 0.15185684 0.33005184 -0.29744324 0.33715731 -0.25675189 0.30898213 0.074732922 0.16305074 0.36082613 0.17387375 -0.22390758 -0.055136047 -0.045198549 0.10487298 0.08670447 -0.10215595 -0.29413596 0.035761848 -0.0052889627 0.12167376 0.028017243 -0.072724007 0.051588904 -0.10538116 0.13511057 -0.10510987 0.12743996 0.098169677 0.10338012 -0.048289128 0.080671459 0.11655427 0.29661584 -0.39543805 -0.099177077 -0.16166559 -0.00446301 0.29960328 -0.065126553 -0.45374218 0.17397179 -0.1634064 -0.11983148 -0.012628407 0.12544951 -0.070828818 0.13420801 -0.0020139168 0.014374345 -0.22677295 0.22338444 0.091281816 0.26038608 -0.41782993 0.11268498 -0.21717741 0.082003042 -0.19118734 0.33001611 0.18624808 0.099004827 0.16033457 0.0069144261 0.3900457 -0.27065307 -0.063988388 0.13593985 -0.22704826 -0.086352378 -0.12190174 -0.10949302 -0.10847557 0.059228618 0.53300953 -0.23470233 -0.089528941
应用 0.5132373 -0.28325313 0.03449025 -0.32552353 0.089734338 0.067542069 -0.28038239 -0.42502373 -0.25109783 0.56517768 0.14000054 -0.35672915 -0.18990833 0.25206393 -0.2957041 0.37511009 0.077590518 -0.23127469 0.070699953 0.19249676 -0.13010557 0.058212023 0.0045002014 0.26585057 -0.08007177 -0.11878408 -0.35193467 0.55933917 -0.12818082 0.24438533 -0.17522503 -0.27071884 0.423803 -0.086179838 -0.45889789 -0.05114362 -0.048711263 0.045384564 -0.093072429 -0.40615636 -0.19016099 0.17567949 0.062890045 0.052031465 -0.66158617 -0.069069803 0.10382903 -0.41137135 0.45271519 -0.4123441 0.15747432 0.10287981 -0.060640067 0.23792177 -0.062642865 0.2861957 -0.059384879 0.32050416 0.27520877 0.48214629 0.15450278 -0.040966932 0.11284502 0.20248681 -0.022938646 -0.016852593 -0.026993411 -0.42786959 0.46996492 -0.12801494 0.055478401 0.51576543 0.2573061 0.64098859 -0.20434055 0.0056007872 -0.29371786 -0.14621004 -0.4476819 0.39368504 -0.20093735 -0.25119016 0.1024211 -0.33484298 0.24640818 0.25855866 -0.20180096 0.3546541 -0.17014797 -0.034561057 0.080292046 0.10579418 0.06317395 0.3951402 -0.1047943 0.5441674 0.28295282 0.01781234 0.098374732 0.37579963
稀土 0.2954427 -0.37926248 0.094262183 -0.28076839 0.18377799 0.58289784 -0.20432238 -0.34997866 -0.41953355 0.19841674 0.07067699 -0.90368706 -0.39873919 0.18994516 0.63423812 0.20067933 -0.21826817 -0.51117361 0.36165595 0.55708653 -0.28286976 0.019025633 -0.22207353 0.17825422 0.26707047 0.18733612 -0.31831312 0.33079201 0.18222414 0.23406284 -0.36424208 -0.30060393 0.094781883 0.018284582 -0.19562933 -0.22771098 0.15181881 0.028386204 -0.30661312 -0.01618013 -0.82485759 -0.0029587573 0.38391572 0.35763264 -0.6086306 0.16358699 0.12798525 -0.91939509 0.061515827 -0.59395295 0.87735081 0.20817834 -0.10970998 0.15408874 -0.35085556 0.41308293 0.18248032 -0.13189042 0.082208462 0.097346403 0.32023671 -0.15854731 0.069478728 0.22007552 -0.20872995 -0.13210511 -0.18792062 -0.022171978 0.39469376 0.10514917 -0.022257384 0.023383899 0.45345309 0.015600241 -0.69992173 0.14554952 -0.22347288 -0.35689569 -0.35160786 0.39927951 -0.11251675 0.098356128 0.18340027 -0.17049402 0.25893015 0.25382352 -0.1912685 0.001611755 -0.11346769 -0.38644993 0.44184089 -0.3318983 0.11694506 0.62484926 0.32549983 -0.038601443 -0.11073302 0.49980739 0.13022365 -0.12362505
而 0.44380039 -0.061870124 0.22904144 -0.22650114 0.17058511 -0.40624374 0.01276437 0.0019272264 0.29655516 0.30039477 0.63579333 -0.15153658 -0.29437083 0.071589358 -0.18485993 0.039507966 0.11068805 -0.50150406 -0.065449961 0.30140764 -0.020143481 0.13262726 0.023896737 -0.09658388 -0.12961243 -0.29451814 -0.41363883 0.47333679 -0.1428958 0.0068310816 0.06587787 0.30457217 0.19256501 0.14242169 -0.054900758 -0.26879242 -0.20712394 0.14431669 0.021193391 -0.13506082 -0.11702352 -0.051856127 0.11265649 0.070858121 -0.23737045 -0.13421115 0.28979003 -0.086959183 0.55287361 -0.028658461 -0.13300772 -0.22437732 -0.11185209 -0.12040385 0.1788125 -0.21636818 0.045723796 -0.12706339 -0.070621319 0.001027919 -0.018915217 0.11930048 -0.25443807 -0.15938717 -0.28921103 -0.20592582 -0.38520223 -0.39822266 0.1206171 -0.35951823 0.11693779 -0.0012142395 -0.23908915 -0.067450523 -0.26705384 0.30849856 -0.16010512 -0.12033399 0.15752797 -0.15798357 0.3107343 0.17259635 -0.24538349 0.07293383 0.11776669 0.020198027 -0.04035693 -0.022043094 -0.15829039 0.41075584 0.098947681 -0.0097651761 -0.10284105 -0.18592896 -0.3707988 -0.051120609 0.010229635 0.17705742 -0.18760835 0.081954315
能源 0.44129914 -0.060537592 0.17775956 -0.11723211 0.11226109 -0.39820123 0.0052126967 0.13217972 -0.033366296 0.20320323 -0.00046144301 -0.46891776 -0.44501081 -0.00085329934 0.21243328 -0.056873467 -0.054145772 -0.60720342 -0.12007246 0.22061439 0.019316437 -0.041524895 -0.015237318 -0.097631574 -0.16729873 0.82491708 0.084404454 0.39478904 -0.063030981 0.17259777 -0.058849793 0.17668241 -0.094422765 0.0072774095 -0.14377995 -0.19803248 -0.052302092 0.38682589 -0.18065083 0.01124042 -0.52756655 0.21036011 0.27419645 -0.166667 -0.2370276 -0.031683903 -0.09139283 -0.2679466 0.25557941 -0.26016799 0.34968066 -0.0089067752 0.39104006 0.30053553 0.057693508 0.08000721 -0.37447447 -0.36616036 0.25199127 0.010802737 -0.14641309 0.16950099 -0.36547408 -0.0087383362 0.12537502 -0.63919014 -0.12539609 0.036352467 0.33470762 -0.1416579 -0.13018581 -0.11330403 -0.32279772 -0.093497686 0.14378685 0.35887593 0.11958043 -0.63243771 -0.20206662 -0.037813492 -0.22857837 -0.16319837 0.30483827 -0.48880386 -0.24467884 0.34218347 0.10177249 -0.17607072 -0.31140751 0.11401538 0.10182986 -0.13373938 -0.22881398 0.20127718 -0.076515503 0.3949596 -0.17817695 0.11631522 0.16160686 0.31689942
增长 0.38182616 -0.15117817 0.31090727 -0.065783411 0.028477633 -0.46905261 -0.047741231 -0.016339563 0.05304952 0.49033284 0.35001323 -0.26425186 -0.42234838 0.098276176 0.064465426 0.083580136 -0.11901029 -0.5291931 -0.1521188 0.23169342 -0.098019265 -0.053189948 -0.20844896 0.16180639 -0.012106252 0.2239069 -0.44948524 0.36946148 0.031092083 0.067081399 0.035374612 0.22799678 0.37752408 -0.12685892 -0.043192182 -0.15763257 -0.10422822 0.24721183 -0.16654825 -0.1572351 -0.28981161 0.3132076 0.15084922 0.10018776 -0.38927162 -0.011875406 0.08783178 -0.12350862 0.27486822 -0.12585132 0.12830849 -0.18662056 0.34226295 -0.11174301 -0.13323787 -0.23015562 -0.24599513 -0.15036997 0.077787988 0.1972771 -0.1114116 0.041039769 -0.16961114 0.019646827 -0.052360069 -0.35287032 -0.49133605 -0.14671293 0.12425248 -0.17545563 0.00020926855 0.23172186 -0.094225712 -0.010349525 -0.068877108 0.21109223 -0.011179583 -0.23615013 -0.015793316 -0.11859661 -0.21487138 0.025458965 0.12644389 -0.30409554 -0.025899937 0.091171511 0.06364429 0.065668337 -0.30933973 0.21324256 -0.0447115 0.0087889833 -0.084772982 -0.16056047 -0.22388446 0.012101271 -0.12828468 0.12516911 -0.054412819 0.17801908
天然气 0.23811872 -0.18946841 -0.091265842 -0.24225125 -0.1866556 -0.27886406 -0.079744302 -0.53556198 -0.10592113 -0.3088266 0.0017210781 -0.21858907 -0.28059286 -0.13033651 -0.057846263 0.29441965 -0.25708103 -0.29770079 -0.014938256 0.46015427 -0.032229092 -0.29763007 0.40181407 0.13219401 0.31380934 -0.027119361 0.32570595 0.28911746 -0.23192191 0.29670423 -0.10216568 -0.48477706 -0.25215992 0.21137495 -0.04587261 -0.35579517 -0.14846504 -0.054610208 -0.18364085 -0.27229798 -0.21634485 0.21733633 -0.22541501 -0.28325632 0.31536481 0.032998633 0.27911896 -0.26655775 0.61622775 -0.49609452 0.47485378 -0.13222413 -0.16397834 -0.18988819 -0.024583209 0.14796466 0.69115871 -0.054125864 -0.3504293 -0.0073713199 -0.22851926 0.37499863 -0.21453042 0.0088371243 -0.35119823 -0.25183514 0.088879749 -0.23565698 0.58377874 0.39013672 0.30903035 -0.34923705 -0.040332541 -0.088654488 -0.3429338 -0.15128221 0.10804076 -0.59632534 -0.63621151 -0.28704885 -0.16929874 0.0327705 0.095491514 0.030272663 0.35469663 0.11399521 0.049032703 -0.04975754 0.06379544 -0.100665 0.077423431 0.10174166 0.30038154 0.40736961 0.077596374 0.34122619 0.33723378 0.15287776 0.15940988 0.28217739
干细胞 0.58645403 -0.473766 -0.013285629 -0.46138489 0.44687104 0.071196884 -0.2757687 -0.56777388 -0.32332683 0.28769848 0.18408321 -0.67402053 -0.051310241 0.63133574 -0.56859547 0.3559601 0.60457188 -0.66030872 0.38860747 0.36467606 -0.024159808 0.029491834 0.15145095 0.2416316 -0.28985515 -0.16002148 -0.19559464 0.70472276 -0.43667451 0.30232301 -0.33825952 -0.23845562 0.45207176 0.34633961 -0.72796804 -0.12774499 -0.079487897 0.23954332 -0.16440822 -0.44082284 -0.034625422 -0.019185785 0.095702574 -0.29750618 -0.75628763 -0.33620688 0.26679921 -0.68278736 0.88194239 -0.71872997 0.0014886979 0.34677544 -0.38783392 0.60350561 -0.085167728 0.50462103 -0.072533548 0.28616408 0.71097082 0.64820373 0.12718555 0.15823525 0.23823731 0.14197956 -0.17376572 0.0086266631 -0.18623322 -0.65490919 0.37410703 -0.44918934 -0.11385854 0.48478156 0.58170795 0.83844757 -0.40842918 0.24831109 -0.45870194 -0.50801247 -0.67286867 0.51254249 -0.13785534 -0.47120473 0.013662681 -0.19727917 0.082514822 0.4559491 -0.49295285 0.4675068 -0.29819643 -0.083393753 0.43463415 0.091652356 0.11355887 0.61775285 -0.20969319 0.67714751 0.7112546 -0.062770225 0.079308212 0.52628839
聚乙烯醇 0.52762055 -0.078105532 0.28062701 -0.41233239 -0.023425581 -0.39008415 0.061501961 -0.11734821 0.22971588 0.49509704 0.18280022 -0.16549765 -0.43539432 -0.15402231 0.36990619 0.66204953 -0.027804827 -0.0034580734 -0.10248271 0.4453868 -0.22939554 -0.17804816 0.20315433 0.19332761 0.23935996 0.20565134 -0.41876078 -0.075916074 0.053440306 -0.11456661 -0.21805052 -0.033239685 0.54287469 -0.38349721 -0.81067586 0.48473674 -0.23309267 0.2002556 -0.49760827 -0.28028122 0.1609026 0.36345625 -0.032873146 -0.142038 -0.40075412 -0.087076895 0.51096654 -0.50269878 0.037752822 -0.26087362 -0.43297029 -0.034383096 0.42069975 0.16774122 -0.081388339 0.33759588 0.14005227 0.52300191 0.17487478 0.41550574 0.0069315434 -0.18796754 0.018549429 0.55311722 -0.50970685 0.034301963 -0.72205907 -0.30806035 0.2236148 -0.019823397 -0.093563266 0.098088033 -0.02720784 -0.11793458 -0.63230312 0.57032835 0.06867376 -0.0052260896 0.23847534 -0.24248745 -0.18735902 -0.11339054 0.29338881 0.017093636 0.15412931 0.2426722 -0.36724952 0.25682428 -0.010185838 0.16065438 -0.20118287 0.035636857 0.32014635 0.1618553 -0.13968369 -0.011735466 0.018367272 -0.058947749 -0.090880424 0.1228333
持续 0.18611614 -0.11491473 0.48810157 -0.18790674 0.12497334 -0.26198018 -0.08068639 -0.0069981515 0.0090818452 0.58090222 0.44365531 -0.23283799 -0.26531312 0.28252125 0.10316022 0.014238664 0.20347898 -0.60987675 0.12710789 0.43026203 0.049949307 0.081074052 0.025030011 0.076558828 -0.061606608 0.26540133 -0.74016297 0.32302845 -0.052047718 0.1898136 0.17997234 0.18253326 0.5553475 0.0011336181 0.070961148 -0.29544374 -0.14092761 0.51078969 0.037802454 -0.1312355 -0.36957228 0.17491807 0.10517231 0.13354765 -0.36663464 -0.2196375 0.10840309 -0.30647311 0.21432611 -0.31670648 0.038753141 -0.10106209 0.059761487 -0.11829038 -0.20359837 -0.15546681 -0.12894194 -0.41565466 -0.084091187 0.271631 0.12708606 0.20059006 0.0093030781 -0.39314318 0.033374932 -0.19551952 -0.28578615 -0.17558767 -0.035671573 -0.18549055 0.17544049 0.086517945 0.20774019 -0.35216618 -0.15074396 0.20302995 0.026715823 -0.22405663 0.00092160143 -0.12950768 -0.02684834 -0.079923399 0.18395317 -0.12198484 -0.26701844 0.16413815 0.11635022 0.29090178 -0.29012558 0.20709364 0.055935849 -0.17286494 -0.20707093 -0.40184107 -0.19955878 -0.13975637 0.23764367 0.18488827 -0.11091969 -0.038244296
过剩 0.24403994 -0.51943564 0.62119114 -0.36602336 0.13812673 0.12595603 -0.14894606 0.09337496 0.30189118 0.78668535 0.23588991 -0.2378428 -0.20251954 0.13943219 0.084914386 0.29847485 0.043876484 -0.8763631 0.20487154 0.32157379 0.18686582 0.15707649 -0.11427905 0.41360137 0.00059961877 -0.028413482 -0.77023798 0.43615389 0.24597147 -0.24129176 0.046359487 -0.17348267 0.67452711 0.073821895 0.10237591 -0.3826836 -0.033700164 0.51365006 0.11224505 -0.32893485 -0.62172967 0.26257673 0.42005947 0.63150907 -0.29284498 -0.067330837 0.22535919 -0.16996671 0.14479432 -0.12219214 0.28238139 -0.22432935 -0.063373774 -0.43609309 -0.33810946 0.052754305 -0.10274619 0.30017242 -0.27386415 0.33048564 0.31697324 -0.13069701 -0.20395929 -0.55463594 -0.21036708 -0.11630635 -0.50778067 -0.17992385 0.12704538 0.017323416 0.065612704 -0.09678138 0.33399963 0.3029626 -0.18098733 0.064329267 0.43690735 -0.14986099 0.17399938 0.099250346 -0.54901659 -0.19584922 0.36228752 -0.40320945 0.11369347 -0.001521191 0.38993493 0.46583423 -0.3240523 0.10002214 0.043143224 -0.61139768 -0.10525635 0.0027675768 -0.54982978 -0.11153784 -0.10269204 0.46364507 0.1255549 0.035732251
医药 0.11569067 -0.21031111 0.68332195 -0.053717665 -0.039829798 0.32201415 -0.15567811 -0.489979 0.16484384 0.50699806 0.7013225 0.27840254 -0.43818173 -0.4298273 0.071952716 -0.095121101 0.24575324 -0.36724183 -0.15726104 -0.063355006 0.37138495 -0.037929662 0.25890952 -0.30412456 -0.063444935 -0.026719045 -0.047102228 0.87160897 0.017524481 0.18562394 0.31551632 -0.0059368508 0.10709121 0.14969188 -0.064449139 -0.14287737 -0.0582355 0.44241291 0.44881007 0.36546478 -0.18924345 0.18239279 -0.10868219 -0.088779114 0.10045364 -0.050738543 0.17554082 -0.023166111 0.23836806 -0.18044397 -0.41654193 0.21533926 -0.015026194 0.26402712 0.38175833 0.014015789 0.37790662 -0.14731835 0.015311655 -0.1146623 0.0453506 0.58947033 -0.60464823 -0.10074398 -0.43757424 0.44839489 -0.046925824 -0.2000389 -0.093324982 -0.1046885 0.20403576 0.053837765 -0.16233787 0.019064156 0.032849565 0.078436904 0.10182897 -0.32877871 -0.19041161 -0.098634601 0.32240143 -0.72694927 -0.57748306 -0.10016164 -0.032050766 0.60139203 -0.071285814 -0.34381852 0.27864096 0.51526815 -0.065435931 0.059488032 0.087851942 0.58576936 0.022047454 0.56223899 -0.09410838 0.23761223 -0.0089511676 0.048978854
因素 0.16426967 -0.1107707 0.5749135 -0.27061576 0.0093924562 -0.042220138 -0.17479286 -0.099095084 -0.10838339 0.58500224 0.27575025 -0.22126129 -0.25290489 0.034583982 0.27393019 0.14199556 -0.091326974 -0.42683917 0.18893985 0.54355276 0.0094282199 0.12536496 -0.1441405 0.18328825 0.085529141 0.070433639 -0.58869934 0.26926941 0.080615804 0.089160949 0.19296466 -0.063094303 0.35052809 -0.017644873 0.17469858 -0.4369022 -0.01393778 0.43172273 -0.044717193 -0.19353437 -0.43110067 0.41891176 0.089944877 0.45206738 -0.13614196 -0.034446791 0.1110743 -0.34212223 0.31154552 -0.23032859 0.3123621 -0.19122171 -0.040871687 -0.30833831 -0.24254026 -0.15854165 0.037316408 -0.1708841 -0.25259101 0.25616804 0.11801179 0.16147999 -0.21215531 -0.38630199 0.065795287 -0.44908136 -0.17975566 -0.015300071 0.20304941 0.1518866 0.466645 -0.036950495 0.23338561 -0.16240008 -0.15538424 0.21321535 0.27477548 -0.43642291 -0.14893061 0.054638378 -0.20838512 -0.00908932 0.3370865 -0.1816383 -0.087732397 0.088364385 0.21092534 0.32934269 -0.21742532 -0.05706561 0.059467468 -0.29418647 0.031082934 -0.20086159 -0.30441272 0.015466652 -0.10528658 0.46722937 -0.013691305 -0.019329328
能力 0.12884971 0.23326215 0.32455093 -0.17360313 -0.051729407 0.098455124 -0.15427971 0.1503623 0.12132221 0.56343651 0.35251266 -0.30648357 -0.3745214 -0.20083174 0.47505832 0.20250162 -0.12769988 -0.36234322 0.31497958 0.21979971 0.091626704 -0.017260563 0.093215644 0.013786592 0.11675768 0.24695466 -0.35480359 -0.0017686844 0.24921778 0.37989721 0.027331172 -0.015133037 0.28246355 -0.0075701922 -0.28099453 0.035308633 -0.24477801 -0.008283169 0.003851535 -0.014094875 -0.4123143 0.2697522 0.12975404 0.29883546 -0.27463567 -0.10751538 0.053333223 -0.42633542 0.33601215 -0.080029294 0.038886644 0.40255401 0.059653502 0.031856764 -0.16196224 0.13920529 0.20715813 -0.41324455 0.040176287 0.029970093 0.21403988 0.50072461 0.10453685 -0.32822815 0.045253389 -0.18620133 -0.34449929 -0.087349236 0.20405699 -0.091090091 0.23731989 0.1813001 0.26846176 -0.45946351 -0.059862457 0.077478871 0.14032821 -0.42269751 0.22616261 -0.32629162 0.16703272 -0.14273037 0.46960476 0.25279063 -0.0091132028 0.44255689 -0.25176254 0.57946086 -0.26103961 -0.34928495 0.21016127 -0.16459255 0.10518769 -0.16723287 0.21629059 -0.30060807 0.039836433 0.34114593 -0.044077042 -0.16878858
提供 0.087783389 0.11518723 0.325232 0.060441602 -0.070841499 -0.090374112 -0.074590012 0.029933684 0.17273898 0.27926448 0.07694 -0.12493257 -0.29819933 -0.32424214 0.21362695 -0.30859411 -0.19618005 -0.41286483 -0.052111823 0.015642719 0.35044828 -0.021569306 0.048933737 -0.20299047 -0.19902346 -0.10070594 0.057815697 0.23651046 0.2245848 0.18609022 -0.23705414 0.060814414 0.16477612 -0.031573448 0.079805478 0.052226163 -0.034898072 0.36447564 0.024195751 -0.12716541 -0.03191122 0.22921589 -0.11447018 -0.051652271 -0.091723271 -0.26467648 0.015171613 -0.35564587 0.60775846 -0.1477489 -0.58264947 0.4302986 0.12054489 0.19422752 0.12930198 0.14405824 0.025585849 0.14542043 -0.031280715 -0.032507487 -0.077744223 0.31485385 -0.22435117 0.095717438 -0.13627982 0.058340162 -0.41944081 -0.14605115 0.10042187 -0.17650388 -0.016054612 0.058691435 -0.16935426 -0.40839839 -0.2667408 0.11889521 -0.11906733 -0.19591503 -0.070701897 -0.27682674 -0.070229642 -0.088641241 0.020276695 -0.15831412 -0.083934188 0.39487562 -0.24649842 0.22331975 -0.33989221 0.23734422 0.011279244 0.045962319 -0.078971311 0.37316489 0.34561527 0.080992013 -0.040362593 0.038655307 0.17177555 0.17235912
研发 0.42562655 -0.22085878 0.10169294 -0.00090070849 0.045425348 0.17150877 -0.12889969 -0.26533169 -0.18106219 0.36517346 -0.073757596 -0.35647717 -0.11294439 0.042781238 0.03606667 0.28912202 0.054568689 -0.40850976 0.16020823 0.12850548 0.013525849 -0.13764341 0.10479147 0.14282541 -0.12950984 -0.1675321 -0.017132007 0.28946862 0.037733857 0.20626345 -0.23853661 -0.30957842 0.32373089 -0.041991521 -0.46261361 0.13689175 -0.12379133 0.21432295 -0.16531524 -0.35252491 -0.0020498673 0.20452984 -0.048716206 -0.051073819 -0.55799979 -0.1468509 0.1430258 -0.44035563 0.6102109 -0.42709231 -0.11967129 0.44481194 -0.13286981 0.2004265 -0.068047866 0.26197129 0.039587811 0.37313917 0.2526077 0.40255976 -0.050597876 0.10809516 0.073109634 0.26610237 -0.099732712 0.24721837 -0.25665843 -0.26730362 0.310794 -0.27585697 -0.16235897 0.34765726 0.41553411 0.39600945 -0.34904638 -0.047863018 -0.27598757 -0.22979225 -0.37241021 0.25920448 -0.28569216 -0.25633362 0.099350043 -0.12929481 0.1067307 0.27227098 -0.41576731 0.34687769 -0.1526276 -0.25129738 0.062041655 0.26372433 0.1086802 0.5150739 0.11399359 0.2471215 0.19200003 -0.11058123 0.19813833 0.39164758
汽车 0.32042176 -0.64410502 0.46140674 -0.28661978 0.23921911 -0.27093858 0.045404162 -0.15065676 0.058768079 0.47633445 0.40533075 -0.2740559 -0.60539341 -0.29185501 -0.12544748 -0.051153999 -0.025756858 -0.62629044 0.0737544 0.10240047 0.16439217 0.1917133 -0.077529073 -0.1759759 -0.13906744 0.36719492 -0.54677212 0.57737184 -0.33315831 -0.012084436 0.15619451 0.23158024 0.28953782 -0.077410445 -0.10208074 -0.17623459 0.010741695 0.61355668 0.10546154 0.18065016 -0.03850472 0.22571558 0.13978113 0.26840776 -0.20001844 -0.19198929 0.019975498 -0.12643905 0.065512873 -0.27334851 0.08550901 -0.19798155 0.20479958 0.15199663 0.046654496 0.040192146 -0.27224228 -0.22517659 0.15381615 0.15564571 -0.013719872 0.0058877142 -0.14345463 0.011307649 -0.15951452 -0.29766005 -0.19431701 -0.071013302 -0.031567525 -0.05872196 0.056240316 0.064526923 -0.22690764 0.22702198 0.010519185 0.47095543 0.0082709426 -0.41917303 -0.01062535 0.23370926 0.0024483528 -0.24922791 -0.054144297 -0.1647106 -0.13943096 0.18289821 0.30309972 0.021198612 -0.16216278 0.52082211 0.16327332 -0.25083563 -0.20360391 0.1772618 -0.3546468 0.60833782 -0.37087336 0.2128889 0.012633857 0.076615959
增速 0.41087052 -0.44844961 0.55256027 -0.22601765 0.074090809 -0.45196319 -0.20209092 -0.38216814 -0.0030656413 0.66977566 0.47158378 -0.29983896 -0.30716267 0.25031757 -0.1970129 0.30629516 0.1411252 -0.75317484 0.010360769 0.21426263 0.19656809 -0.10090867 -0.097730048 0.32993722 -0.0041969679 0.35557646 -0.71294516 0.46399593 -0.085755698 0.094631657 0.094652332 0.23441683 0.61717683 0.13550422 0.096512325 -0.42722055 -0.064943083 0.43554521 -0.032853361 -0.33789328 -0.37013844 0.22754592 0.33093199 0.061192244 -0.35314313 -0.0054980759 0.43547329 -0.26122323 0.13997622 -0.28996146 0.41800398 -0.41128317 0.30761442 -0.17314732 -0.2918025 0.09184067 -0.39834449 -0.28062534 -0.089196272 0.46668583 0.02239552 0.029628644 -0.23285678 -0.50044274 0.095972918 -0.44873208 -0.32396576 -0.19146472 0.074051604 0.15254159 0.10901808 0.018641412 0.048236202 -0.058010921 -0.032505933 0.11798804 0.18529558 -0.28305522 -0.10738739 0.11574107 -0.33359936 -0.16963294 0.20294517 -0.42118165 -0.027927196 0.089839451 0.34699509 0.15343376 -0.21587752 0.24799481 -0.040918164 -0.36361745 0.036399197 -0.15975355 -0.40676269 0.24955153 0.10241773 0.22252804 -0.09521421 0.17088294
服务 -0.0617649 0.024663184 0.33733201 0.04122062 0.01467705 -0.071433902 -0.021037286 -0.13958295 0.18397024 0.26755846 0.092043951 -0.060704898 -0.24722576 -0.29476625 0.060807765 -0.32576099 -0.12656388 -0.49027628 -0.063141592 -0.070548572 0.22088698 0.02159366 0.21355352 -0.049524233 -0.093145192 -0.27198312 -0.010170097 0.19090928 0.29581404 0.091197267 -0.20865893 0.028165272 0.18889993 -0.032828052 0.11271115 -0.03837622 -0.055993203 0.2939319 0.14165458 -0.14355476 -0.097484648 0.10673548 -0.14249317 0.09693563 -0.14265475 -0.21227254 0.029053891 -0.28195676 0.67726856 -0.24240176 -0.57155204 0.46199077 -0.043871313 0.12665218 0.042628635 0.10634212 0.24921709 0.05924473 -0.12835284 0.0056641949 0.057060149 0.29163074 -0.27059948 -0.15764637 -0.20471509 0.081097901 -0.29324156 -0.23900031 0.040186267 -0.012797488 0.15582052 -0.13765876 -0.20919169 -0.35512602 -0.27275395 -0.019384576 -0.14508323 -0.24568443 -0.11694898 -0.17004384 -0.051389351 -0.0021175109 -0.030912222 -0.2815046 -0.10789334 0.38379586 -0.2071629 0.3235313 -0.03896508 0.39204803 -0.1670465 0.12522341 0.201822 0.11457193 0.22383711 0.041659981 0.084312074 0.041675985 0.19405378 0.11348788
体育 -0.35088101 0.27432486 0.38032937 -0.231298 0.48689646 0.026675474 0.16189662 -0.17006521 -0.24855113 0.14787255 -0.23858933 -0.23433569 -0.2625722 0.12471216 0.38709339 -0.41117218 0.33366808 -0.60325897 0.16644002 0.68902498 -0.21778457 0.025939872 0.35616669 -0.015893526 0.24168599 -0.069390938 -0.23937401 -0.21623161 0.22895101 -0.019727712 -0.092940278 -0.49845943 0.16366303 0.25743014 0.01725612 -0.31482202 0.11423358 0.65698385 -0.24844815 0.15615739 -0.27511397 0.035619736 -0.096988387 -0.14938247 -0.096551992 -0.099194504 -0.11576562 -0.37255442 0.72676271 -0.88563257 -0.32589236 0.21844451 -0.40776947 0.32869112 -0.26471481 -0.014007427 0.58108097 -0.30844072 -0.10708435 0.062102959 0.63107812 0.51524478 0.019728744 -0.10345434 -0.55891907 -0.072305195 -0.63264692 -0.57729697 -0.12614593 0.057935912 0.12755415 -0.043992661 0.14286652 -0.8668654 -0.45003662 0.30826139 -0.059725344 -0.60461056 -0.25987956 -0.20874639 0.11077104 0.099417314 0.10281433 -0.17627408 -0.51732856 0.79875416 -0.10890046 0.30812091 -0.073460281 -0.0038608508 0.029941114 0.024633629 0.33793706 0.066122755 0.54362136 -0.26448956 0.54378688 0.2578038 0.43786407 0.16919291
经营 -0.10537903 -0.41815388 0.40061006 -0.27699161 0.092520632 0.028818471 0.093749851 -0.2916576 -0.013618045 0.24473968 0.068126626 -0.025401594 -0.2729758 -0.28614926 0.13171189 -0.058133729 -0.062570162 -0.31852481 0.16970888 0.4275645 -0.063045606 0.15405306 0.084097907 0.11859055 0.22760959 -0.18040612 -0.35172206 0.16525052 0.026482947 0.023209015 0.24005185 -0.31269562 0.076320715 -0.14379796 -0.076721884 -0.23856479 0.071421146 0.38343126 -0.14398909 0.015274236 -0.16933438 0.34793255 -0.20922619 0.30373713 0.076519802 -0.022914398 0.025260853 -0.27759439 0.2561712 -0.53169638 0.029368689 -0.25527853 -0.18203989 0.028089285 -0.059896387 0.01757594 0.34508008 -0.055427127 -0.16408007 0.20623994 0.23212187 0.23141687 -0.080827817 0.029418033 -0.23643208 -0.26162961 -0.11136934 -0.1644156 0.0036658517 0.16820216 0.389727 -0.023895273 0.080833681 -0.32812211 -0.29275766 0.37852934 0.14362238 -0.46524248 -0.32122847 0.054270159 0.1376126 0.092716195 0.092145942 0.066935666 0.055370621 0.20630202 0.060365025 0.35367614 0.018548457 0.041621868 0.010367525 -0.17883451 0.30405644 0.030953728 -0.043776661 0.10846525 0.03689947 0.32342649 0.10847312 0.019342165
有 0.26620173 -0.029650779 0.10803033 -0.19159466 0.015520091 -0.10614926 0.14096959 -0.21155475 -0.10966307 0.21479319 0.16982381 -0.36499599 -0.40517652 -0.26444957 0.34224138 0.14034578 -0.15244958 -0.28897417 0.051788546 0.20908107 -0.2620689 -0.03119974 -0.040242463 0.095895499 0.25752461 0.010349652 -0.33107671 0.065415837 0.22013476 0.13723785 -0.15370284 -0.09594366 0.16653098 -0.093554325 -0.27437019 -0.011893061 -0.12061036 -0.022358637 -0.20870396 0.13057235 -0.19378226 0.20427828 0.2284683 0.075967133 -0.26593617 0.17450273 0.20464282 -0.39197126 0.30654308 -0.32178742 0.15127653 0.12596828 -0.022430979 0.088347174 -0.12391334 0.16343236 0.13785648 -0.32605469 -0.034471247 -0.0039908146 0.33042058 0.2524561 0.096492007 0.18303891 -0.16545211 -0.15651873 -0.18868212 -0.37954894 0.3723717 0.10901463 0.17954899 0.22897971 -0.024330411 -0.34162939 -0.23239434 0.29136726 -0.12751131 -0.23636684 -0.11545464 0.15212189 0.19561729 0.099824868 0.11811978 0.0047930721 0.11531234 0.21870247 -0.08737947 0.059126586 0.11555469 -0.091568328 0.2644352 -0.060385816 0.33236796 0.21181542 0.22410071 -0.0019123778 -0.11560597 0.28872117 0.16466907 -0.039791957
经济 0.43172607 -0.3983103 0.58198249 -0.39694405 0.089756109 -0.48123258 -0.19361672 -0.40040603 -0.16618589 0.56900406 0.32269588 -0.33591959 -0.18643737 0.3567678 -0.18901284 0.33468905 0.14287776 -0.63014191 -0.036823343 0.47982317 0.00241576 -0.0036079376 -0.22156419 0.37573385 0.059489541 0.18516263 -0.75151926 0.41883025 -0.043449823 0.010273308 -0.026025409 0.21226108 0.59685928 -0.093172945 0.058835849 -0.39086369 -0.0086908452 0.44774806 -0.23469722 -0.33168116 -0.260171 0.32303387 0.27964985 0.086843528 -0.44697875 -0.054125831 0.39999896 -0.41065982 0.29774165 -0.42266074 0.44190609 -0.38838539 0.25415483 -0.1304238 -0.31638533 0.014043957 -0.38752526 -0.097161524 -0.07336355 0.54310495 0.014362656 -0.11562931 -0.15409794 -0.31736016 0.087796792 -0.53148794 -0.2488983 -0.28873035 0.13661003 0.096202694 0.19618879 0.01285333 0.16209075 -0.088924222 -0.1923231 0.24160792 0.1408477 -0.29995656 -0.27942711 0.28324845 -0.36022949 -0.14595339 0.223993 -0.42053729 -0.068150565 0.024451628 0.33288869 0.15665805 -0.19193955 0.23113419 -0.033176638 -0.27738845 0.20549795 -0.16644149 -0.45570853 0.1261386 0.16330458 0.23422527 -0.024815593 0.15684138
拓展 0.12743999 -0.068131141 0.19921595 -0.046431132 0.18747494 0.069039501 -0.081730165 0.1082565 -0.1623182 0.43456602 0.23089309 -0.33246988 -0.1409964 0.22229752 0.40965649 0.17563532 0.26959485 -0.29694653 0.19921888 0.31558529 0.024251927 0.086686328 0.12102628 -0.12440672 -0.053935464 0.16193913 -0.14989366 0.052864749 -0.06960243 0.19680984 0.091053672 -0.17753312 0.16456254 0.17328753 -0.2970691 -0.030884519 -0.24370793 0.34241149 0.014467007 -0.095064342 -0.35841298 0.040298406 -0.046288926 0.088175222 -0.49180967 -0.15222515 -0.025880167 -0.33583218 0.22211571 -0.45735335 -0.21797781 0.063843079 -0.11106245 0.077362038 -0.10954841 0.17160963 0.044771347 -0.15799417 0.1595374 0.25579122 0.23373613 0.33608425 0.0032531177 0.0047752974 -0.12167373 0.03871024 -0.2542024 -0.21057624 0.033736151 -0.38447189 -0.047932945 0.19732641 0.21197143 -0.013382128 -0.32631847 0.21968487 -0.12297678 -0.27233109 -0.010675617 -0.17321213 0.10988098 -0.08662986 0.17358588 0.029772293 -0.11348932 0.51783526 -0.29766729 0.29510579 -0.28861499 -0.11144466 0.16273765 0.024647903 -0.036641303 0.17565548 0.05629316 0.10400866 0.18996818 0.079616956 -0.049790304 0.070636608
